tree
version=v4
num_class=1
num_tree_per_iteration=1
label_index=0
max_feature_idx=310
objective=binary sigmoid:1
feature_names=numero_de_cliente foto_mes active_quarter cliente_vip internet cliente_edad cliente_antiguedad mrentabilidad mrentabilidad_annual mcomisiones mactivos_margen mpasivos_margen cproductos tcuentas ccuenta_corriente mcuenta_corriente_adicional mcuenta_corriente ccaja_ahorro mcaja_ahorro mcaja_ahorro_adicional mcaja_ahorro_dolares cdescubierto_preacordado mcuentas_saldo ctarjeta_debito ctarjeta_debito_transacciones mautoservicio ctarjeta_visa ctarjeta_visa_transacciones mtarjeta_visa_consumo ctarjeta_master ctarjeta_master_transacciones mtarjeta_master_consumo cprestamos_personales mprestamos_personales cprestamos_prendarios mprestamos_prendarios cprestamos_hipotecarios mprestamos_hipotecarios cplazo_fijo mplazo_fijo_dolares mplazo_fijo_pesos cinversion1 minversion1_pesos minversion1_dolares cinversion2 minversion2 cseguro_vida cseguro_auto cseguro_vivienda cseguro_accidentes_personales ccaja_seguridad cpayroll_trx mpayroll mpayroll2 cpayroll2_trx ccuenta_debitos_automaticos mcuenta_debitos_automaticos ctarjeta_visa_debitos_automaticos mttarjeta_visa_debitos_automaticos ctarjeta_master_debitos_automaticos mttarjeta_master_debitos_automaticos cpagodeservicios mpagodeservicios cpagomiscuentas mpagomiscuentas ccajeros_propios_descuentos mcajeros_propios_descuentos ctarjeta_visa_descuentos mtarjeta_visa_descuentos ctarjeta_master_descuentos mtarjeta_master_descuentos ccomisiones_mantenimiento mcomisiones_mantenimiento ccomisiones_otras mcomisiones_otras cforex cforex_buy mforex_buy cforex_sell mforex_sell ctransferencias_recibidas mtransferencias_recibidas ctransferencias_emitidas mtransferencias_emitidas cextraccion_autoservicio mextraccion_autoservicio ccheques_depositados mcheques_depositados ccheques_emitidos mcheques_emitidos ccheques_depositados_rechazados mcheques_depositados_rechazados ccheques_emitidos_rechazados mcheques_emitidos_rechazados tcallcenter ccallcenter_transacciones thomebanking chomebanking_transacciones ccajas_transacciones ccajas_consultas ccajas_depositos ccajas_extracciones ccajas_otras catm_trx matm catm_trx_other matm_other ctrx_quarter tmobile_app cmobile_app_trx Master_delinquency Master_status Master_mfinanciacion_limite Master_Fvencimiento Master_Finiciomora Master_msaldototal Master_msaldopesos Master_msaldodolares Master_mconsumospesos Master_mconsumosdolares Master_mlimitecompra Master_madelantopesos Master_madelantodolares Master_fultimo_cierre Master_mpagado Master_mpagospesos Master_mpagosdolares Master_fechaalta Master_mconsumototal Master_cconsumos Master_cadelantosefectivo Master_mpagominimo Visa_delinquency Visa_status Visa_mfinanciacion_limite Visa_Fvencimiento Visa_Finiciomora Visa_msaldototal Visa_msaldopesos Visa_msaldodolares Visa_mconsumospesos Visa_mconsumosdolares Visa_mlimitecompra Visa_madelantopesos Visa_madelantodolares Visa_fultimo_cierre Visa_mpagado Visa_mpagospesos Visa_mpagosdolares Visa_fechaalta Visa_mconsumototal Visa_cconsumos Visa_cadelantosefectivo Visa_mpagominimo ctarjeta_total_transacciones ctarjeta_credito_transacciones mtarjeta_credito_consumo credito_mlimitecompra ratio_consumo_credito usa_tarjeta_credito mcaja_ahorro_total mcuenta_corriente_total mplazo_fijo_total mpasivos_total ratio_ahorro_cuentas usa_cuentas minversiones_total usa_inversiones mprestamos_total usa_prestamos mactivos_total mbanco_total margen_total ratio_margen_activos ratio_margen_pasivos ratio_margen_banco ratio_activo_pasivo porc_mrentabilidad_annual tiene_payroll ctrx_promedio_mensual ratio_tarjeta_transacciones ratio_uso_productos active_quarter_lag_1 active_quarter_lag_2 mrentabilidad_lag_1 mrentabilidad_lag_2 mcomisiones_lag_1 mcomisiones_lag_2 mactivos_margen_lag_1 mactivos_margen_lag_2 mpasivos_margen_lag_1 mpasivos_margen_lag_2 cproductos_lag_1 cproductos_lag_2 mcuenta_corriente_lag_1 mcuenta_corriente_lag_2 mcaja_ahorro_lag_1 mcaja_ahorro_lag_2 mcuentas_saldo_lag_1 mcuentas_saldo_lag_2 mautoservicio_lag_1 mautoservicio_lag_2 mtarjeta_visa_consumo_lag_1 mtarjeta_visa_consumo_lag_2 mtarjeta_master_consumo_lag_1 mtarjeta_master_consumo_lag_2 mprestamos_personales_lag_1 mprestamos_personales_lag_2 mprestamos_prendarios_lag_1 mprestamos_prendarios_lag_2 mprestamos_hipotecarios_lag_1 mprestamos_hipotecarios_lag_2 mplazo_fijo_dolares_lag_1 mplazo_fijo_dolares_lag_2 mplazo_fijo_pesos_lag_1 mplazo_fijo_pesos_lag_2 minversion1_pesos_lag_1 minversion1_pesos_lag_2 minversion1_dolares_lag_1 minversion1_dolares_lag_2 minversion2_lag_1 minversion2_lag_2 mpayroll_lag_1 mpayroll_lag_2 mpayroll2_lag_1 mpayroll2_lag_2 mcuenta_debitos_automaticos_lag_1 mcuenta_debitos_automaticos_lag_2 mttarjeta_visa_debitos_automaticos_lag_1 mttarjeta_visa_debitos_automaticos_lag_2 mttarjeta_master_debitos_automaticos_lag_1 mttarjeta_master_debitos_automaticos_lag_2 mpagodeservicios_lag_1 mpagodeservicios_lag_2 mpagomiscuentas_lag_1 mpagomiscuentas_lag_2 mcajeros_propios_descuentos_lag_1 mcajeros_propios_descuentos_lag_2 mtarjeta_visa_descuentos_lag_1 mtarjeta_visa_descuentos_lag_2 mtarjeta_master_descuentos_lag_1 mtarjeta_master_descuentos_lag_2 mcomisiones_mantenimiento_lag_1 mcomisiones_mantenimiento_lag_2 mcomisiones_otras_lag_1 mcomisiones_otras_lag_2 mforex_buy_lag_1 mforex_buy_lag_2 mforex_sell_lag_1 mforex_sell_lag_2 mtransferencias_recibidas_lag_1 mtransferencias_recibidas_lag_2 mtransferencias_emitidas_lag_1 mtransferencias_emitidas_lag_2 cextraccion_autoservicio_lag_1 cextraccion_autoservicio_lag_2 mextraccion_autoservicio_lag_1 mextraccion_autoservicio_lag_2 mcheques_depositados_lag_1 mcheques_depositados_lag_2 mcheques_emitidos_lag_1 mcheques_emitidos_lag_2 ctrx_quarter_lag_1 ctrx_quarter_lag_2 Master_msaldototal_lag_1 Master_msaldototal_lag_2 Visa_msaldototal_lag_1 Visa_msaldototal_lag_2 active_quarter_moving_avg_2 mrentabilidad_moving_avg_2 mcomisiones_moving_avg_2 mactivos_margen_moving_avg_2 mpasivos_margen_moving_avg_2 cproductos_moving_avg_2 mcuenta_corriente_moving_avg_2 mcaja_ahorro_moving_avg_2 mcuentas_saldo_moving_avg_2 mautoservicio_moving_avg_2 mtarjeta_visa_consumo_moving_avg_2 mtarjeta_master_consumo_moving_avg_2 mprestamos_personales_moving_avg_2 mprestamos_prendarios_moving_avg_2 mprestamos_hipotecarios_moving_avg_2 mplazo_fijo_dolares_moving_avg_2 mplazo_fijo_pesos_moving_avg_2 minversion1_pesos_moving_avg_2 minversion1_dolares_moving_avg_2 minversion2_moving_avg_2 mpayroll_moving_avg_2 mpayroll2_moving_avg_2 mcuenta_debitos_automaticos_moving_avg_2 mttarjeta_visa_debitos_automaticos_moving_avg_2 mttarjeta_master_debitos_automaticos_moving_avg_2 mpagodeservicios_moving_avg_2 mpagomiscuentas_moving_avg_2 mcajeros_propios_descuentos_moving_avg_2 mtarjeta_visa_descuentos_moving_avg_2 mtarjeta_master_descuentos_moving_avg_2 mcomisiones_mantenimiento_moving_avg_2 mcomisiones_otras_moving_avg_2 mforex_buy_moving_avg_2 mforex_sell_moving_avg_2 mtransferencias_recibidas_moving_avg_2 mtransferencias_emitidas_moving_avg_2 cextraccion_autoservicio_moving_avg_2 mextraccion_autoservicio_moving_avg_2 mcheques_depositados_moving_avg_2 mcheques_emitidos_moving_avg_2 ctrx_quarter_moving_avg_2 Master_msaldototal_moving_avg_2 Visa_msaldototal_moving_avg_2
feature_infos=[249221323:1591812658] [202101:202104] [0:1] [0:1] [0:3] [18:99] [1:376] [-273643.54999999999:798611.70999999996] [-1172112.05:4724933.8799999999] [-53414.900000000001:378033.95000000001] [-256241.59:396059.15999999997] [-47417.279999999999:631291.55000000005] [3:16] [1:2] [1:3] [-3878.3299999999999:15133869.75] [-2610299.1099999999:28663799.539999999] [2:10] [-4752.5299999999997:28094642.289999999] [-17279.18:2062093.0900000001] [-19533.720000000001:63080560.350000001] [0:1] [-2610221.8100000001:127308652.36] [0:114] [0:145] [0:667903.68000000005] [0:3] [0:372] [0:2133665.7599999998] [0:3] [0:281] [0:2564181.1200000001] [0:547] [0:3331807.7400000002] [0:17] [0:17204182.640000001] [0:19] [0:19555926.59] [0:119] [0:60255779.869999997] [0:39762353.350000001] [0:13] [0:56514933.619999997] [0:64793271.390000001] [0:53] [0:263797425.84] [0:3] [0:5] [0:7] [0:2] [0:6] [0:104] [0:32795854.210000001] [0:2647948.96] [0:5] [0:136] [0:4664928.79] [0:63] [0:491886.57000000001] [0:30] [0:445028.96000000002] [0:37] [0:2961051.3700000001] [0:142] [0:216331168.31999999] [0:26] [0:19095.849999999999] [0:18] [0:80739.399999999994] [0:31] [0:72654.949999999997] [0:30] [-12147.32:12060.629999999999] [0:1679] [-53414.900000000001:380474.78000000003] [0:10] [0:10] [0:17595] [0:7] [0:1117.21] [0:563] [0:245558568.91] [0:223] [0:140334118.88999999] [0:104] [0:2727225] [0:112] [0:30694717.690000001] [0:98] [0:33892745.219999999] [0:7] [0:3159976.1400000001] [0:8] [0:3734832] [0:1] [0:99] [0:1] [0:2824] [0:1] [0:35] [0:18] [0:18] [0:32] [0:104] [0:2727225] [0:51] [0:547045.18999999994] [0:2877] [0:1] [0:1] [0:1] [0:9] [0:440632288.80000001] [-2914237:5115] [-1:199] [-953454.09999999998:5693571.5199999996] [-641247.82999999996:3218989.9399999999] [-649161.55000000005:2474581.5800000001] [-74109.419999999998:2550252.1000000001] [0:27707.549999999999] [985.32000000000005:9212742] [0:18768] [0:189] [-3:156] [0:2029290] [-1927184.6899999999:2029290] [0:18591.740000000002] [1:7632] [-74109.419999999998:2550252.1000000001] [0:159] [0:13] [0:2627215.02] [0:1] [0:9] [0:107344895.62] [-2914237:5084] [0:200] [-663426.51000000001:3679787.2200000002] [-431078.88:4315620.4800000004] [-736873.47999999998:1106793.5900000001] [-38502.349999999999:2052749.6100000001] [0:11837.360000000001] [1011.71:12917545.199999999] [0:112608] [0:1190.5899999999999] [-3:163] [0:2083795.54] [-2052537.4399999999:189297.48000000001] [0:11611.719999999999] [1:12577] [-38502.349999999999:2052749.6100000001] [0:208] [0:20] [0:2023436.73] [0:502] [0:487] [0:2564181.1200000001] [9958.7700000000004:21959826.84] [0:2.2637213460263328] [0:1] [-18286.530000000002:63126465.370000005] [-2610299.1099999999:28663799.539999999] [0:60255779.869999997] [-2610299.1099999999:77702799.370000005] [-2950.1428571419465:26071.636363606187] [0:1] [0:263797425.84] [0:1] [0:19555926.59] [0:1] [0:263797425.84] [-2580774.2200000002:263820941.25] [-240557.95999999999:624649.92000000004] [-217891.66666666669:520490.8571428571] [-75274:53196.099999999999] [-75274:53196.099999999999] [-10222394.5:16199025.666666668] [-1270.9807692307691:2054.0860927152316] [0:1] [0:959] [0:8] [0:1] [0:1] [0:1] [-217129.54000000001:625688.19999999995] [-173570.29000000001:422005.66999999998] [-63180.879999999997:392784.89000000001] [-31409.009999999998:262826.01000000001] [-196714.84:396059.15999999997] [-148791.5:112399.07000000001] [-38668.889999999999:493071.72999999998] [-36403.449999999997:338136.94] [3:17] [3:17] [-2610299.1099999999:28663799.539999999] [-2610299.1099999999:25135567.539999999] [-526.47000000000003:23202910.98] [-4890.8900000000003:23213116.710000001] [-2610221.8100000001:114545161.39] [-2610221.8100000001:111554651.8] [0:577321.46999999997] [0:759395.73999999999] [0:2032684.48] [0:2133665.7599999998] [0:1871224.3899999999] [0:1836134.99] [0:3348493.8500000001] [0:3290624.2799999998] [0:17204182.640000001] [0:17100673.57] [0:18842936.440000001] [0:18183888.039999999] [0:44925900] [0:35190000] [0:38827001.25] [0:37733280.75] [0:136067999.97] [0:36975553.259999998] [0:59852711.590000004] [0:56169993.890000001] [0:103485348.13] [0:99872106.829999998] [0:42591910.859999999] [0:32795854.210000001] [0:2647948.96] [0:2647948.96] [0:2406059.79] [0:4664928.79] [0:598977.54000000004] [0:715814.13] [0:645342.08999999997] [0:618490.25] [0:3346919.6899999999] [0:5322665.4699999997] [0:178854852.13999999] [0:37629403.899999999] [0:18582.869999999999] [0:19095.849999999999] [0:38256.43] [0:31632.599999999999] [0:49509.190000000002] [0:71516.399999999994] [-11569.059999999999:7257.21] [-10226.17:7257.21] [-63180.879999999997:392171.16999999998] [-31409.009999999998:262826.01000000001] [0:17595] [0:4692] [0:821.10000000000002] [0:821.10000000000002] [0:312460278.16000003] [0:214276355.78] [0:80739510.200000003] [0:125587711.84999999] [0:112] [0:109] [0:2727225] [0:1759500] [0:22287003.5] [0:37478791.740000002] [0:33892745.219999999] [0:24093724.399999999] [0:2749] [0:2749] [-1256489.6000000001:3030615.1899999999] [-853697.89000000001:3421760.77] [-756698.06999999995:3085140.52] [-509108.97999999998:2860856.3199999998] [0:1] [-167098.60999999999:542233.51500000001] [-58297.889999999999:203909.28] [-161923.46500000003:388857.40000000002] [-38549.089999999997:407212.745] [3:16] [-2610299.1099999999:28349304.594999999] [-3095.7199999999998:25425510.960000001] [-2610221.8100000001:124910672.68000001] [0:561564.68500000006] [0:2133665.7599999998] [0:1562524.5900000001] [0:3340150.7949999999] [0:17152428.105] [0:19199431.515000001] [0:58650000] [0:39294677.299999997] [0:71715132.915000007] [0:62322991.490000002] [0:263797425.84] [0:32795854.210000001] [0:2647948.96] [0:4664928.79] [0:485742.08500000002] [0:545185.52500000002] [0:2919974.46] [0:108264600.97499999] [0:19095.849999999999] [0:40369.699999999997] [0:72654.949999999997] [-8189.6899999999996:7257.21] [-58297.889999999999:203286.59] [0:8797.5] [0:936.05999999999995] [0:279009423.53500003] [0:95695766.349999994] [0:102] [0:2243362.5] [0:26471036.91] [0:28993234.809999999] [0:2776] [-953454.09999999998:4009207.9849999999] [-710062.29000000004:3382463.8700000001]
tree_sizes=21167 21425 21473 21551 21488 21493 21596 21540 21551 21585 21635 21630 21629 21602 21617 21673 21641 21731 21712 21684 21764 21689 21643 21819 21667 21729 21689 21811 21732 21641 21769 21807 21770 21741 21761 21693 21739 21829 21688 21847

Tree=0
num_leaves=198
num_cat=0
split_feature=179 175 179 10 11 33 52 155 33 52 52 137 270 22 176 22 33 272 33 158 186 52 20 158 50 206 52 35 137 71 271 31 4 25 52 243 277 55 22 4 243 298 250 269 115 176 265 205 33 11 226 4 162 133 22 112 74 222 206 22 22 243 22 131 176 273 179 10 139 50 20 190 28 242 180 176 11 194 238 131 270 28 131 256 46 186 50 153 162 11 134 267 269 116 303 176 223 153 158 172 64 176 5 153 134 263 22 147 134 175 71 274 299 6 190 242 169 22 180 24 244 262 269 180 6 250 299 11 305 259 189 263 5 283 185 189 25 158 274 6 131 175 243 274 179 22 153 55 147 184 185 73 64 6 33 154 191 33 266 60 266 50 158 153 256 17 5 177 191 172 196 157 308 271 272 190 310 273 228 146 251 186 266 155 194 189 154 33 192 6 5 206 194 134 273 265 303
split_gain=13706 4024.5 2342.47 1201.34 808.835 614.587 502.793 508.187 497.986 462.807 309.66 430.798 267.751 250.058 454.33 217.217 247.766 195.821 185.538 173.938 166.718 161.386 76.3117 73.3298 71.1913 67.0518 66.9115 62.7314 51.8483 51.2247 50.9134 63.1612 56.6186 46.2043 54.2711 42.2089 42.0472 35.8569 34.2873 32.1596 29.2162 33.3444 27.4761 26.7458 24.2943 24.2515 23.5404 23.3393 22.6327 19.6631 19.6214 19.5329 20.0081 18.9664 17.9816 18.1039 17.3732 17.2413 16.6129 18.5777 16.587 17.0602 16.1495 16.3146 16.0211 15.9195 15.1726 14.6448 14.1444 13.9488 13.3049 16.8715 13.034 12.6795 11.6728 11.5247 11.8524 11.2982 11.0861 11.0541 10.7258 10.479 10.1176 9.92406 9.25072 9.18941 9.14257 9.02821 8.90037 8.66335 8.58456 8.5541 8.53186 8.37157 8.16165 8.1421 7.91987 7.86218 7.70901 8.49862 7.42331 7.41001 7.38833 7.25356 7.11279 7.09866 6.94039 6.73961 6.64985 6.39893 6.31832 6.13162 6.00721 5.7671 5.6932 5.66288 5.53828 8.6093 5.5044 5.45884 5.40936 6.11761 5.09536 6.08089 5.06917 6.14763 5.05697 4.87493 4.75789 4.65501 4.63282 4.60462 4.60136 4.41221 4.35124 4.33352 4.79574 4.19694 4.18089 4.13616 4.07099 3.95478 3.85208 5.78262 3.81769 3.81223 3.72959 3.77221 3.686 3.98482 3.66522 3.60504 3.50264 3.49482 3.43052 3.4069 3.38989 3.52316 3.37313 3.34461 3.12793 3.04942 3.04251 2.90633 2.89792 2.88788 3.43996 2.84852 2.83233 2.78901 2.7535 2.71145 2.67163 2.59336 2.58497 2.79841 2.5615 2.99318 2.46963 2.46446 2.44186 2.43632 2.30974 2.30956 2.29866 2.29149 2.28113 2.25541 2.19291 2.17312 2.11352 2.06603 2.05045 2.02726 2.9418 2.02019 1.99973
threshold=4.166666666666667 -0.009774347072895026 10.500000000000002 -182.97499999999997 135.71500000000003 34415.325000000004 15099.700000000003 2.5000000000000004 19891.900000000005 1.0000000180025095e-35 1.0000000180025095e-35 4192.7250000000013 3359.7900000000004 3176.6300000000006 -7.9188597541973751 48572.225000000006 11679.860000000002 508.07250000000005 4294.2450000000008 0.028331319710855361 651.33500000000015 1.0000000180025095e-35 179135.83000000005 0.0099926758740522797 1.0000000180025095e-35 1.0000000180025095e-35 1.0000000180025095e-35 40609.780000000006 8394.6900000000005 1.0000000180025095e-35 -468.91749999999996 709.83500000000015 1.5000000000000002 15687.205000000002 1.0000000180025095e-35 713.07500000000016 8075.1225000000004 3.5000000000000004 24325.325000000001 1.5000000000000002 1.0000000180025095e-35 863.19250000000011 207623.83000000005 5462.6500000000005 1107.0600000000002 52.409588850706989 5406.9850000000015 1.0000000180025095e-35 11679.860000000002 274.62500000000006 5420.4500000000016 1.5000000000000002 176003.24000000002 8.0000000000000018 59026.015000000007 57007.80000000001 632.09500000000014 1.0000000180025095e-35 7885.3350000000009 194179.17500000002 9235.7750000000015 299.87000000000006 18611.070000000003 1.0000000180025095e-35 10.057570445936552 8.2500000000000018 38.833333333333336 -594.9899999999999 319.21500000000009 1.0000000180025095e-35 485.62500000000006 2690.3900000000008 17227.780000000002 1.0000000180025095e-35 0.36431339977851612 10.057570445936552 679.62500000000011 528.80000000000007 1.0000000180025095e-35 3290.2650000000008 4324.0875000000005 6956.0150000000003 310.84500000000008 29383.650000000005 1.0000000180025095e-35 1.0000000180025095e-35 1.0000000180025095e-35 803.50500000000011 99822.300000000017 52.145000000000003 66861.000000000015 8076.7350000000006 698.04500000000007 2077.2200000000003 70155.66250000002 -1.0000000180025095e-35 95582.485000000015 627.55500000000018 0.056895590695823971 262.45000000000005 1262.4400000000003 0.0099968065046467085 69.500000000000014 1.0000000180025095e-35 41172.30000000001 41.500000000000007 -7367.579999999999 -23099.899999999998 315654.30000000005 -0.015424899988034119 1.0000000180025095e-35 -5963.0374999999995 2469.9025000000006 12.500000000000002 191.14500000000001 1.0000000180025095e-35 1.0000000180025095e-35 24325.325000000001 0.36431339977851612 11.500000000000002 261.70500000000004 32.500000000000007 698.04500000000007 0.17107203850333802 19.500000000000004 46719.410000000011 510.88500000000005 840.32000000000005 16249.275000000003 18766.005000000001 -1917.4349999999997 13.500000000000002 69.500000000000014 29346.267500000005 4021.0900000000006 37.625000000000007 14096.890000000001 0.093352984309665904 -40.724999999999987 47.500000000000007 240.46500000000003 0.017213673434560057 1364.9550000000002 -1986.1924999999997 13.16666666666667 5811.0750000000016 1988.2350000000001 1.0000000180025095e-35 -4369.619999999999 3605.9650000000006 4021.0900000000006 4.5000000000000009 38915.970000000008 12.500000000000002 11679.860000000002 10.500000000000002 20.215000000000003 98250.200000000012 9630.1300000000028 1.0000000180025095e-35 1159.7700000000002 1.0000000180025095e-35 0.0032989165576934238 4263.8550000000005 49324.650000000009 3.5000000000000004 34.500000000000007 0.14905015731692681 236.20000000000002 -265.62499999999994 177218.72000000003 167152.50000000003 59.250000000000007 -848.28499999999985 296.00500000000005 1264.3150000000003 -1.0000000180025095e-35 4.7500000000000009 10476.125000000002 1221.8750000000002 8440.1050000000014 314.24500000000006 50942.590000000004 13.500000000000002 -2771.8299999999995 132.47500000000002 16.500000000000004 236622.47500000001 6.5000000000000009 31.500000000000004 38.500000000000007 75565.670000000013 -1468.1699999999998 187210.80000000002 8.2500000000000018 119242.40500000001 1994.6850000000002
decision_type=2 8 2 2 2 2 2 2 2 2 2 10 2 2 10 2 2 2 2 10 8 2 2 10 2 10 2 2 10 2 2 2 2 2 2 8 2 2 2 2 8 2 10 2 8 10 10 10 2 2 10 2 2 8 2 10 2 10 10 2 2 8 2 10 8 2 2 2 8 2 2 8 2 8 10 8 2 8 8 8 2 2 8 8 2 10 2 10 2 2 8 8 2 8 2 10 10 10 10 2 2 8 2 10 8 8 2 10 10 8 2 2 2 2 8 8 2 2 10 2 8 8 2 10 2 10 2 2 2 10 8 8 2 2 10 10 2 10 2 2 8 8 10 2 2 2 10 2 10 8 8 2 2 2 2 2 10 2 10 2 10 2 8 10 8 2 2 2 8 2 10 8 2 2 2 10 10 2 10 10 10 8 10 2 10 10 2 2 8 2 2 10 10 10 2 10 2
left_child=1 3 4 153 8 9 7 15 10 13 11 22 18 14 89 16 23 20 19 21 25 39 24 33 27 29 35 30 48 38 -2 32 36 34 37 58 -32 42 47 -5 41 126 51 45 69 -16 50 56 49 54 73 52 104 131 55 190 57 68 59 77 61 82 63 75 156 80 116 192 78 72 181 88 107 84 87 76 86 112 79 85 81 113 101 142 106 -9 95 109 94 -3 -69 128 160 146 97 -37 120 105 99 158 163 134 -28 133 -4 -72 -31 -13 -27 183 176 -87 124 -15 196 140 117 182 -84 152 127 -122 -107 171 -6 159 -30 -62 169 144 -109 -8 135 161 139 136 -113 -132 -73 -19 178 -105 143 -35 151 193 -76 154 149 -10 -150 -89 -106 -1 188 -40 157 -7 -92 -126 -12 174 191 179 -93 -146 -167 -111 -123 -25 195 -124 -85 -46 -64 -176 177 -55 184 185 -49 -17 -43 -42 -63 -97 -110 -159 -148 -128 -22 -18 -57 -141 -195 -117 -51
right_child=2 5 6 12 26 64 53 17 148 -11 92 44 -14 65 43 70 162 60 -20 -21 28 -23 -24 91 -26 108 102 -29 40 46 31 -33 -34 83 -36 62 -38 -39 155 -41 74 66 -44 -45 173 -47 -48 180 -50 114 -52 -53 -54 110 -56 67 -58 -59 -60 -61 96 115 103 -65 -66 -67 -68 90 -70 -71 71 138 -74 -75 93 -77 -78 -79 -80 -81 -82 -83 118 172 -86 111 -88 129 -90 -91 98 164 -94 -95 -96 100 -98 -99 -100 -101 -102 -103 -104 141 119 122 -108 130 186 167 -112 132 -114 -115 -116 170 -118 -119 -120 -121 121 168 123 -125 125 -127 189 -129 -130 -131 137 -133 -134 -135 -136 -137 -138 -139 -140 145 -142 -143 -144 -145 165 -147 147 -149 150 -151 -152 -153 -154 -155 -156 -157 -158 187 -160 -161 -162 -163 -164 -165 -166 166 -168 -169 -170 -171 -172 -173 -174 -175 175 -177 -178 -179 -180 -181 -182 -183 -184 -185 -186 -187 -188 -189 -190 -191 -192 -193 -194 194 -196 -197 -198
leaf_value=-4.4745956106439575 -4.3556069148653984 -4.2092395138347118 -4.4337653868587967 -1.4632652179985226 -4.4394875735148336 -4.2595932626877024 -4.4456808829572383 -4.4705398809913834 -4.4370649602850172 -4.5139680478576159 -4.5224469663849858 -4.4620370174614088 -4.3713788710693819 -4.421608022758849 -2.8359569716841353 -4.4666809353869228 -4.4049754498384424 -4.4778647847899622 -4.4010028785978035 -4.4261449058080267 -4.4213683491295646 -4.4113465484714078 -4.4683208245261934 -4.4707125141470874 -4.3577012676484301 -4.5651980770718232 -4.5826848412126893 -4.4686138478960071 -4.4200879557251662 -4.4583593806770967 -2.9862330530289398 -4.2835465768008563 -4.4464646521873128 -4.4823892551783846 -4.4686138478960071 -4.4879796417400657 -4.4426884366085337 -4.448034888989632 -4.4281388215646427 -4.1753683465257216 -4.3450789791942199 -4.1155578454207076 -4.4722517661368606 -4.413190657389972 -4.4899200709720724 -4.4122721105386749 -4.4686138478960071 -4.4204370196312377 -4.5512886213495412 -4.4867340679297145 -4.4770409358137169 -4.4629349950256261 -4.4163970718542993 -4.4787825584914538 -4.5242523356545554 -4.5072102540400749 -4.4816403487329604 -4.4680147172907478 -4.4980018241113902 -4.4818875938925853 -4.4333828970203273 -4.4902659698012384 -4.4784765072329717 -4.5073484168348807 -4.5497257386459777 -4.4865770609813787 -4.4957884986428907 -4.4686138478960071 -4.4839939952556547 -4.4854697370823136 -4.4867340679297145 -4.4140509876066227 -4.4177884364221267 -4.4686138478960071 -4.4996230502483501 -4.5028753917955848 -4.476716379084289 -4.4838622948386604 -4.4849906904948629 -4.4586413700533649 -4.4679824999044957 -4.4689714763732855 -4.5555670225668266 -4.4021831989369762 -4.4613125559611841 -4.455252137718122 -4.4926365792475895 -4.417954832381592 -4.5043867698649738 -4.4879105189836244 -4.0483738978109436 -4.5338076993232761 -4.2907318110090209 -4.5316453180804288 -4.4879827992229027 -4.1035358977645409 -4.4430157782161466 -4.486192263722657 -4.473431266704333 -4.4449284346763891 -4.4773619698766955 -4.5161117483380711 -4.4063197631277475 -4.5420414254210177 -3.618102158943223 -4.4686138478960071 -3.8369821593979241 -4.4589199534247657 -4.3683424261951096 -4.5553668079789453 -4.3969780515769363 -3.9404429120214441 -4.46453043071587 -3.92899860416812 -4.5329157860992844 -4.58842870921608 -4.4683056623058723 -4.4787923772471325 -4.411923293070533 -4.4323236932381471 -4.4429645677228828 -4.4942341518685236 -4.4625768106157713 -4.4722517661368606 -3.9660939539603217 -4.4625768106157713 -4.4506724156233135 -4.5511742680026881 -4.4875147230820387 -4.4372854515483837 -3.9252599216754591 -4.6445108487161928 -4.4603992792634815 -4.5068870796219755 -4.4930734771791672 -4.4594773335140818 -4.4427932381402258 -4.4579838782407171 -4.5483899113855948 -4.4538940885581715 -4.5314659028711581 -4.4151132503737243 -4.4719119406117054 -4.1782243266170802 -4.6011423362762329 -4.4776818454851801 -4.4720820115075579 -4.4929281065844986 -4.4948383044447571 -4.5476009268591309 -4.3426801045322456 -4.5321001402229939 -4.4028420033246434 -4.2456836359985441 -4.4864197601476192 -4.5375199127524564 -4.4701981055747497 -4.5017670739985487 -4.4611305882711711 -4.4581718088691815 -4.4110732550597209 -4.4899647568446506 -4.5471638845618134 -4.4404574000503372 -4.4228088281638591 -4.3964151899633244 -4.5256344682081195 -4.4340874825928136 -4.6163265851908601 -4.2340753315423285 -4.4464646521873128 -4.1070054925428749 -4.5152967561024901 -4.3714644416658865 -4.2881272851617522 -4.4763953670601797 -4.4412765665851266 -4.5738922907561355 -4.4954707770515663 -4.4430602696164154 -4.5205703838551665 -4.564346448683489 -4.4620370174614088 -4.4833980670817475 -4.3607404298365555 -4.4613125559611841 -4.4936523554954872 -4.3998780572853731 -4.2806816243235337 -4.5775081053329396 -4.5225946659787866 -4.5056623336218102 -4.4087093559079875 -4.208190011547865 -4.4686138478960071 -4.4656334609319615 -4.3543956323025839
leaf_weight=1.5910867061465959 3.2381975920870891 11.899535788223146 1.4790383465588082 51.542245410382748 2.6555461222305956 4.5267537273466614 1.2885561352595676 1.3221706431359148 14.342190027236938 12.851946844719349 11.574595545418562 1.3445803150534654 2.061689816415309 3.2157879201695421 39.396203231066465 9.4680863851681334 4.5043440554291001 2.8572331694886115 1.3669899869710196 1.0756642520427693 1.6247012140229333 1.1204835958778847 1.7479544095695008 1.3333754790946839 3.9553070934489361 20.123885381966833 37.816321360878646 1.176507775671779 3.1261492324993041 1.1204835958778918 46.656936932355165 5.0085616735741487 1.333375479094683 1.0756642520427702 3.9216925855725995 1.4678335106000364 1.1204835958778847 3.2045830842107526 6.0506114177405861 2.6331364503130308 3.9553070934489369 6.622058051638307 1.4342190027236927 1.2101222835481156 3.8432587338611475 1.1653029397130001 3.1485589044168583 4.7172359386458975 14.20773199573159 1.3781948229297998 1.7591592455282796 1.4006044948473562 2.9132573492825022 17.56918278336525 4.829284298233687 4.2914521722123027 5.2774777365848413 5.6696469951421014 2.2409671917557707 3.170968576334416 9.7706169560551626 1.6359060499817131 1.8600027691572885 9.3000138457864505 13.837972409091888 1.3669899869710196 5.5351889636367551 2.8124138256534996 2.263376863673332 1.2885561352595676 1.3781948229298038 2.0168704725801971 5.3222970804199567 1.187712611630565 2.375425223261117 3.8656684057787052 5.8713340424001208 1.1765077756717897 1.254941627383231 3.014100872911512 1.7255447376519431 1.2213271195068944 18.992196950130168 1.4230141667649139 1.2997609712183482 1.8600027691573 1.8151834253221739 5.3335019163787392 4.0113312732428303 2.5659074345603576 14.723154449835429 6.0506114177405843 2.7900041537359348 16.22460246831179 3.6751861944794646 16.258216976188137 6.3531419886276117 2.4314494030550113 1.5126528544351447 3.876873241737484 1.7815689174458373 3.921692585572603 2.3642203873023382 26.869196629151705 38.096442259848118 1.9720511287450797 13.120862907730036 1.1540981037542222 1.9272317849099629 9.6697734324261564 1.8936172770336259 14.756768957711758 1.5014480184763659 25.255700251087546 16.504723367281262 130.89489367045462 2.7339799739420405 1.882412441074848 4.1794038126245132 1.4006044948473562 3.7424152102321377 12.258090538904073 1.3781948229297976 1.4342190027236936 14.633515762165191 1.3781948229297984 1.5798818701878214 26.622690238058567 1.4342190027236936 2.5210880907252422 20.784970703534796 2092.4582959581167 1.2437367914244521 3.014100872911512 1.8487979331985105 1.1877126116305579 1.9944608006626356 1.098073923960327 18.723280887119472 3.6079571787267888 13.199296759441493 2.0728946523740879 1.411809330806135 7.7313368115574139 205.76560754701495 1.8039785893633968 1.423014166764913 1.8375930972397316 3.1373540684580794 9.916279823519293 3.8432587338611484 13.322549954988061 2.1849430119618765 7.1598901776596904 1.3557851510122416 16.000505749136209 5.2886825725436202 4.9637423297390324 1.2885561352595676 1.1092787599191059 3.3726556235924354 1.6134963780641545 25.233290579169989 3.5743426708504549 4.8741036420688042 1.1540981037542213 6.4203710043802857 2.3306058794260016 685.03005601186305 3.6079571787267923 1.333375479094683 6.0169969098642468 6.47639518417418 8.5604946725070459 6.2074791211634874 1.7143399016931651 1.9048221129924048 55.318275128491223 4.347476352006197 2.8796428414061657 7.1486853417009115 30.017755533568561 1.3445803150534628 2.2185575198382139 5.983382401987912 1.2997609712183464 1.8936172770336268 4.2018134845420718 6.3643468245863914 22.644973472692072 6.0282017458230257 2.9020525133237243 3.2381975920870891 5.2550680646672845 1.8375930972397325 3.5183184910565606 1.3445803150534628
leaf_count=142 289 1062 132 4600 237 404 115 118 1280 1147 1033 120 184 287 3516 845 402 255 122 96 145 100 156 119 353 1796 3375 105 279 100 4164 447 119 96 350 131 100 286 540 235 353 591 128 108 343 104 281 421 1268 123 157 125 260 1568 431 383 471 506 200 283 872 146 166 830 1235 122 494 251 202 115 123 180 475 106 212 345 524 105 112 269 154 109 1695 127 116 166 162 476 358 229 1314 540 249 1448 328 1451 567 217 135 346 159 350 211 2398 3400 176 1171 103 172 863 169 1317 134 2254 1473 11682 244 168 373 125 334 1094 123 128 1306 123 141 2376 128 225 1855 186746 111 269 165 106 178 98 1671 322 1178 185 126 690 18364 161 127 164 280 885 343 1189 195 639 121 1428 472 443 115 99 301 144 2252 319 435 103 573 208 61137 322 119 537 578 764 554 153 170 4937 388 257 638 2679 120 198 534 116 169 375 568 2021 538 259 289 469 164 314 120
internal_value=-4.46916 -3.03302 -4.54269 -1.96771 -4.06948 -3.71858 -4.58254 -4.50662 -3.78627 -3.51415 -3.63412 -3.52615 -1.71215 -3.37997 -3.14278 -4.24356 -4.09959 -4.54487 -1.64762 -1.60273 -4.45486 -1.56409 -3.24294 -3.95814 -3.21422 -4.2732 -4.37299 -3.1664 -4.51187 -4.20959 -3.14335 -3.10185 -3.0363 -3.88542 -3.80326 -4.30713 -3.0088 -3.76176 -4.32217 -1.52483 -4.54379 -4.41681 -3.72914 -2.88331 -4.10461 -2.8594 -4.00154 -4.25176 -4.38478 -4.34046 -3.94985 -3.70946 -3.69259 -4.64083 -4.28397 -4.24818 -4.19711 -4.15995 -4.14073 -4.10895 -4.59428 -4.54135 -4.38704 -4.32417 -4.43223 -4.01251 -4.27363 -4.20079 -4.1169 -4.03347 -4.47702 -4.41289 -4.01362 -3.91124 -4.56551 -4.28059 -4.2529 -4.06775 -4.08916 -4.06945 -3.99163 -3.97237 -4.44525 -4.29283 -3.88451 -4.03827 -4.21664 -4.57785 -4.3276 -4.24747 -4.1502 -4.37447 -4.39825 -4.46007 -4.28857 -4.19565 -4.60761 -4.24982 -4.12313 -4.1028 -4.17714 -4.37353 -4.56069 -4.47078 -3.66442 -4.21471 -3.85904 -3.96869 -4.52719 -4.45964 -4.53677 -4.01834 -4.0461 -3.95576 -4.48855 -4.56785 -4.20651 -4.1736 -4.51883 -3.65048 -4.60942 -4.61331 -4.1864 -4.15783 -4.02814 -4.00132 -4.53863 -4.51791 -4.29175 -4.58716 -3.95221 -4.64425 -3.99714 -4.39355 -4.33391 -3.98139 -3.96561 -3.93859 -4.52003 -4.31108 -4.48014 -4.52005 -4.22628 -4.20461 -4.59025 -4.28454 -4.38208 -4.3521 -4.45459 -4.49142 -4.38785 -4.4916 -3.6373 -4.26978 -4.32396 -4.50291 -4.34688 -4.31775 -4.0639 -3.98111 -4.48233 -4.3578 -4.52305 -4.15789 -4.4843 -4.5972 -4.47315 -4.52494 -4.61465 -4.2583 -4.58183 -4.12849 -4.46861 -4.40276 -4.33432 -4.3121 -4.54924 -4.55564 -4.42232 -4.13625 -4.47507 -4.5447 -4.13477 -4.37503 -4.38711 -4.1159 -4.4059 -4.44521 -4.2996 -4.56517 -4.484 -4.44518 -4.45674 -4.26184 -4.23374 -4.58496 -4.38542
internal_weight=4370.15 203.245 4166.91 68.5512 316.122 134.693 3850.79 1680.36 156.61 101.874 125.371 107.634 59.8002 89.0224 56.2371 206.617 124.094 1473.74 57.7385 56.3715 524.745 55.2959 64.2373 91.4539 62.4894 119.343 159.512 58.5341 405.402 95.398 57.3576 54.1194 49.1108 74.1536 56.0354 119.332 47.7774 52.1137 73.7614 54.1754 327.741 45.4692 48.9091 41.7716 43.3963 40.5615 21.6365 51.7103 77.6607 63.453 18.488 47.4749 46.0743 2170.43 44.2255 39.3962 39.8444 34.5669 27.8664 25.6255 948.994 205.217 91.4651 48.1136 32.819 32.7854 18.1182 31.7433 28.8973 30.9926 82.5236 43.0378 29.704 16.7288 282.272 38.8136 34.9479 22.4545 26.6339 25.379 31.4184 29.6928 44.3039 18.1182 15.5411 22.3649 29.0765 252.691 22.2976 14.4654 24.2137 17.3003 17.7373 29.5808 18.2863 27.2614 743.777 14.6111 21.4012 19.8886 25.7935 21.1323 40.1805 43.3515 43.161 12.1797 14.2413 24.3817 23.9447 18.1742 76.6859 21.0427 21.278 28.4715 19.2275 160.913 12.583 9.84905 23.1716 41.682 737.424 701.031 10.8015 8.82941 19.7765 17.121 27.351 36.3933 6.37555 234.517 23.0371 2093.75 19.1827 14.4094 17.2106 17.9389 16.7512 21.883 20.7402 15.3618 25.1661 28.9421 10.2188 8.807 231.996 12.5046 13.3562 10.9807 31.2391 24.2585 6.98061 18.6561 40.2814 8.75098 9.14315 22.0511 18.981 13.6923 16.0117 15.7428 14.9473 11.3953 32.6397 24.012 10.9247 213.34 7.57447 12.0004 697.288 4.94133 135.747 7.39519 7.89941 12.4038 9.78182 7.92182 74.7923 72.8875 11.9668 20.4376 11.8659 39.4858 7.96664 6.17386 7.61929 17.558 3.82085 9.16556 7.78736 24.2249 7.6529 7.4064 7.52965 10.7006 7.09266 134.413 2.72278
internal_count=390024 18139 371885 6118 28213 12021 343672 149967 13977 9092 11189 9606 5337 7945 5019 18440 11075 131527 5153 5031 46832 4935 5733 8162 5577 10651 14236 5224 36181 8514 5119 4830 4383 6618 5001 10650 4264 4651 6583 4835 29250 4058 4365 3728 3873 3620 1931 4615 6931 5663 1650 4237 4112 193705 3947 3516 3556 3085 2487 2287 84695 18315 8163 4294 2929 2926 1617 2833 2579 2766 7365 3841 2651 1493 25192 3464 3119 2004 2377 2265 2804 2650 3954 1617 1387 1996 2595 22552 1990 1291 2161 1544 1583 2640 1632 2433 66380 1304 1910 1775 2302 1886 3586 3869 3852 1087 1271 2176 2137 1622 6844 1878 1899 2541 1716 14361 1123 879 2068 3720 65813 62565 964 788 1765 1528 2441 3248 569 20930 2056 186861 1712 1286 1536 1601 1495 1953 1851 1371 2246 2583 912 786 20705 1116 1192 980 2788 2165 623 1665 3595 781 816 1968 1694 1222 1429 1405 1334 1017 2913 2143 975 19040 676 1071 62231 441 12115 660 705 1107 873 707 6675 6505 1068 1824 1059 3524 711 551 680 1567 341 818 695 2162 683 661 672 955 633 11996 243
is_linear=0
shrinkage=1


Tree=1
num_leaves=198
num_cat=0
split_feature=107 21 51 111 156 51 96 274 190 168 8 115 190 170 22 170 175 114 107 18 127 72 153 207 243 184 137 149 10 269 8 127 63 105 310 107 175 22 309 160 245 244 56 134 269 137 135 5 153 134 269 127 269 176 175 170 276 18 103 175 22 163 175 111 32 107 116 149 244 81 273 95 244 196 266 149 11 266 270 10 127 127 8 180 118 175 163 134 10 127 273 72 149 187 135 134 190 180 270 180 187 134 135 140 164 274 228 254 149 11 185 82 173 73 81 56 135 127 16 22 263 207 200 269 8 135 149 189 137 196 135 31 8 123 270 291 197 155 244 5 163 134 256 274 180 250 180 251 305 187 226 168 198 175 28 81 189 127 197 153 11 180 244 24 5 228 141 134 140 256 134 199 310 243 180 127 81 135 226 24 8 72 5 22 250 180 291 263 138 63 184 8 30 160 134 310 270
split_gain=2175.9 381.102 283.52 210.008 188.134 187.884 200.049 173.968 120.937 97.9398 87.6681 71.8315 62.2654 58.5267 78.9304 51.6398 48.4886 44.0478 36.5514 72.9807 35.4859 34.0955 33.4699 32.9523 29.1987 28.9457 28.5068 25.7093 25.4119 22.7967 21.706 22.1834 21.5734 20.9574 20.621 19.2686 67.1106 21.1155 25.1977 18.1985 16.9905 16.797 16.7537 19.4721 16.739 16.6945 16.2379 16.1874 15.5084 15.4533 18.5418 15.3667 15.0879 14.8092 14.5528 14.2087 13.3452 13.2917 12.7532 13.0768 14.7972 12.6852 12.3402 12.2537 12.0173 11.126 10.8161 10.5863 10.5653 10.159 11.4126 10.1471 12.2443 10.119 9.82027 9.74987 9.65599 9.65369 9.3369 9.19178 9.5717 10.4317 8.99539 8.9832 11.2889 8.5406 8.28709 8.22598 8.1586 8.08411 7.80719 8.06474 7.80654 7.72634 8.30101 8.46159 7.64099 7.6333 7.58767 15.3202 11.2383 7.60165 7.46 7.26574 7.26143 7.18826 12.0992 7.8278 7.13608 7.02841 6.97784 6.72071 6.70396 6.43123 6.156 6.09105 6.07345 5.90803 5.86962 5.83985 5.65281 5.76326 5.6109 5.59677 5.58607 7.31985 5.56678 5.48406 5.40907 5.3707 5.16502 8.45503 5.14534 5.45616 5.08548 5.04549 6.35266 4.99249 4.97367 4.92874 4.87166 5.00244 4.71996 4.54199 4.5319 4.50837 4.48519 4.47892 4.47851 4.44372 4.4392 4.42768 4.21072 4.1551 4.15277 4.10831 4.06277 3.94741 3.92515 3.88268 3.85888 5.27392 3.84657 3.82234 3.8091 3.75573 3.74502 3.71839 3.7142 3.68638 3.60518 3.77696 3.46928 3.43023 3.4103 3.40001 3.38595 3.38188 3.37007 3.31131 3.30944 3.54536 3.27872 3.25443 3.17195 3.15425 3.43301 3.10849 3.05336 3.03654 3.02735 3.02093 2.99641 2.96976 2.92551 2.92513 2.85972
threshold=47.500000000000007 1.0000000180025095e-35 1.0000000180025095e-35 1.0000000180025095e-35 6446.7250000000004 1.0000000180025095e-35 1.0000000180025095e-35 -5963.0374999999995 239.62000000000003 21418.965000000004 7629.0700000000006 75054.970000000016 646.73500000000013 8583.9550000000017 18611.070000000003 28776.405000000002 0.012578383049620426 94.000000000000014 12.500000000000002 265.17000000000002 244.50000000000003 687.80000000000007 3419.2950000000005 39515.085000000006 1364.9550000000002 267.98000000000008 6979.2250000000013 628.50000000000011 1035.1300000000003 260.83250000000004 23607.355000000003 244.50000000000003 2.5000000000000004 2.5000000000000004 26729.307500000003 12.500000000000002 -0.009774347072895026 300.13500000000005 2433.2750000000005 2200.7900000000004 533.40500000000009 746.41500000000008 70.440000000000012 80233.200000000012 -991.26499999999976 11328.220000000003 -1945.9999999999998 43.500000000000007 134.89500000000001 355012.11500000005 260.83250000000004 4847.5000000000009 -1.0000000180025095e-35 0.29068819720943517 -0.031942829717572334 28776.405000000002 -17218.317499999997 34079.855000000003 1.0000000180025095e-35 -0.003103932716200446 24325.325000000001 982192.8550000001 -0.009774347072895026 8.0000000000000018 1.5000000000000002 153.50000000000003 4859.2050000000008 948.50000000000011 1.0000000180025095e-35 15603.210000000001 8.2500000000000018 1.0000000180025095e-35 433.59500000000008 1110.6950000000002 8190.3500000000013 628.50000000000011 484.70500000000004 11113.035000000002 1682.6150000000002 299.13500000000005 141.50000000000003 2534.5000000000005 37437.000000000007 0.36431339977851612 882.97500000000014 -0.078733804049372386 158755.27500000002 187210.80000000002 -103.98499999999999 244.50000000000003 4.7500000000000009 535.92000000000019 467.50000000000006 2201.7450000000003 -2022.9999999999998 106977.60000000002 288.95500000000004 1.0000000180025095e-35 1178.6275000000003 0.42887798896382595 1.0000000180025095e-35 164689.20000000004 -1048.9999999999998 -1.0000000180025095e-35 -1.0000000180025095e-35 -1986.1924999999997 18653.060000000001 5.5000000000000009 2565.5000000000005 226.14000000000001 2894.4900000000002 8.5000000000000018 0.011759253239045909 2.5000000000000004 1.0000000180025095e-35 4130.2650000000003 -788.99999999999989 3863.5000000000005 -22.754999999999999 1338.3900000000001 77.500000000000014 7262.0900000000011 4228.3950000000013 6912.0550000000012 12021.735000000002 -1704.4999999999998 2310.5000000000005 -367.72999999999996 51510.860000000008 1.0000000180025095e-35 -1763.4999999999998 1089.7800000000004 43047.44000000001 3.0000000000000004 1291.9600000000003 12057.880000000003 6927.5500000000011 2.5000000000000004 573.5150000000001 67.500000000000014 -1.0000000180025095e-35 164689.20000000004 14134.650000000001 -667.31749999999988 0.22060930389347719 58925.06500000001 0.17107203850333802 11592.115000000002 2961.8250000000003 52.495000000000005 4304.1850000000004 1.0000000180025095e-35 10194.410000000002 0.013320667105650824 2733.2750000000005 1.0000000180025095e-35 1830.2850000000001 3863.5000000000005 288.75000000000006 6257.9550000000008 427.87500000000006 0.15397225725094579 315.87500000000006 1.0000000180025095e-35 47.500000000000007 4851.6350000000011 3.3750000000000004 57007.80000000001 13636.815000000001 17066.270000000004 164689.20000000004 6305.2850000000008 5586.6625000000013 2319.2950000000005 1.0000000180025095e-35 1571.5000000000002 1.0000000180025095e-35 -637.99999999999989 1.0000000180025095e-35 2.5000000000000004 10454.830000000002 1059.8050000000003 69.500000000000014 -7367.579999999999 109437.09500000002 0.42887798896382595 6890.8600000000015 95.500000000000014 52974.335000000006 12.500000000000002 899.5100000000001 50556.935000000005 3.5000000000000004 31231.855000000003 213955.20000000004 4209.3900000000003 -1.0000000180025095e-35
decision_type=2 2 2 10 2 2 2 2 8 2 2 8 8 2 2 2 8 8 2 2 8 2 10 8 8 10 10 8 2 2 2 8 2 2 10 2 8 2 10 2 8 8 2 10 2 8 8 2 10 10 2 10 2 8 8 2 2 2 2 8 2 2 10 10 2 2 8 8 8 2 2 2 10 8 8 8 2 10 2 2 10 10 2 8 10 8 2 10 2 10 2 2 10 10 8 8 10 8 2 8 8 10 10 10 10 2 10 10 10 2 10 2 8 2 2 2 10 8 2 2 10 8 10 2 2 10 10 8 8 8 10 2 2 10 2 2 10 2 8 2 2 10 10 2 10 10 10 10 2 8 10 2 8 10 2 2 8 8 8 10 2 10 10 2 2 10 10 8 10 10 10 8 8 10 8 10 2 10 8 2 2 2 2 2 10 8 2 10 10 2 10 2 2 2 8 8 2
left_child=1 7 4 5 13 6 11 -1 15 58 12 16 22 14 24 20 18 -5 25 49 140 158 27 29 33 62 30 -6 54 -13 31 104 46 144 35 36 114 38 82 44 57 96 43 -26 -14 47 -29 52 61 50 -20 115 -18 68 -25 77 78 110 59 -9 -61 65 177 90 67 93 119 -56 -48 70 83 72 122 -45 109 170 89 163 -27 80 -54 102 179 84 85 -33 105 191 -23 -28 -4 -92 -49 94 -16 157 143 132 99 100 -94 -100 -82 -43 -10 -70 107 182 -69 -42 120 123 -91 -114 -22 145 -74 151 -11 183 -12 128 -24 152 134 -126 -31 168 149 155 -115 135 133 -32 190 136 193 -89 -50 -93 -8 -142 146 -21 196 166 -75 -90 -99 -122 192 187 -97 -44 175 -76 -36 -96 -7 -118 161 -41 -30 -52 -116 -140 167 -39 -78 -124 171 -58 -145 -105 -164 -103 -102 -3 -163 -37 181 -71 -107 -46 -154 186 -47 -73 -170 -111 -77 -17 -151 -132 -136 -131 -2
right_child=2 3 63 17 10 21 8 9 26 118 40 23 39 -15 48 87 45 -19 19 41 34 88 71 28 42 56 76 32 162 126 97 69 -34 -35 156 37 -38 51 -40 160 74 103 153 73 66 185 53 92 138 -51 55 -53 79 -55 64 -57 75 -59 -60 60 -62 -63 -64 -65 -66 -67 -68 108 86 180 -72 117 116 142 129 124 127 -79 -80 -81 81 -83 -84 -85 -86 -87 -88 137 147 112 91 139 98 -95 95 111 -98 148 101 -101 176 154 -104 173 -106 106 -108 -109 -110 189 -112 -113 113 130 164 -117 159 -119 -120 -121 121 -123 169 -125 125 -127 -128 -129 -130 195 131 -133 -134 -135 194 -137 -138 -139 165 -141 141 -143 -144 172 -146 -147 -148 -149 -150 150 -152 -153 184 -155 -156 -157 -158 -159 -160 -161 -162 178 174 -165 -166 -167 -168 -169 188 -171 -172 -173 -174 -175 -176 -177 -178 -179 -180 -181 -182 -183 -184 -185 -186 -187 -188 -189 -190 -191 -192 -193 -194 -195 -196 -197 -198
leaf_value=0.67532412300084665 0.018387320509832612 -0.10480222875125798 -0.024117488386424541 0.021464434127137239 -0.048311587066076654 0.0086399951490423541 -0.03946144772580211 0.20320014668045461 0.11197589427475962 0.054845691066131949 -0.014439951540385403 -0.0052196191533173692 -0.068955849241711928 -0.081588571126985698 -0.017257958080455545 -0.078860801843971498 -0.02433448805175208 0.66019704416077096 0.0061086063388938626 -0.022079380678076056 0.11628969119647195 -0.028091263314471253 -0.022147455341180611 -0.016892114223049943 -0.014251752664180604 0.15679927771454166 -0.042239965167332194 -0.038776959746858769 -0.093359532748180221 0.25440191480472285 0.1909606206566348 0.055674465289321309 -0.0011300337948758159 -0.026943903457478144 -0.025784399874131256 0.52703779099802162 0.39948756173581956 0.012966028931179213 0.052862119394956539 0.05218822816615578 0.053621327141302216 0.030883633431858171 -0.053848174254071679 -0.014912524554223318 0 -0.089258980564592902 -0.021060068629903242 -0.024422603095527025 0.032945258024601527 -0.018879242667727135 0.38327161046170305 0.0037125743639122534 0.0035969824088220477 -0.012419806833210057 -0.014630172253552599 -0.020319276972938592 -0.12379307279731075 -0.096731775006745152 0.016948872144601928 0.44249920606365567 0.0061621977160976719 -0.062928185540414641 0.032131617567964253 0.077773367215695374 -0.033512726432207672 -0.037313393326592267 -0.024896584879503855 0.2148514783328106 0.044054895668262421 -0.0060761992925289394 -0.010091682641657067 0.21852695270271275 -0.11223754863190674 0.36441740275875678 0.034986801075413014 0.039030830653810328 -0.033493646391217026 0.011555567018524237 0 -0.01039569584743402 0.37966466350362105 0.026821381798267579 0.027455023988949289 0.027864617077244264 -0.014959291300827486 0.30962729823834606 0.00048106630223276485 0.15081612346344808 0.22401813007603011 -0.044513736793249652 -0.17368308750559305 -0.089118833002784448 -0.026352050598799616 -0.035360869374510606 -0.037265630398075088 -0.00082898587834309993 -0.035938762215435252 -0.069251861180297136 -0.062782439770481716 -0.017349003469644322 0.28780825293101325 -0.011281526548033056 0.010643625070411611 -0.11701670723066018 -0.045384994670851324 0.43209661939423594 -0.017876418025398758 -0.0015493469316197998 0.012721233065102691 -0.085908448849428679 -0.056732487002008392 -0.017725914062204615 -0.015867082028404689 -0.0076201625859136854 0.053713087736808218 0.0035379386009922681 0.085526447724864368 -0.036219075218778825 -0.072226388426579052 -0.016888022751260758 -0.014127851830329875 -0.017707868202428353 0.16859057031041369 0 0.062224170223281569 -0.066824907166269501 0.040057310841592926 -0.081068843924208267 -0.020740768991422031 -0.0033404982309854316 0.26645819494782541 -0.0049473524755651475 -0.018594222610487498 -0.0092806870012440475 0.12513584826702676 0 -0.0018537771928872828 -0.027653501557175462 -0.099589249916827938 0.034627310720957996 -0.024880657806993004 0.13550622848036797 0.00038171751400710191 0.18489531726942182 0.015334586800343756 0 0.0024005292785358942 -0.015946701693692309 0.059591062900676117 0.28618906391871773 -0.0053420419007972151 -0.020849635104086123 0.3289574681148496 0.066872304910571292 -0.028687907858570897 -0.077328557191826297 0.10627458364107056 0.09555800932542062 -0.13398439114569999 -0.043076645266080869 -0.1095520994987319 0.023484797360048586 0.061154391575885488 0.024829486257161738 -0.058269464063060959 0.042067885776239482 0.0062010873995128959 0.30699693957121438 0.12660908986402133 -0.019835254496542939 -0.0028629348779812425 0 0 0.026326048608872048 -0.048768487759706568 0.16003098210953895 0.011176419570236257 -0.0013214698941220802 -0.095625749885375116 0.035380099875784991 -0.024093662570455279 0.14574809985650714 0.015893832432504206 0.28411023044435002 0.0099088197700139477 0.0416303265394002 0.038187990809637279 -4.5055415611249431e-05 -0.024367322673979518 0.032296049814179488 -0.060743381059821112 0.040815677698264066 0 0 0.015921984966448834 -0.14012705234432238 0.47648982689777863
leaf_weight=41.243310476653278 1.5386098101735175 158.49345157574862 16.591297122649848 5.2172002596780658 11.994624191895126 4.9992536418139952 8.0640824874863046 59.638535014353693 4.3067207345739034 9.6169544458389264 7.5409033577889266 13.828408830799161 12.884037866257133 40.324779381975532 4.5668606581166387 14.931412750855094 5.0603329995647064 16.479097162373368 8.8150832559913379 2.7332484405487802 47.978246681392193 4.4663642486557364 8.3803462432697398 20.121334827505052 8.5234900088980812 22.008425104431808 13.328140940517185 3.0554723655804992 19.132894049398601 83.943183067254722 5.1910562897101062 10.899301176890729 13.19017864204943 2.0254363138228646 8.5182597925886494 59.582247198559344 32.813998267054558 2.7669015880674115 7.4650919670239082 9.8668240830302221 11.264736161567269 10.887393859215079 12.845173426903786 2.2050870982930046 1.1989635890349744 11.853234198875727 1.5867005828768059 17.216523280367255 10.813097184523938 5.6942018102854481 25.182984066195793 9.159977204166351 4.3431577570736399 4.1606232579797497 7.4692134074866763 2.6426523998379698 24.199236821383238 22.284532914869487 6.0471795508638015 46.397435958497226 3.2646005032584062 8.7363420166075212 22.870558517053723 0.90550866071134706 7.3136743512004605 7.8656529663130632 5.3123029731214046 50.331131449900568 5.7848459109663883 6.5516303833574074 4.9101344058290115 3.2600622698664639 36.653042146004736 10.575617372989656 10.633310281671585 10.261622274294497 7.3970531634986383 3.8228430077433577 21.253591598942876 2.9084559464827171 19.588691804558042 6.0750744044780722 2.7134715775027862 8.7454804508015496 3.1878781337290993 59.094798054546118 2.7213265784084788 5.4698821483179909 4.8686834629625064 4.9093791898339987 1777.8514543380588 27.324286317452788 3.0389919523149747 2.7427734136581412 7.8345867237076172 1.2422820813953914 8.887455824762581 21.963560733012859 12.715100318193437 10.705742715857921 12.354380694217982 2.9163486845791322 2.8757529687136438 46.840777937322855 18.991894065402448 23.146568290889274 1.356617129407822 1.2963724844157685 8.5480662975460273 40.791261676698923 4.9622107185423365 1.3455821461975563 8.4253812301903945 5.7310882564634076 10.384716912172737 3.4222942302003494 3.9631891399621946 2.8267161408439287 23.105693517252803 1.2921440023928878 1.0975886071100744 3.5366395050659785 4.6923270300030699 2.14652270451188 13.166165550239382 30.372787792235613 9.3696201648563129 27.836922216229141 1.5687314420938516 6.4532984150573611 15.55904304422439 7.6097556240856639 6.7477258313447228 4.6729941740632057 20.278967591933906 3.9283283362165085 3.3060291362926355 3.2502462444826961 27.560831557959322 8.170459187589584 5.1268587158992878 8.9042603783309442 1.7275582505390037 9.8665024656802398 1.7327292766422022 1.929075009189545 1.6055646864697326 1.2257831636816261 3.2509958390146485 5.165129899047316 1.5474719339981673 1.5780579419806597 13.840283444151284 5.7352202935144296 3.2691352581605306 14.701602118089793 5.2825125381350508 2.7840412752702841 134.52642796188593 7.3381133070215583 136.36869479902089 5.6474317852407721 9.0556487701833266 2.8669992005452505 9.4911171244457346 1.0960586722940195 2.2966669844463459 47.088479849509895 3.811330821365118 1.4984098859131334 23.718916930258274 10.702749554067848 3.9882653765380409 1.9551628604531277 7.9680989151820532 5.5231625298038125 2.8705551866441956 12.514461384154854 17.791925260797143 2.2436871854588381 8.4497592290863377 2.3939503552392125 1.7022618139162649 4.4559450447559339 2.0755907725542793 9.086154733784495 2.9361338810995212 2.1892392029985785 1.8413664484396575 2.4654936166480175 9.8604582445695979 1.9718842087313522 1.1353127686306832 1.7810957580804814 17.419924454763532 621.23083541262895 21.962056452408437
leaf_count=648 83 1233 1494 181 1003 471 194 869 176 811 638 287 1236 3640 353 1214 180 238 355 134 422 423 656 326 518 176 979 260 534 1210 310 322 1132 127 564 2573 907 157 558 936 957 643 847 124 113 813 124 691 938 263 906 544 199 375 141 228 182 2207 346 1394 239 812 721 83 513 698 517 961 493 377 296 283 3480 596 1037 122 654 286 183 185 679 193 137 259 217 2299 249 361 425 437 187526 2832 105 224 618 79 686 1701 574 333 478 103 95 3402 699 1849 107 112 300 4001 464 108 492 420 109 188 368 261 1986 127 91 336 386 192 193 475 340 2611 146 628 1168 675 457 228 172 333 261 274 2559 852 218 400 105 439 127 116 126 118 272 438 141 154 1079 374 162 1436 331 219 13446 707 13700 528 374 117 95 102 141 2430 348 122 253 124 269 151 295 213 131 92 1722 103 559 147 149 415 171 552 248 198 168 248 97 180 100 153 130 62409 1349
internal_value=-0.0303453 0.127892 -0.123526 0.0980738 -0.0570957 0.0882094 0.108165 0.368753 0.19205 0.243647 -0.0874517 0.0530769 -0.00887174 0.100659 0.147627 0.271601 0.0212137 0.565328 -0.00442347 0.0749696 0.294052 -0.102397 0.0801186 0.137765 0.281117 -0.0325989 0.097964 0.1617 0.0665634 0.21 0.1426 0.177921 0.206455 0.412792 0.313085 0.325585 0.217095 0.383044 0.47072 -0.0748763 -0.121824 -0.030366 0.132313 0.206867 0.0533522 0.115128 0.256776 0.142796 0.0295331 0.231433 0.262293 0.236181 0.225964 0.282625 0.113752 0.310029 0.0156495 -0.0129275 0.317468 0.330796 0.420601 0.0862218 -0.0815554 -0.170038 0.147534 0.12145 0.155947 0.169868 0.311633 0.211165 0.235585 -0.00889784 -0.040347 0.284496 -0.128984 -0.010156 0.0194631 0.336571 0.0949996 0.259665 0.281157 0.309971 0.504238 0.2502 0.269407 0.283107 0.328588 0.0138699 0.131193 0.0603099 -0.170629 -0.1718 0.0709526 0.15568 0.175883 0.202248 0.0748897 0.0199435 0.101266 0.151394 0.221676 0.0128384 0.352182 -0.080374 0.00849807 0.347919 0.38074 0.401675 0.192494 -0.0421024 0.0638926 0.25197 0.0902822 0.110884 0.0862788 0.266289 -0.0824966 0.106178 -0.0296929 0.227918 0.102389 0.145903 0.0731229 0.271693 0.0237852 -0.0225314 0.239546 -0.0434271 0.184031 -0.13539 0.137164 0.159353 0.0909256 0.138555 0.0573169 0.197484 0.222172 0.103615 -0.0504173 -0.0583729 0.0439664 0.0898435 0.319464 0.126557 0.446705 0.279004 0.341753 0.193948 -0.0388155 0.213704 0.237486 0.152998 0.293835 -0.00448134 0.0875123 -0.0326913 0.047394 0.0260835 -0.128364 0.0198229 -0.0961173 -0.0270369 -0.0530367 0.364521 -0.000149864 -0.0832696 0.287516 0.296466 0.035565 0.136939 -0.0640551 -0.0944158 0.154333 -0.106938 0.00932138 0.125479 0.263182 -0.0979643 -0.0674061 0.517534 0.044783 0.089606 0.417979 0.260777 0.309435 -0.0170981 -0.0570352 0.186282 0.0912202 -0.0734096 -0.0126844 -0.0531209 0.265359 0.250765 0.090066 -0.138861 0.462697
internal_weight=4970.37 1840.5 3129.87 1651.18 1299.02 1629.49 1479.4 189.314 575.678 148.07 1093.57 903.723 337.193 205.452 165.127 300.855 666.642 21.6963 531.305 134.184 275.232 150.087 142.375 237.081 70.4765 397.121 274.823 69.9956 129.94 107.141 169.358 127.532 58.001 27.2588 253.137 239.336 100.668 138.668 72.0045 194.818 756.379 85.1588 43.2177 24.6373 25.1434 135.337 44.8108 111.461 94.6505 49.0248 43.3306 66.6634 40.8515 41.7553 93.7834 34.5155 203.243 48.8385 115.348 109.301 49.662 55.1805 193.878 1830.84 73.6621 46.4442 12.2594 66.3484 37.5947 104.233 86.8376 72.3795 62.5254 16.1138 707.541 159.981 105.465 31.8728 43.262 35.7911 32.8827 28.5395 64.5394 81.9275 73.182 69.9941 36.008 25.6234 10.5608 64.5782 1829.94 1813.35 70.6099 38.5785 35.8357 31.2689 25.4755 41.8263 53.3934 28.9697 18.2639 24.4237 22.4644 59.6833 23.2986 33.2867 27.5018 26.1452 58.8792 54.5215 26.554 20.6503 51.2501 46.3407 67.8541 57.5034 47.9543 9.85408 32.7226 6.94705 21.5918 14.0509 14.5711 19.3047 101.36 43.539 93.3128 40.8867 10.5142 653.019 37.9153 32.1843 16.6118 9.86405 57.821 24.5745 20.6462 8.72013 39.47 35.4947 22.0952 14.0311 13.9087 16.588 25.2334 54.0811 12.1812 6.09447 25.2146 8.9455 7.84791 7.02736 17.1582 18.5804 11.7086 25.3349 13.8008 10.6186 139.526 11.3013 169.675 33.3062 36.1566 28.05 19.8758 28.6569 52.152 49.8554 13.0498 6.19074 58.6209 34.902 13.8548 48.7959 17.0237 8.43951 15.2249 171.008 23.4394 61.8259 17.3953 8.94558 24.8488 5.65491 15.9159 23.8755 14.7894 5.4493 5.6527 43.2568 20.1221 16.9033 6.30044 17.3401 37.6989 627.684 23.5007
internal_count=390070 74076 315994 67783 123207 67364 52481 6293 29234 5645 107039 23247 31762 16168 12528 12216 17966 419 12032 7879 10187 14883 12468 5281 4376 4153 17018 5853 3444 1837 8319 5351 4850 1686 9375 8480 1533 6947 3371 19294 75277 5724 2690 1469 2408 5934 3718 4321 8152 2155 1892 3576 1531 3458 2241 1537 2107 4561 2848 2502 1633 4553 2046 192787 1915 3741 1172 1402 3083 4476 3393 6615 5719 951 70716 1748 8699 1309 359 1351 1166 967 2813 3097 2838 2621 2959 2029 966 4918 192704 191210 2790 3043 2819 2466 1528 2968 2099 1047 714 1052 774 4196 875 2710 2217 2110 1261 5206 2354 1629 3939 3502 626 3032 4555 896 2797 655 1890 1252 1164 1521 1189 668 1550 3781 916 65510 3010 2590 995 538 521 1915 1582 635 3599 3684 812 618 827 842 1559 2844 722 543 1973 770 679 635 1329 1221 478 2473 895 837 13917 1075 16886 3186 1203 1023 204 2661 2728 2587 1170 508 559 306 708 3553 669 316 609 1325 2250 2676 1083 524 1998 528 1250 1613 1061 481 516 4249 219 1394 538 1321 302 63037 1432
is_linear=0
shrinkage=0.183929


Tree=2
num_leaves=198
num_cat=0
split_feature=107 133 52 181 174 95 33 11 28 188 149 177 182 222 137 8 180 29 4 271 107 11 187 10 177 149 74 160 22 267 158 33 175 192 186 107 227 118 199 181 107 22 12 149 22 107 206 253 298 71 22 189 22 32 8 271 22 149 16 55 115 206 172 8 181 106 16 158 116 299 265 107 145 123 116 158 186 141 12 123 123 274 33 252 298 288 272 142 185 135 63 271 18 175 149 270 183 277 158 52 274 272 8 272 140 135 272 252 177 302 12 32 25 123 137 112 135 116 187 248 52 299 140 140 197 271 74 8 185 8 64 149 149 254 160 11 107 64 135 174 197 10 16 274 123 174 82 187 149 298 112 302 135 141 298 135 135 245 188 140 274 158 245 189 176 149 149 11 1 20 85 102 149 22 135 177 272 5 251 272 265 11 135 187 5 16 200 270 185 151 12 135 149 263 267 112 10
split_gain=1693.97 382.324 287.252 216.333 164.685 124.992 112.921 85.7314 85.3952 80.2329 57.4122 85.3525 52.227 47.8364 62.1146 46.3821 43.3299 41.5244 36.0179 32.0474 31.279 41.1835 29.9798 25.2451 34.5955 25.179 23.9797 23.848 23.2582 21.1261 19.5506 19.4822 19.2188 18.6709 17.8465 17.4206 16.3396 15.851 15.6533 14.948 14.2374 24.789 14.1732 14.1291 14.0363 13.5507 13.4696 15.0193 16.6257 12.9557 12.272 12.2354 11.9974 11.9742 11.86 11.2663 11.0319 10.6208 10.6391 10.6059 12.1623 9.60635 9.46803 9.19011 9.15866 9.15257 9.33623 9.10724 9.03192 9.32728 9.01443 8.99812 8.98996 10.6865 9.06184 8.9688 8.74827 8.66525 8.54288 8.49278 9.12191 8.40901 8.39937 8.77265 8.3379 8.22681 8.12857 8.00414 7.96075 7.91695 9.80455 7.86398 7.61094 7.58534 7.3527 7.07978 8.13081 7.0704 6.90107 6.72191 6.6711 6.48458 6.48109 8.16692 6.36199 6.29935 6.2375 6.23234 6.1214 5.97442 5.81523 5.76395 5.67534 5.58867 6.38919 5.52301 5.56095 5.4812 5.45013 5.40993 5.4057 5.38733 5.32329 5.31885 5.29653 6.99866 5.16274 5.0909 5.07622 5.08031 4.97784 7.55224 7.31879 4.96905 4.80023 4.73234 5.16026 5.26285 4.71733 4.70788 4.63668 4.60673 4.58897 4.54416 4.5245 4.49648 4.4563 4.44183 4.4113 4.44945 4.403 4.35562 4.29211 5.76893 4.29135 4.28015 4.23455 4.10822 4.08344 4.07928 5.15396 4.06953 4.04139 4.03723 4.02455 4.00419 3.89553 3.88139 3.85843 3.84574 3.79782 3.72962 3.67244 3.60864 3.57367 3.57259 3.53644 3.50787 4.48013 3.47066 3.45774 3.45734 3.44094 4.99015 3.37895 4.38141 3.36392 3.34961 3.31972 3.21375 3.13385 3.12298 3.07232 3.06675 3.01029 3.01004 3.00519
threshold=61.500000000000007 8.0000000000000018 15099.700000000003 0.50000000000000011 0.014097492107984387 1.0000000180025095e-35 19891.900000000005 610.00500000000011 2733.2750000000005 307.82000000000005 467.50000000000006 0.16640561347546171 1.0000000180025095e-35 26927.530000000002 6979.2250000000013 15359.740000000002 0.077012940330697346 1.0000000180025095e-35 1.0000000180025095e-35 -848.28499999999985 12.500000000000002 679.62500000000011 688.35000000000014 -476.19999999999993 0.064572290148513026 202.50000000000003 1592.2050000000002 1.0000000180025095e-35 31495.645000000004 1.0000000180025095e-35 0.020715053338876386 24273.085000000003 -0.009774347072895026 8.5000000000000018 1638.7300000000002 12.500000000000002 70.580000000000013 1186.7750000000003 42428.305000000008 0.3000000000000001 12.500000000000002 3176.6300000000006 6.5000000000000009 1529.5000000000002 300.13500000000005 1.0000000180025095e-35 67548.700000000012 1.0000000180025095e-35 1774.5450000000003 1.0000000180025095e-35 3176.6300000000006 37.625000000000007 31495.645000000004 1.5000000000000002 1268.5100000000002 -4180.8624999999993 194179.17500000002 628.50000000000011 -13335.584999999997 1.0000000180025095e-35 4114.4100000000008 1.0000000180025095e-35 110.645 12021.735000000002 0.3000000000000001 14721.150000000001 2421.8100000000009 0.036745799849138304 13426.400000000001 277.62500000000006 15232.915000000003 39.500000000000007 10.000000000000002 15.000000000000002 -129.22999999999999 0.0066666595306600906 846.27500000000009 1.0000000180025095e-35 8.5000000000000018 -1.0000000180025095e-35 8.0000000000000018 -5963.0374999999995 11679.860000000002 24164.500000000004 1.0000000180025095e-35 370606.93000000005 21.447500000000005 1114103.0350000004 1202.0550000000001 -1945.9999999999998 7.5000000000000009 -267.95749999999992 2040.3400000000004 -0.078733804049372386 6971.0000000000009 2823.3150000000005 1.0000000180025095e-35 22113.312500000004 0.024400768010214315 222390.69500000004 -5963.0374999999995 60.492500000000007 1268.5100000000002 296.00500000000005 1971.4150000000002 -1704.4999999999998 508.07250000000005 62820.015000000007 0.083526739091160193 56858.532500000008 7.5000000000000009 1.0000000180025095e-35 11173.990000000002 8.0000000000000018 18025.840000000004 82344.60000000002 -1869.9999999999998 -1.0000000180025095e-35 1368.6100000000004 1.0000000180025095e-35 1.0000000180025095e-35 1.0000000180025095e-35 -1.0000000180025095e-35 3440.4300000000007 1.0000000180025095e-35 -710.33249999999987 486.33500000000004 12021.735000000002 -551.02999999999986 -5825.6849999999995 3276.2900000000004 5368.5000000000009 1176.5000000000002 5.5000000000000009 988.44000000000017 1957.2350000000004 98.500000000000014 33185.075000000004 -1246.4999999999998 -0.029647947916048016 137869.96500000003 136.12000000000003 -7118.6149999999989 -7773.7549999999992 8.0000000000000018 -0.7491884173466975 11.500000000000002 1488.6900000000003 1891.5000000000002 1774.5450000000003 114015.60000000002 4750.7075000000004 -303.99999999999994 1.7850000000000004 -1.0000000180025095e-35 -1869.9999999999998 -788.99999999999989 244.71000000000001 139.63000000000002 56071.795000000006 -15.542499999999999 0.051339593234030124 -1.0000000180025095e-35 -182.32499999999996 10.057570445936552 5131.5000000000009 2565.5000000000005 1304.1650000000002 202103.50000000003 21579.715000000004 23518.650000000005 1.0000000180025095e-35 628.50000000000011 3176.6300000000006 -714.99999999999989 0.10167504027430201 104.77250000000002 30.500000000000004 11592.115000000002 451.78750000000002 1.0000000180025095e-35 323.10500000000008 -303.99999999999994 294.47000000000008 59.500000000000007 -309.15499999999992 35507.125000000007 3359.7900000000004 1367.2400000000002 2.5000000000000004 4.5000000000000009 -987.99999999999989 1351.5000000000002 70.500000000000014 35861.980000000003 95013.000000000015 -103.98499999999999
decision_type=2 10 2 2 8 2 2 2 2 10 8 2 10 8 10 2 10 2 2 2 2 2 8 2 2 8 2 2 2 8 10 2 10 10 10 2 8 8 8 2 2 2 2 10 2 2 10 8 2 2 2 8 2 2 2 2 2 8 2 2 8 10 2 2 2 2 2 8 10 2 10 2 8 10 10 8 8 10 2 8 10 2 2 10 2 2 2 8 8 8 2 2 2 10 8 2 8 2 8 2 2 2 2 2 10 8 2 10 2 2 2 2 2 10 10 8 10 10 8 10 2 2 10 8 8 2 2 2 10 2 2 10 10 10 2 2 2 2 8 10 10 2 2 2 8 10 2 8 8 2 10 2 10 10 2 10 8 8 10 8 2 10 10 10 10 8 8 2 2 2 2 2 8 2 10 2 2 2 8 2 8 2 8 10 2 2 10 2 8 8 2 10 8 8 10 8 2
left_child=1 2 4 7 5 9 8 13 17 10 27 23 57 14 46 26 18 -6 42 92 -21 33 43 44 29 -7 30 123 31 166 71 95 35 61 59 84 87 161 63 98 45 51 -11 -16 54 62 47 138 65 99 105 127 72 81 117 -39 82 -13 -59 60 130 152 156 70 151 66 89 -65 69 -45 100 75 73 74 -19 -10 167 109 97 -60 124 -53 83 112 165 106 -57 -20 162 -49 133 -37 -14 101 176 96 -27 142 120 177 -9 145 -90 110 -32 -47 -66 135 -44 154 163 168 172 114 196 -88 -117 -12 -30 140 144 -98 -46 -1 -81 -126 -36 -42 129 -106 131 132 -24 143 -124 136 -102 -138 -2 -64 148 173 -71 -91 -15 -18 193 -17 149 -78 -52 -40 153 -22 -76 -77 -26 -136 182 -8 195 -28 -29 -104 -84 -31 -25 -43 -89 -134 -144 -41 -34 -93 -153 -119 -51 178 -4 -131 189 -151 -107 -184 185 -164 -61 -174 -94 -95 -100 -74 -127 -145 -159 -161 -83
right_child=3 -3 49 -5 6 25 159 38 15 16 11 12 19 39 22 147 93 52 36 20 21 -23 34 24 40 28 37 88 118 32 104 -33 56 -35 126 91 -38 55 64 171 41 76 108 68 122 50 -48 48 -50 94 150 53 -54 -55 -56 86 -58 58 79 186 -62 -63 139 67 85 -67 -68 -69 -70 78 -72 -73 191 -75 77 155 119 -79 -80 80 -82 113 164 -85 -86 -87 115 111 102 90 -92 141 188 180 -96 -97 121 -99 190 -101 107 -103 103 -105 128 158 -108 -109 -110 -111 -112 -113 -114 -115 -116 116 -118 175 -120 -121 -122 -123 134 -125 125 192 -128 -129 -130 179 -132 -133 169 -135 157 -137 137 -139 -140 -141 -142 -143 170 146 -146 -147 -148 -149 -150 181 -152 174 -154 -155 -156 -157 -158 194 -160 160 -162 -163 184 -165 -166 -167 -168 -169 -170 -171 -172 -173 187 -175 -176 -177 -178 -179 -180 -181 -182 -183 183 -185 -186 -187 -188 -189 -190 -191 -192 -193 -194 -195 -196 -197 -198
leaf_value=0.014778621350482321 -0.047245058630107424 0.69610813533169713 0.054936112568255327 -0.16951808649988975 0.45371948121767847 -0.036975632487551841 -0.079403549450391991 -0.054199278340857818 -0.0058014229071355521 0.30073778635604759 -0.016698883597063237 -0.041774915982210906 0.1075042951973214 0.17959905398114848 -0.032644811327109349 0.050684834565752498 -0.015496993969351964 -0.0037558818254525401 -0.0034016954343259213 0.12495346888032331 0.45920941701274393 -0.011791103422419525 -0.011811333580469175 -0.055816100604675727 -0.077441300875600472 0.022161007050646553 0.08561146031307601 -0.036705333335317558 0.10163443966351972 -0.074596852259498928 -0.042437818109134662 0 0.012994368305505662 0.014552344367938536 0.034429675171970008 -0.011450208773614686 -0.023743525715837099 -0.0045937799463766308 0.05685904222795355 -0.10356589601021113 0.0811970004385663 0.10125274580401833 -0.018134085731203342 -0.014617198890215335 0.037963655995024145 0.015655211433105817 -0.043468965290846602 0.024384571845220866 -0.011401400026466748 0.04735465273398206 0.1094571964328987 0.0052786015543535708 -0.01263664779973876 -0.039103481967739211 -0.040218879100959268 0.028806476896845529 -0.017442420776268518 -0.062642924351633822 -0.039423886811406274 -0.070213357063297469 -0.033349120407091634 0.012065116865797549 -0.0034843153477733691 0.038166822681155822 0.02798252859355654 -0.01000560745312116 -0.008265465473524471 -0.11624353167076014 -0.030698799440805447 -0.00171348335032147 -0.073583532308749894 -0.016432204896960876 0.10536862279197702 -0.0036576853624467258 0.016457290825683514 0.015929764481586499 -0.04849816640395832 0.0040700346998312599 -0.017818198552531611 0.032615583780211212 -0.023081535853113001 0.017153937998018742 0.079058278869162044 -0.019968568840716117 0.083802954870211763 0.060805159843061223 0.058943741192040863 0.063886317855363792 -0.06800121161663715 0.0031959797199382608 0.0088188142462074983 0.22145140835350874 -0.086152216701656251 -0.04164145628061152 0.13399839557654489 0.019613168508458602 0.048925351061541535 0 0.051109958348707234 0.024216709266336733 0.010691955005241375 -0.026164003990594591 0.13624994287059561 -0.058948124821535934 -0.016487351549157162 -0.12439443427645559 -0.13339592446234147 -0.037275165531278638 0.13949248357048649 0.0064489850166463102 -0.036655812507661367 0.01144907809757956 -0.0079217071271080273 0.012711402416526053 -0.0098265517994760715 0.020774704604459234 0.46535309661822866 0.21050148851920458 -0.05549874893659433 0.073153905165764629 -0.033898239789766436 0.44477385218015641 0.043413816483858836 -0.11012268148722351 -0.0098147009150069166 0.032615371830280106 -0.10990052994884693 -0.044363289919635521 -0.024923873565644534 0.15484158613672791 0 -0.029853547372789595 0.26559461943487445 0.026766967617513671 0.013308529492304528 -0.02268579064038697 0.22267134665224686 -0.018719391045696743 0.083699810945567513 0.12899816209135226 0.052218420181386289 -0.0035263880973185136 0.33010054306646092 0.028197686184813331 -0.022329369948966778 0.17886544554780906 0.0040209765875461765 -0.051478911472385772 -0.096764901616836416 0.13091565093341795 -0.020901722180758968 -0.081831245640097958 0.028320661597116378 0.046248413698135794 0.30576649858160471 0.30996384343641492 0.0403062839119286 -0.11816021512126076 0 -0.03225487334121744 -0.057341997823057635 -0.053172012581838318 -0.016262800395615548 -0.020169150446761843 -0.047385659587326948 0.014264984177394113 0.040373845259151366 -0.030528733313923133 0.24608213652507904 -0.003098840041569025 0.0018581643080937584 0.036127939140308062 0.23548460366677365 0 0.043497055505943162 -0.0078574861179344663 -0.082068981921805714 -0.14660512370375564 -0.074541413031905923 -0.015112745885708755 -0.09375280653088533 -0.027502958456876444 0 -0.10682219625147589 -0.012363104903628932 0.14375288644291434 0.04578041194705372 0.0016093152818406301 0.027666464052709176 0.075992609813295128 -0.070125829797721723 -0.018896688847680327 0.18003203687405528 0.40466191546686753 0.0024455832573685807 0.093172663057508723 0.24157239940551339
leaf_weight=9.6907111415639502 9.0811686320230347 24.432128575630486 4.295749080367389 1545.7066490314901 61.834519001655281 4.6392501248046747 27.265466451644897 4.6713180476799563 3.4788496540859404 81.118347160518169 3.4389863312244406 22.959880286827683 6.6051480080932405 7.2110953666269806 12.067980580963193 10.676257337443529 2.893588081933558 3.3045156719163051 10.758580726571379 67.105003450997174 42.448817709460847 9.3736099135130626 3.0485141882672968 27.203240130096674 14.71540613286197 3.2203462645411483 3.2378598684445024 2.7600107844918957 3.1364584947004897 31.045662151649594 19.410536307841539 4.7776072006672612 4.5016721189022055 5.3607646580785504 4.0068243164569131 7.1494347397238043 28.698212997987866 2.4915431346744326 8.7049359176307934 128.02582391630858 6.1220703115686801 13.299305570311846 7.1100602177903047 4.3319651577621761 6.2250045007094732 22.233295441605151 4.8069923678413025 5.5392353618517518 7.1881346497684708 2.4044961947947714 11.234429315663876 10.676622526720164 5.20936354715377 6.7233864776790133 16.9432557169348 4.259465602226558 7.8521255748346439 9.0754966037347895 9.3280288996174932 28.96263174246997 17.023087242618203 2.7975252829492083 10.646654344163833 11.151021054945884 4.444020787253975 2.9002223741263142 2.7641849908977738 39.5501997359097 3.5293455040082327 1.3085289048031032 12.234065051190553 3.4020276181399813 19.477996078319851 4.3019173974171272 3.3218034803867331 3.4033895535394612 9.2092044884338957 4.247873628512024 2.4443237083032718 26.208803310990334 12.528155185282229 4.2898748312145463 7.0062132533639652 3.6535092918202272 15.118916079401968 1.6999470507726062 5.4804860642179873 17.252525455318391 31.145649051293731 1.5453843595460082 4.0120696239173403 18.208487374708064 11.331262782216067 7.0312913274392477 2.3285976424813279 3.0032998165115705 4.3236536905169478 3.0207160273566833 1.4168354962021101 5.6039251927286378 8.5733348364010578 9.5718661425635201 18.59163852036 13.796041725203393 6.6322186347097185 57.412709354422987 394.34337214659899 4.1665152488276354 30.824007897637784 3.1750932503491631 5.8670493084937325 9.1415297538042051 2.735068322159349 7.2308046277612439 2.894085941836237 2.2479803645983436 15.711119293235233 6.7635930348187703 6.1308132484555244 1.807856281287967 2.6325565297156563 40.740733745507896 2.6243709800764909 98.002021878957748 7.07183670438826 11.704432075843213 78.971140556968749 20.819178669713438 9.7291300566866976 16.533156323246661 6.9154121959581962 2.271612772718071 9.9466126225888711 3.6379691539332262 7.3700374681502598 2.8432064037770024 11.225094890221952 1.4236993426457036 7.4237121287733343 25.410449952818453 2.914228622801601 3.3525288468226782 12.707294891588388 2.6857684003189268 1.6628273418173183 4.5048975478857782 1.4938692301511753 36.83033609110862 53.936823106370866 1.8552077449858182 9.1313024349510652 17.514936085790399 2.6283508567139569 3.9945958731696001 97.583778408356011 13.182244886644179 8.4128652922809142 73.094816295430064 17.3232879685238 2.4529384560883036 10.667645336128771 4.4634215841069818 4.1081619095057311 3.341919249854981 6.4588367771357298 23.158706438727677 13.02012620680034 4.6984151089563957 16.559661318548024 1.3975559519603837 1.6375033287331451 1.4103993112221349 75.122866258025169 2.8421236453577867 2.6250665998086324 1.7097744690254328 8.7800609609112126 168.581308321096 15.770236745476721 2.2382311634719363 16.813723543658853 2.0830958774313331 35.353856495581567 13.980619809590278 5.0680762054398647 21.867853271774948 2.4964670659974209 2.6185791082680216 7.0412965444848004 3.7167339082807311 11.503522250801323 4.5304657286033025 55.839840917848051 26.213979815132916 6.4880470884963861 12.068368968553841 36.690874823369086
leaf_count=198 573 321 502 189805 1480 148 2616 502 114 848 288 248 461 421 992 738 79 84 322 816 1673 827 261 604 187 26 186 132 248 256 930 449 172 292 405 419 646 193 793 14256 225 818 272 318 523 228 491 377 505 208 507 416 368 476 1358 165 638 155 73 2705 1619 155 123 1164 432 219 193 4402 314 122 1301 236 621 148 74 130 608 141 203 169 520 261 460 208 127 190 316 162 1209 108 278 611 924 210 212 158 104 241 93 668 828 627 616 1072 471 546 44956 438 706 132 180 603 195 280 243 107 862 443 544 137 328 1668 206 862 658 224 8493 776 574 1026 611 190 814 242 547 294 1128 152 479 205 281 144 885 159 97 164 100 2934 3817 95 466 1600 100 216 3021 592 121 6756 147 195 899 321 159 79 521 163 333 426 157 127 119 148 2692 133 248 122 928 19952 1878 193 1021 177 383 118 255 871 250 197 623 267 1094 139 1115 1664 638 930 1116
internal_value=-0.0227463 0.0914771 0.0817038 -0.127124 0.102637 0.0751748 0.203999 -0.0573146 0.238945 0.0631199 0.0442847 0.0611944 0.140789 0.00375477 0.0492047 0.126705 0.157616 0.316871 0.19226 0.212244 0.245594 0.332746 -0.00821357 0.027989 0.042299 0.299795 0.185057 -0.0411695 0.326049 0.0946125 0.102403 0.364339 0.117022 0.382768 -0.0461442 0.0505336 0.0826431 0.294761 -0.106387 -0.0752784 0.00868284 0.0452386 0.254859 0.114339 -0.0450883 -0.0218208 0.175835 0.194104 0.232361 -0.119922 -0.0481627 0.105747 0.231373 0.142202 0.0532375 0.340973 0.167878 0.0583421 0.0778769 0.0195949 0.0741663 0.41126 0.0478431 -0.0338356 -0.121287 0.263502 0.279542 -0.080918 0.168876 0.198524 0.0236879 0.212684 0.240966 0.263885 0.273937 0.245048 -0.0230635 0.282315 0.23374 0.0927263 0.106361 0.165313 0.182777 0.20169 -0.00489443 -0.128366 0.365736 0.13463 0.0198524 0.296088 0.320131 0.143812 0.0126167 -0.00524493 0.0314704 0.391962 0.406749 0.262524 0.0417839 -0.13173 0.0698803 0.0684754 -0.0151536 0.0294492 0.0274351 -0.0670248 -0.130823 0.100617 0.111639 0.291903 0.0785004 0.163754 0.212787 0.191455 0.21198 0.39775 0.439464 0.144209 0.0215889 -0.0518066 0.108503 0.424066 -0.0774275 -0.0982358 0.123462 0.146877 -0.0993991 0 0.0677825 0.101253 0.139184 0.174515 0.207313 0.344298 -0.0890091 0.129719 0.15212 0.197679 0.0199213 0.0971485 -0.0647272 0.180096 0.29317 0.363847 0.148205 0.136346 0.375658 -0.0227834 -0.0767507 0.0102615 0.0626142 -0.0139215 0.42717 0.439589 0.299066 0.280828 -0.0342478 -0.097695 -0.082197 -0.0408339 0.0109894 0.0188457 0.0816784 0.112412 0.0226333 -0.0399102 -0.0219827 0.0669229 0.191477 0.245219 0.310922 -0.0991417 0.220614 0.201951 -0.0548506 0.184529 -0.0429429 -0.137602 -0.0361325 0.135109 -0.0580781 0.0854986 -0.0945022 -0.0431956 0.0998124 0.120003 -0.0508517 0.229189 -0.047027 0.0147576 -0.0381152 0.0821875 0.162886 0.387639 -0.108764 0.0657578 0.2272
internal_weight=4785.59 2285.47 2261.04 2500.12 2053.27 1630.42 422.85 954.414 370.396 1560.45 1314.45 1100.21 313.403 429.243 275.38 163.408 245.995 206.987 201.463 158.686 133.709 66.6037 196.088 786.812 662.154 69.9722 115.902 214.239 65.3329 251.048 78.0098 56.0656 210.825 57.2301 155.04 100.876 82.4105 37.8919 525.171 153.863 411.106 185.251 119.052 41.0477 124.658 225.855 79.2927 74.4857 57.9808 207.764 166.67 95.4469 145.153 68.5056 28.8556 30.1906 109.949 154.716 131.757 72.0619 40.6028 51.8693 59.1854 95.8385 429.332 50.7927 47.8925 50.7012 28.9797 25.4503 45.1372 23.4665 139.943 115.935 111.633 20.0645 89.8041 108.329 21.1184 122.681 113.353 61.7823 102.097 88.6317 69.3233 400.487 27.6991 53.7123 106.546 45.1283 39.589 31.5526 24.9777 44.5321 13.5132 51.288 48.2847 18.674 24.4268 194.251 32.9032 16.9704 72.7423 41.5966 54.5433 146.304 398.787 28.2319 37.9341 104.081 27.8006 42.9537 84.9782 51.1056 43.8748 23.4396 17.9591 11.9124 9.26727 71.8064 11.5065 45.0644 95.8023 107.693 100.825 74.6161 82.978 26.9412 35.1327 25.4036 23.5797 16.6643 14.3927 35.577 89.5773 24.0653 21.2221 12.6488 16.5049 36.0571 69.9986 24.4031 15.6533 31.939 8.87392 7.39849 30.3936 47.5066 67.0843 13.1475 20.3657 28.8449 49.0718 46.4434 100.906 16.5856 23.1283 86.9529 124.07 52.4544 25.189 7.70128 33.8041 21.9336 13.4651 54.2044 40.2234 17.9977 33.8122 11.3442 14.3448 129.436 82.2431 21.0506 20.14 8.47337 11.1846 188.647 20.066 18.7714 27.5617 3.9383 106.747 49.3345 31.0441 25.976 31.4591 77.7414 18.3726 10.748 12.9204 24.0085 67.5443 28.8997 79.5829 14.5213 40.9807
internal_count=390580 101853 101532 288727 77184 56248 20936 98922 16296 52903 46819 41186 9249 40494 24057 10088 6084 6208 3716 6087 4079 3263 18669 31937 21056 3345 6416 5633 3197 7873 4266 2405 6936 2436 15475 1853 1890 2150 58428 16437 13183 10152 1826 3194 10881 3031 5388 4897 3845 24348 2395 3793 4728 2792 2211 1643 5083 3162 2914 6577 3622 2144 636 10209 48219 3340 3121 5566 2202 1888 4643 1072 4360 3600 3452 836 6359 3368 1570 2759 2686 2316 4445 3464 546 45578 1450 1244 4573 2928 2551 1307 2008 2368 1348 1956 1798 1367 2033 23000 3342 870 3156 1947 3194 1422 45388 2840 978 3227 875 922 3256 1900 1620 1285 969 853 792 5115 846 1772 8670 1060 2166 1997 8898 1001 2264 1690 2003 1392 1202 2273 8147 2402 2108 1280 1052 328 4978 888 1126 2031 518 243 1923 3672 4697 880 973 2641 1989 1889 3095 722 308 7941 1194 4640 2024 507 1417 695 981 419 937 1244 319 941 1004 14404 3061 744 1848 565 1136 22332 2380 1219 1498 272 1047 501 1285 1030 2955 2889 1547 477 1187 760 1339 1823 7394 1125 1377
is_linear=0
shrinkage=0.183929


Tree=3
num_leaves=198
num_cat=0
split_feature=181 272 111 133 94 21 22 262 262 266 96 177 9 127 272 22 243 72 168 8 156 271 33 96 107 111 73 168 174 308 85 180 6 8 94 127 168 110 184 171 85 135 184 71 109 127 177 127 274 24 109 271 187 154 185 6 64 177 272 0 0 271 177 185 28 9 185 267 184 274 128 0 180 72 84 168 184 127 310 266 9 266 180 127 302 97 274 154 134 171 199 134 158 20 147 9 56 131 137 160 22 177 180 305 191 115 302 185 135 81 116 187 164 185 107 72 160 308 310 0 196 180 164 308 171 222 252 175 271 137 157 22 0 168 245 72 245 273 127 0 0 137 8 73 175 175 0 97 199 96 0 271 196 81 266 127 157 135 174 262 0 180 6 56 8 63 274 97 181 265 308 140 180 137 177 177 164 64 17 177 184 135 89 134 131 8 0 195 135 97 275 274 177 199 157 139 229
split_gain=1235.64 336.432 161.787 154.934 107.411 85.1822 63.5349 60.8848 60.5956 48.2695 43.1347 39.4367 39.5699 32.1576 30.2073 29.1503 32.2269 30.9615 27.5742 27.2248 24.6294 24.5811 38.2368 23.5031 23.2733 22.7091 21.1248 18.7921 18.5883 21.2565 17.9724 15.5567 15.3745 15.0082 14.6907 14.5326 15.0142 14.2268 13.8699 14.2171 13.8418 13.5937 13.2251 12.9451 12.8482 12.5804 16.873 12.2758 12.2726 12.0132 14.2446 16.1044 14.3576 11.4127 11.3799 11.2394 10.7043 10.545 10.8488 10.2047 10.4066 10.0555 9.93263 9.83068 9.55076 9.4843 10.7165 10.9182 9.44349 9.21281 9.20055 9.19319 9.11444 9.02527 8.77444 8.68478 8.59483 8.58749 8.43421 8.37713 8.35723 8.28244 8.23363 8.04527 8.47151 7.6872 7.62973 7.51005 7.47893 9.42952 7.45421 7.37607 11.3778 7.36743 7.34823 7.29173 8.82721 7.25717 7.11271 6.94498 6.69605 6.53155 7.78532 6.46233 6.424 6.27133 6.02619 5.95341 6.88017 5.79336 5.59646 5.4874 6.56808 5.43848 5.38061 7.19521 5.37717 5.6194 5.36234 5.3584 5.32448 5.22022 5.20071 5.09611 5.13627 5.1252 5.09413 5.07631 5.36938 5.04197 5.0354 5.01281 4.99623 4.95965 4.92779 5.71244 5.24113 5.54439 4.90758 4.82495 4.81065 4.76793 6.22165 4.76503 4.75263 5.44552 4.87853 4.73791 4.73319 4.67818 4.67785 5.33981 4.67601 4.61863 5.95807 5.28703 4.60131 4.37392 4.35805 4.26829 4.22003 4.21328 4.18248 4.18176 4.41159 4.16739 4.15665 4.14899 4.13506 4.12266 4.11198 4.09923 4.04891 4.04494 4.03095 4.6547 4.0126 4.20725 3.98999 3.9891 4.16707 3.92542 3.85968 3.8442 3.82809 3.82155 4.3205 3.79497 3.7931 3.73522 3.71282 3.71239 3.6896 3.68194 3.66977 3.59399 3.57899
threshold=0.50000000000000011 451.78750000000002 1.0000000180025095e-35 8.0000000000000018 1.0000000180025095e-35 1.0000000180025095e-35 1.0000000180025095e-35 40.500000000000007 82.500000000000014 26639.795000000002 1.0000000180025095e-35 0.14905015731692681 628.74500000000012 3442.5000000000005 104.77250000000002 59026.015000000007 680.66500000000008 407.02500000000003 21418.965000000004 19075.195000000003 12921.465000000002 1.0000000180025095e-35 11679.860000000002 1.0000000180025095e-35 31.500000000000004 8.0000000000000018 6.5000000000000009 21418.965000000004 0.020148097278105497 21.750000000000004 38884.950000000004 0.17912139980370259 19.500000000000004 19075.195000000003 1.0000000180025095e-35 5557.5000000000009 42896.155000000006 1.0000000180025095e-35 122.78500000000001 80249.305000000008 27037.650000000005 -1945.9999999999998 1458.6800000000003 1.0000000180025095e-35 1.0000000180025095e-35 493.50000000000006 0.14905015731692681 4847.5000000000009 -307.84499999999997 1.5000000000000002 1.0000000180025095e-35 -365.10749999999996 243.64500000000001 2.5000000000000004 -551.02999999999986 223.50000000000003 469.20500000000004 0.80252509586385756 21.447500000000005 1435996655.0000002 1161420023.5000002 1.0000000180025095e-35 0.12528510434068588 253.97500000000002 60888.095000000008 256.92500000000007 1970.9450000000004 3990.3450000000003 1.0000000180025095e-35 -7773.7549999999992 341.01000000000005 506473151.50000006 0.26242739321587888 1932.0200000000002 8.5000000000000018 1.0000000180025095e-35 -2514.4849999999992 418.50000000000006 8370.1600000000017 2631.3800000000006 420.69500000000005 15930.955000000002 0.27504646840148705 493.50000000000006 2933.0000000000005 8.5000000000000018 -2448.5049999999997 2.5000000000000004 518858.66500000004 1.0000000180025095e-35 336.15500000000003 57007.80000000001 0.11430521254851408 485.62500000000006 -1216.5949999999998 1592.2050000000002 69.980000000000018 909.07500000000016 1.0000000180025095e-35 2200.7900000000004 1.0000000180025095e-35 0.049302149829362686 0.10418976348854399 14099.460000000001 57.595000000000006 1.0000000180025095e-35 6727.0200000000013 -1.0000000180025095e-35 -1246.4999999999998 23460.005000000001 4859.2050000000008 1.0000000180025095e-35 -0.22196264177180611 118.26500000000001 80.500000000000014 2328.2250000000004 3738.8850000000007 38.250000000000007 12866.495000000001 668133049.50000012 1110.6950000000002 0.17912139980370259 0.81744729667882055 45.750000000000007 28489.620000000006 121713.40500000001 62820.015000000007 -0.37486260920669362 125.81750000000001 2719.6400000000008 689724.00000000012 -17654.579999999998 349761821.50000006 12307.085000000001 1975.4550000000002 1715.1400000000001 100.16500000000001 7.2500000000000009 244.50000000000003 550006377.00000012 596391561.50000012 11328.220000000003 26252.455000000005 6.5000000000000009 -0.37486260920669362 0.011377565994590244 771164878.50000012 27.500000000000004 1.0000000180025095e-35 1.0000000180025095e-35 349761821.50000006 545.37750000000017 110737.04500000001 15603.210000000001 45198.435000000005 3863.5000000000005 556002.00000000012 -714.99999999999989 0.020148097278105497 23.500000000000004 1316552481.5000002 0.21178047626557328 187.50000000000003 69.980000000000018 8997.4850000000024 2.5000000000000004 -523.20499999999993 10.500000000000002 0.3000000000000001 400.13000000000005 38.250000000000007 15423.300000000001 0.26242739321587888 -1.0000000180025095e-35 0.1085173301298136 0.077543648039982191 1.0008484296730435 6060.795000000001 2.5000000000000004 0.16640561347546171 267.98000000000008 -1246.4999999999998 199470.62500000003 91845.900000000009 1049.8350000000003 15359.740000000002 575611724.00000012 -18385.499999999996 -1945.9999999999998 62.500000000000007 3518.3525000000004 -72.177499999999995 0.064572290148513026 -1557.0999999999997 284599.12500000006 3984.6850000000009 229.37500000000003
decision_type=2 2 10 8 2 2 2 8 8 8 2 2 2 8 2 2 8 2 2 2 2 2 2 2 2 8 2 2 8 2 2 8 2 2 2 10 2 10 10 2 2 8 10 2 2 10 2 10 2 2 2 2 8 2 8 2 2 2 2 2 2 2 2 8 2 2 10 10 10 2 8 2 8 2 2 2 10 10 10 8 2 8 10 10 2 2 2 2 8 2 8 8 10 2 10 2 2 10 10 2 2 2 10 2 8 8 2 8 10 2 8 8 10 10 2 2 2 2 10 2 10 8 10 2 2 10 10 10 2 8 8 2 2 2 10 2 10 2 8 2 2 10 2 2 10 10 2 2 10 2 2 2 10 2 10 10 8 8 10 8 2 8 2 2 2 2 2 2 2 10 2 10 10 10 2 2 10 2 2 2 10 10 2 10 10 2 2 10 10 2 2 2 2 8 8 10 8
left_child=1 2 4 15 5 6 21 14 10 30 13 26 144 28 68 16 17 110 25 32 23 22 -1 45 69 -5 49 55 42 71 35 74 188 64 78 36 41 -4 140 47 57 -6 44 182 87 94 116 59 168 50 52 171 86 -45 162 93 109 58 70 60 65 104 101 77 97 -40 95 -68 -2 -11 -25 -30 133 100 90 76 -34 -46 152 83 -64 134 -43 113 -85 105 -12 131 89 130 -27 -78 -93 103 158 -67 150 -19 122 106 -16 102 147 -8 -17 -54 172 -73 173 111 126 -53 -113 -44 115 190 121 -118 -36 -79 -89 -47 -63 132 -125 -126 153 -23 174 179 -87 -7 -106 -72 135 136 137 -28 -71 -104 192 142 161 -56 146 -146 -13 -60 -133 -140 -97 -152 -18 169 155 160 -49 -137 -10 -101 183 -82 -50 164 167 -124 -31 -26 -22 -3 -168 -52 -80 -109 175 -129 -103 -178 -134 180 191 -91 -9 -155 -174 186 -120 -21 -14 -51 -55 -65 -15 -81 -123 -112 -158
right_child=7 3 37 18 9 8 27 43 20 24 11 12 19 38 73 61 34 33 -20 187 48 127 -24 40 163 31 81 -29 29 166 -32 -33 75 -35 118 -37 -38 -39 39 -41 -42 82 79 53 63 46 -48 156 54 189 51 56 85 114 143 -57 -58 -59 62 -61 -62 98 80 129 -66 66 67 -69 -70 138 72 107 -74 -75 -76 -77 91 119 99 193 141 -83 -84 84 -86 88 -88 120 -90 181 -92 92 -94 -95 -96 96 -98 -99 -100 159 -102 176 139 -105 123 -107 -108 108 -110 -111 195 112 -114 -115 -116 -117 117 -119 185 -121 -122 194 165 124 125 -127 -128 128 -130 -131 -132 148 178 -135 -136 157 -138 -139 149 -141 -142 -143 -144 -145 145 -147 -148 -149 -150 -151 151 -153 -154 154 -156 -157 196 -159 -160 -161 -162 -163 -164 -165 -166 -167 170 -169 -170 -171 -172 -173 184 -175 -176 -177 177 -179 -180 -181 -182 -183 -184 -185 -186 -187 -188 -189 -190 -191 -192 -193 -194 -195 -196 -197 -198
leaf_value=0.45457042595635311 -0.026329939963708811 -0.050239544957597942 0.41226429863012437 -0.010398583786822888 0.061945071125281435 0.038017889519795803 0.13852960508176471 -0.16925012405549297 -0.074641648054409968 -0.0067540807639225398 -0.017881358778881678 0.15387484380714203 0.088062547809214894 -0.017666372243167264 0.045370635240351717 0.048060562726466541 -0.035190548151850687 0.310546579118956 -0.032245979416532421 0.066355393165372673 -0.024073687108051113 0.015605167586462276 0.0032769601400181266 -0.031176295938652676 -0.026313287115507358 0.017205200188223437 -0.034903572305557816 -0.080808627255475815 -0.024525268659606515 -0.077101588234308349 -0.033052095208424087 0.019751030978110873 0.00032633364611259723 -0.02364238349494514 0.11931696669088353 -0.011794080449267427 -0.017100753946451473 0.0672384389032612 0.21243864281733485 -0.043832565180852739 -0.066115505190837504 0.44552279818645152 0.051183021347241883 0.055640061419568468 -0.021281976816163905 -0.069616066309653946 0.12641225916077956 -0.06524615795380935 0.16848928087852716 -0.045488185941000854 -0.045702472851184311 0.027125531236139564 -0.063631925817803969 0.0099178841587135233 0.025487114769167374 -0.06048873067776555 0.0014879021911456741 -0.051923982612059959 -0.070381085757589237 -0.018665037334528664 0.23899677909000949 -0.043419809889806038 -0.0094639184725925519 -0.040141798252718089 0.00155093897550307 -0.0047030443115581022 0.18795352812469968 -0.030263122403897332 0.19140354702556395 0.0043286944179600851 0.21915489550106676 0.00012142783770238947 -0.010309760506163921 0.06900944472484008 0.00093116153781693867 0 0.013810804578261894 -0.010860106512572142 -0.04040992765397701 0.022105010475362619 0.24148554207712061 -0.083541433092912828 0.11106787212952948 0.10366580094202445 -0.036657534961459751 0.13291921639318505 0.18338615225746491 0.1058537980510838 0.15545926567285276 -0.066408736093707829 0.48997152712014114 0.32579257517368077 0.0091022164329884296 -0.036153743241581042 0.056887614907110549 -0.0061647102239906579 -0.047127590190848147 0.0035263538564328798 -0.05938040606936739 0.027474250444478817 -0.11670860073233122 -0.05607560777267797 -0.021535159682726186 -0.016017628831768008 0.035750125213555146 0.054762134018318247 -0.081214817853630217 0.0064231567524802571 0.010653294644385539 0.030668477129394241 -0.092055300675740886 0.0074237787760002318 0.28842985525924653 -0.058472388630973794 -0.13463702695195739 0.051276293102277139 0.11081729331896019 -0.032278301659555829 0.10928430167531997 0.19076162385169193 -0.050216705151340732 0.077854511728044751 0.15074006926195979 0.010284658226029746 -0.13657119337003798 0.0015992981346951121 -0.071065150730134932 0.08009347864403564 0.22586740446719275 -0.081230847694134051 -0.016079426713339073 -0.096974547819015849 -0.091442095604837695 0 -0.057901040169273894 0.1456837838824912 -0.070166582215612602 0.11209325453249477 0.0326943271331082 0.16452061125757356 -0.038872845196438029 -0.010447765189978269 -0.011613665753069102 -0.073688939831679401 -0.070034394725733626 0.048943147737697548 -0.018470281938534963 0.058959480751655295 -0.0065612612340915678 0.28295154581188614 0.18019764384275519 0 0.081039585418497206 0 -0.030790343972982914 -0.029809562446254587 -0.03249376695645579 -0.019448004618891897 0.020705142488674052 -0.12046788061587473 -0.019915488175232851 -0.0016556275085551778 -0.022731306837843374 -0.07396289514866497 -0.038633168726808061 -0.026031378065596324 -0.037434029109327908 0.12324981254766609 -0.12774575042697625 0.071563900003534783 0.099397299033937028 0.079640766199793239 0.11072170758199515 0.26351331019801827 0.13459902050173536 -0.041779442728718731 0.079919223250791274 -0.050791979235906455 0.034291461776322418 0.086549038432701939 -0.069461657677034355 0.025710947157127316 0.015553130033054561 0.21069422145847905 -0.027056065824080541 -0.064860678197144014 -0.025954426984283626 -0.056425773278995138 -0.040500645426271548 0.067645131629351388 -0.1037993390745086 0.092595462880651749 0.11093474727217889 -0.071624466085601371 -0.030143679748586952 0.044420459451693727 0.10097036443818792
leaf_weight=26.241268851328641 5.4138860949315157 18.939340113196526 44.667243203148246 4.7877837656997171 9.1126097412779909 6.50146142207086 66.216338428203017 1264.613571273163 113.23216000618413 6.2301949346438077 5.0056609236635259 3.1299141068011505 3.6297940602526069 8.022743768990038 4.1011956068687132 2.36939707538113 62.619610434863716 13.969510532915601 6.0066436165943733 4.0587034365162244 24.392085772939026 9.7232151599600893 8.072590909432618 4.3973144269548357 4.2615280915051716 2.1905214530415833 8.5349821187555843 20.594942111521959 5.0029734363779417 14.377837143372746 2.5271986140869549 4.7400786518119267 3.6046280949376515 7.4363198983483008 7.0960516789928105 2.9038355010561636 2.385005895048379 9.7310846890322846 20.170263619162142 13.759065783582626 15.271753862034528 43.209458163473755 17.310708687175065 8.002341060433535 10.021076191216709 46.258075339719653 30.258663578890264 11.224101366475226 5.2093368852511048 22.853582063689831 12.691685657016935 6.4125516372732854 31.140048670116812 9.5716009256429953 20.210950395092368 8.6177103095687908 8.3150720926932973 11.141288463026283 10.76666349405423 11.133941723033784 32.256874225102365 3.5093377721495917 9.8670509587973338 3.9823360606096685 5.5818475200794628 57.005666989833117 31.057176426518708 5.9092378802597514 17.683972558472306 4.0048033907078233 39.281083110254258 5.4471569643355906 6.1778925745747975 5.607604627031832 1.6973500386811782 3.7016680380329481 4.2210041657090178 3.7435963083989945 8.1841246038675326 17.458946129307151 14.767126544378707 22.963550269603729 12.110761216841636 79.237521797418594 11.378029071725903 18.667305682785813 32.142530971206725 6.9701201627030951 13.353960594162343 21.721417876426127 15.618288113269964 84.299565987661481 4.9119705399498335 6.1156270806677631 10.94227132713422 6.5598960155621162 6.947946344036608 3.4788135839626184 30.068817857652903 2.7448546765372148 42.384003966581076 34.620121194981039 2.7057439470663658 7.5535876126959911 10.547380103264002 13.70040467334911 19.182094610761851 3.1245635440573158 6.4041594220325377 8.2811756101436895 24.181991341989491 3.889052227139465 39.837467772420496 23.31436428334564 126.89568139007315 10.728809754829852 9.961657458450647 9.5970756686292571 4.0381544614210751 12.262480933684854 4.1095853387378156 9.7336039016954619 6.5954854791052622 6.7574480930343261 274.99938684748486 8.5517129320651275 6.8836718229576936 9.9079781868495065 51.138344093225896 16.54990415321663 6.9763413183391085 107.27353138988838 41.733258276712149 3.8433844097889951 7.7495873090811065 12.763665230944751 11.021586954127995 8.1034990856423956 6.6493971310556015 12.047820997890083 31.329794130753726 2.8868244392797342 3.0028133103623977 28.591807006392628 17.856817855034027 13.742564335931091 5.3713841973803937 6.9189986642450085 26.564110718201846 14.751438822131597 20.479405932594094 7.066320206038653 3.5118761146441093 3.1169410725124207 5.912001457065343 2.2740143039263776 4.2399441548623118 3.6224824562668827 13.346216211561112 147.3339758804068 1.5069223665632296 2.1549851964227846 1.7114856573753057 12.193225532770155 10.457149590831248 1.9749616500921545 6.4133070847019535 7.5097435107454658 58.899408118333668 3.266917302273213 3.8707589157857001 3.5759855820797375 10.751067066565154 21.889367762021717 27.281080882064998 11.926721448544411 10.990618974901734 4.198916000314056 4.0090052182786158 8.0887263738550228 13.0362999914214 21.302646199241284 1.7307294979691494 9.0899083074182254 4.371043073013424 10.599012412130831 10.014328794088213 9.6289812116883677 7.1980515420436841 3.5101428087800732 31.893063315656036 6.0482873786240869 7.1270618718117467 21.756371748168021 13.055154813453553 0.97822171729057927 6.0273754238151023
leaf_count=473 495 1533 373 393 372 95 1282 183670 3268 113 163 154 130 199 393 242 5131 983 516 206 2200 119 451 164 324 60 490 1842 147 1056 222 307 241 743 598 145 214 290 462 1029 1425 1595 199 659 493 1178 763 468 425 1505 775 160 763 984 1696 226 418 446 475 113 500 372 638 138 523 873 392 216 1117 135 941 161 111 494 167 200 131 156 815 533 683 1944 508 866 338 552 890 213 495 1009 901 2315 314 300 339 115 233 348 3560 215 4701 2039 182 591 994 337 2160 99 180 448 2514 140 1218 278 16984 1202 456 833 434 565 283 182 629 822 34606 1103 679 135 657 1026 175 1344 4023 256 482 718 561 457 163 729 746 225 198 2904 810 737 243 394 646 376 405 98 309 304 586 215 92 225 610 17748 155 111 147 1118 884 228 278 577 6605 264 254 250 944 675 255 134 601 300 362 287 586 985 238 846 469 1273 1055 503 180 228 3703 274 178 810 192 109 218
internal_value=-0.0181433 0.0483086 0.0844345 -0.052041 0.0756985 0.0645752 0.162821 -0.153012 0.0502177 0.227669 0.0729035 0.113631 0.186349 0.0434791 0.00695142 -0.0703121 -0.0337012 0.0492176 0.278867 0.233855 0.0014615 0.239115 0.37513 0.0225022 0.09122 0.335616 0.074491 0.0493327 0.012902 0.0955147 0.324283 0.387421 0.261432 0.178229 -0.0649308 0.340377 0.355705 0.372203 0.0914447 0.108957 0.0689163 0.370492 -0.00302819 -0.161305 -0.0317513 -0.0139966 0.0283242 0.120256 -0.063352 0.097428 0.109598 0.170381 0.0701252 -0.103779 0.00367327 0.0854224 0.205373 0.0836398 0.0953593 0.133882 0.143655 -0.10551 0.0543927 0.0281969 0.231465 0.10957 0.0795693 0.153281 0.14699 0.182971 0.158978 0.162567 0.179108 -0.0688917 0.43702 0.282066 0.291592 0.100731 -0.0792813 0.0343331 0.126095 -0.0106118 0.402568 0.0557945 0.083664 0.0340684 0.157502 -0.0611187 0.0648661 0.0282982 0.461339 0.301274 0.311569 0.106843 -0.050248 0.0391628 0.0892805 0.275215 -0.0151907 -0.0980364 -0.0959484 0.0143252 0.0680911 0.122218 -0.115539 -0.0231955 -0.0236988 0.188586 0.21205 0.229135 -0.0174398 0.250185 0.270489 -0.0100616 -0.113823 -0.0483941 -0.0147209 0.0526559 0.0416477 0.156613 0.0499196 -0.0387705 0.0694088 -0.118162 -0.128668 -0.132364 0.0178075 0.167064 0.178501 -0.0218397 0.0984675 -0.073038 -0.0515757 0.203646 0.0298064 0.0542006 -0.00230795 0.0510321 0.218859 0.134127 0 0.170282 0.192275 -0.034744 0.0193026 -0.0180703 0.0931528 -0.0152651 -0.0811007 0.243038 0.122533 0.147394 -0.0181531 0.0434876 0.0882966 0.128515 -0.00707673 0.114438 -0.0634795 -0.115883 0.157925 0.220403 0.13384 -0.0154913 0.0289337 0.116106 -0.031878 0.0805581 -0.103955 -0.0137792 0.0365277 0.000967408 0.0330904 0.243978 0.0971503 0.0204302 -0.0258555 0.0362423 -0.0753457 0.021401 -0.0203632 -0.0240079 -0.16884 0.180642 0.0746466 -0.00878958 0.0416317 -0.00532988 0.023037 -0.0142737 -0.0801286 0.0444619 0.0620981 -0.0332926 0.0248987 -0.0740508 0.0554853
internal_weight=4644.33 3115.7 2292.48 823.219 2238.08 2099.78 253.389 1528.63 1846.39 138.306 1255.95 513.491 165.355 742.454 75.1907 788.179 397.063 106.616 35.0407 125.254 590.44 144.291 34.3139 451.425 66.0575 29.034 348.136 109.098 462.138 66.5301 72.2489 24.2462 111.567 30.4665 290.446 69.7217 66.8178 54.3983 280.317 233.837 195.04 64.4328 395.607 1453.44 225.152 256.385 118.864 220.078 139.015 273.377 247.013 83.003 164.01 187.091 55.7236 88.5033 66.7353 179.769 168.627 198.587 187.453 391.116 114.928 73.7327 23.0302 155.196 135.026 36.9664 23.0979 31.6358 53.6997 41.8682 49.3024 52.0928 19.5062 100.739 97.0372 26.0272 258.699 170.456 32.6788 74.7594 55.3202 131.241 90.6156 126.862 37.1482 151.419 82.0217 68.6677 17.8088 93.4325 89.2115 79.8856 137.521 98.0592 41.0536 17.4483 42.1486 192.567 46.4852 82.2489 32.4392 73.7699 348.968 44.8405 42.4883 36.8652 31.4181 58.4202 76.1499 50.1391 43.7265 40.6251 179.089 52.1935 88.6056 19.5587 31.7475 16.0061 11.0797 69.0468 12.0798 346.598 290.309 283.551 50.9897 109.977 100.254 47.7056 25.6436 140.339 56.2896 43.1245 51.7958 44.0462 27.6601 16.6385 25.4056 14.7536 46.4796 22.8117 19.9249 48.8028 40.1007 31.5994 8.5013 17.6857 133.838 21.4008 34.1056 27.5457 66.1315 44.106 21.8998 15.9878 21.4914 16.3861 126.578 150.079 13.7138 16.9221 6.92082 34.4216 22.2284 8.57045 24.6619 11.7713 83.2915 22.2063 10.2841 16.2677 23.3062 25.0139 49.1158 21.8347 49.8097 15.1895 45.7423 31.1556 23.0669 43.0241 1266.34 12.2068 15.1221 24.6515 14.0525 13.6877 10.8278 26.3637 41.4647 10.0306 15.1498 39.2153 22.7888 25.1602 10.2673
internal_count=390337 175697 85459 90238 84796 78050 6465 214640 71585 6746 39869 21552 6164 18317 7200 87894 40953 9802 2344 4220 31716 2224 924 17739 3690 1828 15388 4241 11980 2850 3056 1435 3511 2597 31151 2834 2689 663 6337 5214 9918 2475 9130 207440 6106 7821 3604 4185 13977 10511 8778 3409 5369 23532 5172 2399 2384 8493 8047 3407 3294 46941 6575 3525 1854 2794 2332 608 1612 787 1472 1262 1308 5588 1128 3201 3001 1214 27791 3024 1855 4877 2103 1681 1204 4316 1053 2581 3216 2721 961 2760 2629 2173 4217 1724 851 1331 4789 22351 5094 4720 1780 1873 42152 1100 4388 1115 954 1966 7205 1518 1358 477 22873 5889 2841 1289 3360 721 496 1552 1229 41910 36531 35709 4582 1300 1181 2311 727 2085 5379 1197 2933 2451 1508 947 674 911 1123 1217 992 4600 1944 1547 397 869 1990 539 618 503 5440 3903 2106 1520 778 943 3878 17963 1305 794 572 2903 1785 857 1588 901 8805 1797 532 1025 2228 774 524 269 2940 901 4385 1285 998 1994 183908 1150 1413 2762 1489 709 310 1733 4687 412 377 1343 374 2623 310
is_linear=0
shrinkage=0.183929


Tree=4
num_leaves=198
num_cat=0
split_feature=181 11 94 21 181 107 161 243 72 72 243 272 195 51 174 111 172 12 222 137 107 113 161 107 171 113 170 184 8 294 187 11 12 183 8 170 50 113 171 10 172 171 158 5 174 187 161 113 81 0 133 0 174 155 275 272 5 230 134 10 177 174 135 275 33 275 135 251 199 83 56 139 269 251 195 31 294 81 242 6 294 171 56 113 72 97 8 72 112 177 161 242 112 11 97 25 267 134 199 97 204 308 10 9 8 107 242 18 72 180 5 250 308 251 171 137 137 134 299 112 23 113 177 180 5 188 0 272 157 135 0 118 113 21 242 8 63 196 161 161 72 63 137 305 17 27 59 129 155 243 135 196 193 0 116 150 308 171 188 254 222 135 112 107 0 196 269 137 242 269 5 142 5 161 157 135 145 135 0 135 112 188 10 288 252 0 288 158 56 81 288 81 5 5 222 5 112
