tree
version=v4
num_class=1
num_tree_per_iteration=1
label_index=0
max_feature_idx=153
objective=binary sigmoid:1
feature_names=numero_de_cliente foto_mes active_quarter cliente_vip internet cliente_edad cliente_antiguedad mrentabilidad mrentabilidad_annual mcomisiones mactivos_margen mpasivos_margen cproductos tcuentas ccuenta_corriente mcuenta_corriente_adicional mcuenta_corriente ccaja_ahorro mcaja_ahorro mcaja_ahorro_adicional mcaja_ahorro_dolares cdescubierto_preacordado mcuentas_saldo ctarjeta_debito ctarjeta_debito_transacciones mautoservicio ctarjeta_visa ctarjeta_visa_transacciones mtarjeta_visa_consumo ctarjeta_master ctarjeta_master_transacciones mtarjeta_master_consumo cprestamos_personales mprestamos_personales cprestamos_prendarios mprestamos_prendarios cprestamos_hipotecarios mprestamos_hipotecarios cplazo_fijo mplazo_fijo_dolares mplazo_fijo_pesos cinversion1 minversion1_pesos minversion1_dolares cinversion2 minversion2 cseguro_vida cseguro_auto cseguro_vivienda cseguro_accidentes_personales ccaja_seguridad cpayroll_trx mpayroll mpayroll2 cpayroll2_trx ccuenta_debitos_automaticos mcuenta_debitos_automaticos ctarjeta_visa_debitos_automaticos mttarjeta_visa_debitos_automaticos ctarjeta_master_debitos_automaticos mttarjeta_master_debitos_automaticos cpagodeservicios mpagodeservicios cpagomiscuentas mpagomiscuentas ccajeros_propios_descuentos mcajeros_propios_descuentos ctarjeta_visa_descuentos mtarjeta_visa_descuentos ctarjeta_master_descuentos mtarjeta_master_descuentos ccomisiones_mantenimiento mcomisiones_mantenimiento ccomisiones_otras mcomisiones_otras cforex cforex_buy mforex_buy cforex_sell mforex_sell ctransferencias_recibidas mtransferencias_recibidas ctransferencias_emitidas mtransferencias_emitidas cextraccion_autoservicio mextraccion_autoservicio ccheques_depositados mcheques_depositados ccheques_emitidos mcheques_emitidos ccheques_depositados_rechazados mcheques_depositados_rechazados ccheques_emitidos_rechazados mcheques_emitidos_rechazados tcallcenter ccallcenter_transacciones thomebanking chomebanking_transacciones ccajas_transacciones ccajas_consultas ccajas_depositos ccajas_extracciones ccajas_otras catm_trx matm catm_trx_other matm_other ctrx_quarter tmobile_app cmobile_app_trx Master_delinquency Master_status Master_mfinanciacion_limite Master_Fvencimiento Master_Finiciomora Master_msaldototal Master_msaldopesos Master_msaldodolares Master_mconsumospesos Master_mconsumosdolares Master_mlimitecompra Master_madelantopesos Master_madelantodolares Master_fultimo_cierre Master_mpagado Master_mpagospesos Master_mpagosdolares Master_fechaalta Master_mconsumototal Master_cconsumos Master_cadelantosefectivo Master_mpagominimo Visa_delinquency Visa_status Visa_mfinanciacion_limite Visa_Fvencimiento Visa_Finiciomora Visa_msaldototal Visa_msaldopesos Visa_msaldodolares Visa_mconsumospesos Visa_mconsumosdolares Visa_mlimitecompra Visa_madelantopesos Visa_madelantodolares Visa_fultimo_cierre Visa_mpagado Visa_mpagospesos Visa_mpagosdolares Visa_fechaalta Visa_mconsumototal Visa_cconsumos Visa_cadelantosefectivo Visa_mpagominimo
feature_infos=[249221323:1587194114] [202102:202102] [0:1] [0:1] [0:3] [19:101] [1:374] [-625078.98999999999:1422599.8300000001] [-4960615.0099999998:4503649.4699999997] [-295966.15999999997:343691.62] [-296451.62:198041.26000000001] [-25570.98:1210376.54] [3:17] [1:2] [1:3] [-2717.3600000000001:15133869.75] [-2610299.1099999999:28663799.539999999] [2:10] [-3742.1700000000001:91384784.569999993] [-387.12:1997005.6200000001] [-21005.5:139371612.5] [0:1] [-2610221.8100000001:139992084.34999999] [0:114] [0:131] [0:635545.10999999999] [0:3] [0:373] [0:3045138.5899999999] [0:3] [0:334] [0:2564181.1200000001] [0:547] [0:4232657.2999999998] [0:23] [0:17100673.57] [0:13] [0:20010683.510000002] [0:120] [0:60255779.869999997] [0:38827001.25] [0:16] [0:108904971.44] [0:56169993.890000001] [0:52] [0:252574446.31999999] [0:3] [0:5] [0:7] [0:2] [0:6] [0:60] [0:21090935.309999999] [0:393742.08000000002] [0:5] [0:72] [0:2406059.79] [0:93] [0:715814.13] [0:31] [0:645342.08999999997] [0:30] [0:8187540] [0:110] [0:13746500.33] none none none none none none [0:48] [-10504.629999999999:7257.21] [0:1624] [-295966.15999999997:343691.62] [0:15] [0:15] [0:56069.400000000001] [0:8] [0:3934.2399999999998] [0:567] [0:214276355.78] [0:223] [0:125587711.84999999] [0:104] [0:2727225] [0:117] [0:22287003.5] [0:147] [0:24093724.399999999] [0:16] [0:1466250] [0:9] [0:1542648.2] [0:1] [0:99] [0:1] [0:4019] [0:1] [0:33] [0:28] [0:18] [0:155] [0:104] [0:2727225] [0:51] [0:387090] [0:2702] [0:1] [0:1] [0:1] [0:9] [0:89947191.870000005] [-2914209:5084] [-1:146] [-937029.44999999995:5693571.5199999996] [-853697.89000000001:3605774.3900000001] [-745123.56999999995:2474581.5800000001] [-74109.419999999998:2550252.1000000001] [0:27707.549999999999] [985.32000000000005:8896454.2799999993] [0:17595] [0:108] [-3:95] [0:1228193.5] [-2019260.8500000001:395193.13] [0:11127.01] [3:7571] [-74109.419999999998:2550252.1000000001] [0:180] [0:15] [0:2627215.02] [0:1] [0:9] [0:75406981.930000007] [-2914209:5023] [0:147] [-509108.97999999998:2860856.3199999998] [-597709.80000000005:3354720.1099999999] [-722887.72999999998:1103431.45] [-38502.349999999999:2028784.2] [0:12076.030000000001] [1011.71:12633210] [0:131376] [0:1190.5899999999999] [-3:102] [0:1527147.97] [-2058243.96:189297.48000000001] [0:11274.809999999999] [3:12577] [-38502.349999999999:2028784.2] [0:199] [0:21] [0:2199058.29]
tree_sizes=9218 9540 9531 9523 9533 9527 9613 9512 9516 9518 9531 9481 9552 9530 9577 9533 9565 9514 9577 9485 9536 9551 9564 9535 9564 9542 9578 9524 9568 9554 9551 9515 9567 9583 9550 9524 9532 9565 9518 9542 9517 9525 9538 9545 9523 9465 9543 9590 9514 9538 9559 9560 9516 9492 9532 9511 9511 9553 9559 9549 9513 9578 9559 9530 9574 9567 9549 9530 9541 9515 9539 9540 9522 9549 9611 9540 9573 9539 9579 9566 9526 9529 9607 9531 9549 9579 9529 9539 9522 9536 9526 9519 9508 9525 9559 9550 9540

Tree=0
num_leaves=86
num_cat=0
split_feature=107 22 2 107 18 138 33 29 18 52 137 113 22 22 33 149 8 137 18 22 16 135 52 28 18 113 133 32 94 10 8 32 128 16 27 113 27 31 135 18 73 8 113 73 16 18 135 22 33 113 73 27 18 101 107 84 149 135 147 74 10 150 28 113 149 16 149 139 113 22 0 113 8 25 84 113 141 16 0 8 81 74 27 10 106
split_gain=6525.25 2000.66 1128.07 919.843 332.855 299.132 236.34 172.186 167.588 151.786 135.98 122.063 83.0751 73.0141 76.2839 56.4042 41.7555 41.4437 32.1105 31.6039 36.1783 29.2751 24.8162 23.7501 22.4387 19.9554 12.6816 22.8842 12.2537 11.5731 12.8998 10.6106 8.34168 9.44372 7.8004 7.4347 6.79273 10.0155 8.33074 13.4241 6.28296 5.3866 3.20768 2.95263 3.1028 4.2602 3.30924 2.72649 4.0506 5.27889 2.79528 3.23303 2.41154 2.10766 1.68923 1.67838 1.33413 1.16724 1.26863 1.10234 1.34272 0.920945 0.750416 0.654417 2.14261 0.435614 0.422778 1.14137 0.742373 0.408543 0.318115 0.767197 0.233783 0.224955 0.453488 0.219642 0.216677 0.202398 0.16978 0.652887 0.142558 0.312659 0.0813016 0.0810291 0.0802683
threshold=12.500000000000002 -1591.8299999999997 1.0000000180025095e-35 39.500000000000007 9741.1650000000027 6587.6850000000004 38816.320000000007 1.0000000180025095e-35 4521.2100000000009 1.0000000180025095e-35 7131.3150000000014 -1324.4999999999998 1307.7000000000003 23368.205000000005 7448.3350000000009 1181.5000000000002 11952.860000000002 2678.9450000000002 6115.6900000000014 3046.5150000000008 -1.0000000180025095e-35 -958.49999999999989 14207.955000000004 2834.8050000000003 908.08500000000015 -1416.4999999999998 8.0000000000000018 1.0000000180025095e-35 1.0000000180025095e-35 -559.27499999999986 13585.560000000001 1.0000000180025095e-35 709.8850000000001 -1076.4199999999998 2.5000000000000004 -685.49999999999989 7.5000000000000009 797.58000000000004 -1354.9999999999998 38804.125000000007 4.5000000000000009 13585.560000000001 -1263.4999999999998 11.500000000000002 -674.28499999999985 59035.085000000006 -897.49999999999989 12802.555000000002 7448.3350000000009 -1416.4999999999998 10.500000000000002 18.500000000000004 11809.965000000002 1.0000000180025095e-35 81.500000000000014 8.5000000000000018 1350.0000000000002 -2115.4999999999995 -16432.839999999997 790.06000000000006 -819.69499999999982 12881.885 2834.8050000000003 -1416.4999999999998 1887.5000000000002 -112.58499999999999 1523.5000000000002 749.31000000000006 -2054.4999999999995 1307.7000000000003 299552416.00000006 -654.49999999999989 42264.115000000005 38102.490000000013 1.0000000180025095e-35 -289.49999999999994 inf -1.0000000180025095e-35 349935498.50000006 1239.3250000000003 63173.195000000007 176.59500000000003 42.500000000000007 -2546.5049999999997 44632.650000000009
decision_type=2 2 2 2 2 10 2 2 2 2 10 8 2 2 2 10 2 8 2 2 2 10 2 2 2 10 8 2 2 2 2 2 10 2 2 8 2 2 10 2 2 2 10 2 2 2 10 2 2 8 2 2 2 2 2 2 10 10 10 2 2 8 2 8 10 2 10 10 8 2 2 10 2 2 2 8 8 2 2 2 2 2 2 2 2
left_child=1 2 -1 4 5 6 7 -2 11 10 13 -3 15 14 18 -9 19 -13 -5 20 31 24 23 42 25 -7 54 -28 40 -15 -31 32 33 -12 35 -32 37 38 -18 -40 -21 -25 -6 44 -42 46 52 48 49 -38 51 -51 -46 56 55 59 -49 58 -56 62 -61 -54 63 -11 -65 -45 67 68 -59 -64 71 -58 -39 75 -75 82 -24 -29 79 -68 -70 -82 -72 -81 -80
right_child=3 8 -4 9 22 21 -8 12 -10 26 16 17 -14 29 -16 -17 36 -19 -20 28 -22 -23 76 41 -26 -27 27 77 -30 30 34 -33 -34 -35 -36 -37 47 72 39 -41 43 -43 -44 65 45 -47 -48 53 -50 50 -52 -53 61 -55 57 -57 70 66 -60 60 -62 -63 69 64 -66 -67 78 -69 80 -71 73 -73 -74 74 -76 -77 -78 -79 84 83 81 -83 -84 -85 -86
leaf_value=-3.2702007159933184 -4.014545150548015 -4.2618914477311653 -3.9189254043332347 -4.2942563378698528 -4.3770523851617922 -4.4457949114157964 -4.4524414198059734 -4.2847189228850278 -4.3398499927509055 -4.5079976906299795 -4.4553074497511025 -3.9930548972925939 -4.3369072153553869 -4.5004105285982545 -4.4840118355459886 -4.1312091259775912 -4.4923349045472634 -4.1346003134644622 -4.3887272351812925 -4.4536528899376746 -4.3664361849168083 -4.3475972986006992 -4.5108673172677296 -4.4453014714741155 -4.4783921864030827 -4.3474104407610934 -4.411375024838863 -4.5005853399392253 -4.4363740752158121 -4.4004393565580884 -4.4744129466136977 -4.5019042659848232 -4.4777177428736321 -4.3923908050013898 -4.492923813337109 -4.4156963158224851 -4.451107497513406 -4.5108673172677296 -4.4037323767872447 -4.4859403962699673 -4.5108673172677296 -4.491518473813735 -4.4185353135735923 -4.4954443258902019 -4.4621201718530914 -4.5069258728357307 -4.452447894305493 -4.489378763244301 -4.5089711453819055 -4.4999654500187987 -4.5108673172677296 -4.4643649826163028 -4.4809226797341628 -4.4849809586983911 -4.4867654953343274 -4.4842881709591094 -4.491672819080593 -4.4975297416029862 -4.5108673172677296 -4.5061950883205864 -4.4799524066709528 -4.5021334785271749 -4.5020387713466459 -4.4787155442435127 -4.5108673172677296 -4.508506083260035 -4.4957971393992544 -4.4903262630217027 -4.5108673172677296 -4.5108673172677296 -4.5108673172677296 -4.5108673172677296 -4.500732225324799 -4.4955975344053751 -4.5108673172677296 -4.5031879002640398 -4.5007321747147078 -4.5108673172677296 -4.5107486051722283 -4.5057548006801147 -4.5014562074439599 -4.5097698770258443 -4.5060537015480939 -4.5108673172677296 -4.5063329121806248
leaf_weight=11.445606942288579 10.834242753684519 14.468288068659602 20.196756974793971 20.004273701459169 10.143647179007532 12.034256977960466 12.50974033679813 10.619133245199921 17.400432594120502 18.192894835025072 15.034330168738956 10.68707061558962 17.106086051091552 14.977722533047197 13.607878853566943 16.913638030178845 16.90229847561568 11.93237912096083 19.234437132254243 13.687127985060213 15.181509437970815 14.389037020504473 13.007863040082158 11.943688740953805 17.683450196869671 10.539884231984617 10.49459796678275 10.154963913373651 14.717343152500687 11.81915956456214 11.456883564591406 11.649339937604962 14.173930787481366 11.456886729225522 14.547524087131022 12.068221423774959 10.483275467529891 15.58905779477209 11.207822944037618 10.471953421831129 11.015361825935541 16.189073495566845 10.177608911879359 10.154964139685033 10.70969606190919 13.245604888536034 14.29846381116659 12.147465351969002 27.532744276337326 14.366387274116279 14.717338513582943 13.472027743235229 10.460632504895338 14.117325186729429 12.996543254703285 11.785193084739147 10.879510262049736 15.656984650529919 10.981398737058042 11.173856467008592 10.13232264574617 11.955007623881093 17.74005376175046 11.366315214894714 11.230461388826368 22.109971085563302 10.392705761827527 10.166285282000898 85.858688682317734 73.360271975398064 80.866114617325366 11.864439047873018 10.302137298509477 10.256853406317534 10.970077707432209 13.596557033248244 10.302137412130831 10.732336085289715 439.77671707142144 10.211568948812781 16.641913888044655 47.570966600440443 10.845546494238077 48.952132102102041 11.51348735578358
leaf_count=1011 957 1278 1784 1767 896 1063 1105 938 1537 1607 1328 944 1511 1323 1202 1494 1493 1054 1699 1209 1341 1271 1149 1055 1562 931 927 897 1300 1044 1012 1029 1252 1012 1285 1066 926 1377 990 925 973 1430 899 897 946 1170 1263 1073 2432 1269 1300 1190 924 1247 1148 1041 961 1383 970 987 895 1056 1567 1004 992 1953 918 898 7584 6480 7143 1048 910 906 969 1201 910 948 38846 902 1470 4202 958 4324 1017
internal_value=-4.45806 -4.01444 -3.68427 -4.47989 -4.37283 -4.32057 -4.24746 -4.20124 -4.20618 -4.49328 -4.47373 -4.14347 -4.24655 -4.42306 -4.3775 -4.19042 -4.48519 -4.06772 -4.34057 -4.46646 -4.43739 -4.41151 -4.46213 -4.44083 -4.43436 -4.39986 -4.50688 -4.47427 -4.48128 -4.46017 -4.44808 -4.45798 -4.44539 -4.4281 -4.46287 -4.44429 -4.49686 -4.48172 -4.46486 -4.44344 -4.4869 -4.4719 -4.39783 -4.49128 -4.48538 -4.48075 -4.47344 -4.50068 -4.49272 -4.48429 -4.49247 -4.48274 -4.4825 -4.50432 -4.50804 -4.50327 -4.50602 -4.50913 -4.4978 -4.50473 -4.49372 -4.49224 -4.50651 -4.50063 -4.49469 -4.5044 -4.50952 -4.50731 -4.50835 -4.50915 -4.50737 -4.50169 -4.50683 -4.50839 -4.50349 -4.50938 -4.50639 -4.50587 -4.51027 -4.50787 -4.50948 -4.50762 -4.5103 -4.50998 -4.51064
internal_weight=1835.76 86.1305 31.6424 1749.63 194.393 122.629 67.9828 55.4731 54.4882 1555.24 638.155 37.0877 44.6389 117.716 52.8466 27.5328 520.439 22.6194 39.2387 199.85 67.496 54.6466 71.764 48.454 40.2576 22.5741 917.083 31.3819 132.354 64.8695 49.8918 52.3145 40.6651 26.4912 38.0726 23.5251 320.589 64.4733 38.5821 21.6798 117.637 28.1328 20.3213 103.95 71.6848 60.6694 47.4238 256.116 80.5718 53.039 42.5558 27.8384 33.1253 175.544 885.701 164.981 161.427 720.719 23.9779 153.196 21.3062 22.4156 131.89 40.7897 22.5968 32.2649 696.741 175.895 165.729 91.1003 149.279 22.7439 25.8912 126.535 21.2269 105.308 23.31 20.8873 520.847 69.5564 150.072 64.2129 91.7117 59.1637 451.29
internal_count=162155 7608 2795 154547 17171 10832 6005 4900 4813 137376 56369 3276 3943 10398 4668 2432 45971 1998 3466 17653 5962 4827 6339 4280 3556 1994 81007 2772 11691 5730 4407 4621 3592 2340 3363 2078 28318 5695 3408 1915 10391 2485 1795 9182 6332 5359 4189 22623 7117 4685 3759 2459 2926 15506 78235 14573 14259 63662 2118 13532 1882 1980 11650 3603 1996 2850 61544 15537 14639 8047 13186 2009 2287 11177 1875 9302 2059 1845 46007 6144 13256 5672 8101 5226 39863
is_linear=0
shrinkage=1


Tree=1
num_leaves=86
num_cat=0
split_feature=138 51 33 21 25 51 138 111 8 8 8 8 116 55 25 112 8 25 127 127 147 147 8 7 4 5 5 72 63 8 7 95 33 33 140 25 131 97 133 32 74 25 72 5 8 147 7 147 147 31 8 7 74 127 135 83 82 82 97 127 112 131 7 135 63 74 127 5 51 135 127 97 147 141 112 83 33 97 7 141 140 147 25 25 151
split_gain=1937.51 1756.38 729.656 779.469 390.96 292.014 242.567 236.732 97.1469 89.7226 87.3599 80.3202 47.0096 49.9183 46.7334 41.5456 34.563 30.3844 25.0069 37.8845 19.4912 19.1172 28.3351 24.2516 18.5828 15.8234 14.8397 12.4257 11.3332 10.8726 9.53661 8.04982 7.9754 7.93743 10.3207 8.085 6.25781 5.61962 5.25352 15.2917 5.10982 4.27101 5.03275 6.08956 4.18089 3.87377 3.49802 3.09345 2.98296 2.51863 2.46479 1.94134 1.88854 1.29039 1.13101 1.09433 0.991328 0.87187 1.21164 1.93917 0.846695 0.725877 0.765958 1.10272 1.56704 0.45491 0.442925 0.469495 1.01592 0.666737 0.335044 0.523226 1.39854 0.640757 0.273048 0.255258 0.222112 0.0971466 0.270598 0.0757816 0.0691684 0.0644127 4.20686e-06 4.19353e-07 4.13312e-07
threshold=1320.2300000000002 1.0000000180025095e-35 23465.470000000005 1.0000000180025095e-35 1.0000000180025095e-35 1.0000000180025095e-35 8294.9250000000011 8.0000000000000018 15235.195000000002 11952.860000000002 25892.340000000004 11952.860000000002 718.37000000000012 1.0000000180025095e-35 4868.3750000000009 228031.20000000004 2511.8950000000009 4868.3750000000009 2755.5000000000005 1026.5000000000002 -2718.1999999999994 -11566.219999999999 2511.8950000000009 -450.16499999999991 1.0000000180025095e-35 44.500000000000007 61.500000000000007 1317.6950000000002 1.0000000180025095e-35 2511.8950000000009 2398.2800000000007 1.0000000180025095e-35 86866.595000000016 7448.3350000000009 12881.885 5864.9150000000009 123.16500000000001 19.500000000000004 8.0000000000000018 1.0000000180025095e-35 543.86500000000012 6909.1500000000005 1.0000000180025095e-35 51.500000000000007 23278.550000000007 -22198.674999999996 -192.53999999999999 -65365.494999999988 -26878.544999999995 1834.6750000000004 18908.740000000002 1685.5150000000001 1028.6200000000001 2992.5000000000005 -2115.4999999999995 13093.030000000002 2.5000000000000004 2.5000000000000004 6.5000000000000009 592.50000000000011 69676.200000000012 41.055000000000007 4440.7600000000011 -1079.9999999999998 4.5000000000000009 1.0000000180025095e-35 143.50000000000003 59.500000000000007 2.5000000000000004 -623.99999999999989 1404.5000000000002 35.500000000000007 -5700.4749999999995 6.5700000000000012 69676.200000000012 35484.115000000013 129050.39000000001 1.0000000180025095e-35 -192.53999999999999 19.930000000000003 6364.0850000000009 -2718.1999999999994 10416.230000000001 1.0000000180025095e-35 6.5000000000000009
decision_type=10 2 2 2 2 2 10 8 2 2 2 2 10 2 2 8 2 2 10 10 10 10 2 2 2 2 2 2 2 2 2 2 2 2 10 2 10 2 8 2 2 2 2 2 2 10 2 10 10 2 2 2 2 8 10 2 2 2 2 8 10 10 2 10 2 2 8 2 2 10 10 2 10 10 8 2 2 2 2 10 8 10 2 2 10
left_child=1 2 3 -1 7 6 8 10 14 -6 16 12 13 17 15 25 -5 21 19 -18 37 22 23 -8 28 -2 38 54 33 52 -11 41 -4 34 35 36 44 -10 57 -40 -30 42 43 -14 -13 -31 -44 49 -19 -36 -49 -34 -15 -52 55 -7 -43 58 65 -60 -35 62 63 75 -65 -3 -56 70 69 -69 71 77 73 74 -73 -42 -41 78 -68 -63 -67 -72 -82 -79 -62
right_child=5 26 32 4 9 27 11 -9 20 30 -12 24 31 29 -16 -17 18 48 -20 -21 -22 -23 -24 -25 -26 -27 -28 -29 40 45 -32 -33 51 60 47 -37 -38 -39 39 76 61 56 46 -45 -46 -47 -48 50 -50 -51 53 -53 -54 -55 66 -57 -58 -59 59 -61 84 79 -64 64 -66 80 67 68 -70 -71 81 72 -74 -75 -76 -77 -78 83 -80 -81 82 -83 -84 -85 -86
leaf_value=0.53525353366207751 0.14692744755017359 -0.040511360849590325 0.026520821281064609 0.17773532511279747 0.15962561228929284 -0.049031541390874962 0.044894679921292938 0.374323949287243 -0.022861928232303024 0.04095170447132971 0.094495912658649747 0.0078611055903018024 -0.02150611323809553 -0.024717208595187296 0.034310614212034005 0.21431313916200234 0.22842287695165039 -0.022976962302462055 0.19425992955378357 0.33048281517391831 0.065223511283930613 0.11791449225864936 0.004348612293649635 0.14151133736239616 0.023714991864328083 0.067454125302452358 0.0208423648077911 -0.0017070786530634131 -0.019370214306384682 -0.010692691289205919 -0.019827380866443964 0.016791548389109567 -0.0060291155038580515 -0.035939721611705097 0.0047475329703779937 -0.03358317559086426 -0.018505010923731493 0.017444544558810789 0.025999236782189176 -0.042076348680056205 -0.052789546637337315 -0.033050413668560728 -0.052805151778356367 0.026604670950360624 0.053387428435947591 0.033017443395745416 -0.014873957627325279 -0.019115767574001574 0.015542753206516579 -0.032195357994567728 -0.033479116212537616 -0.033988642504153718 -0.052806573244091631 -0.052792151145544246 -0.04224415417905019 -0.026281109887438026 -0.052792700585989553 -0.052787692029623863 -0.017593905029159758 -0.044519542205410476 -0.052796635710078407 -0.052784193715420182 -0.052787941688394652 -0.023537311209794048 -0.04845207815335386 -0.047535828453483385 -0.042498272609515692 -0.052783117677085691 -0.031718054747340602 -0.038290678210080233 -0.05278047547550628 -0.044176765144407923 -0.030092681401110117 -0.037226182501760671 -0.052781100484268581 -0.042291861711375195 -0.05278643146409339 -0.052791857693195499 -0.052785291721416709 -0.048102939219010508 -0.052834740007544033 -0.049291390900641663 -0.052788348991441886 -0.052781293936777711 -0.052782715004096731
leaf_weight=21.021829836070538 13.060652659274639 16.931238571181893 15.740587229840456 25.323010415770113 17.932386408559978 13.889510032720866 17.093912705779076 29.903988153673708 19.145211637951434 13.912218959070744 15.922581151127813 11.182762517593803 20.009164941497151 13.008182418532671 14.375447348691521 14.649424904957412 22.777365191839635 10.50163653958589 15.197351026348768 17.550539246760309 16.355291170068085 15.893563179299234 20.086869702674448 12.087567931972446 14.997344720177351 14.308167652226983 12.047309463843701 14.306697965599595 18.746569413691759 11.156966138631107 14.235294815152882 13.499123387038706 13.345976052805783 12.384368815459309 9.98042672686279 13.589329157955943 10.652845497243105 18.573259881697595 11.916481599211691 9.7414273247122782 17.277595750056207 13.219702793285252 14.248949634842576 11.174814175814388 10.81421303283423 10.948790257796643 12.386207853443919 13.948970146477221 11.456801122054456 10.139513514004646 16.216617584228516 13.732738922350107 13.085987657308577 22.526362608186901 14.854138072580097 9.8482030136510712 14.574373592622576 29.247894050553441 11.859734610654415 18.918921018019319 10.284303192980589 60.853967475704849 23.080778129398823 16.060156160965569 12.03691736422479 9.9270319985225814 10.149106634780763 43.401926953345537 9.9136801389977318 10.805919982492922 405.26704346202314 12.135129259899257 11.503675492480395 10.066829702816902 58.548379523679614 9.9475635634735209 11.516545722261069 11.300782108679412 22.243134185671806 11.152088834904132 10.275400433689358 14.952730221673844 11.063912891782818 109.30469169281423 13.369726284407077
leaf_count=1207 990 1446 1104 1595 1409 1271 1459 1569 1601 1150 1146 971 1764 1151 1202 1080 1198 938 1025 1063 1334 1294 1729 1023 1272 1073 1054 1304 1718 994 1218 1173 982 1120 909 1239 952 1615 985 889 1581 1197 1274 982 950 968 1101 1257 1015 926 1472 1002 1166 2054 1364 905 1327 2688 1060 1721 932 5616 2117 1461 1102 904 935 4015 918 998 37634 1126 1063 929 5431 912 1060 1033 2051 1029 891 1384 1015 10136 1237
internal_value=-0.000629243 0.102784 0.192001 0.235098 0.198573 -0.0281314 -0.00321839 0.24594 0.0676214 0.0683584 0.206267 -0.0168594 0.00663934 0.0266465 0.115561 0.143359 0.22828 0.0502312 0.251332 0.272839 0.0176251 0.0681285 0.052068 0.0849153 -0.0330981 0.10538 -0.0347776 -0.0499132 -0.0357259 -0.0159824 0.0102134 -0.0206769 -0.0030306 -0.0255327 -0.0190346 0.000254072 0.0143376 -0.00301429 -0.0395165 -0.0213412 -0.0450715 -0.0265847 -0.0185002 -0.00426556 0.0302429 0.0109566 -0.0351659 -0.0312839 -0.00287932 -0.01387 -0.0379333 -0.0202086 -0.0388038 -0.0447083 -0.0508109 -0.0395929 -0.0434027 -0.0450878 -0.0422363 -0.0341445 -0.0469987 -0.0482748 -0.0447992 -0.0414662 -0.0342109 -0.0474036 -0.0511686 -0.0513503 -0.047084 -0.0498942 -0.0517614 -0.0502281 -0.0471228 -0.0495489 -0.0513039 -0.0489539 -0.0478786 -0.0521005 -0.0495622 -0.0520592 -0.0511359 -0.0526563 -0.0528107 -0.0527823 -0.0527888
internal_weight=1856.68 390.042 236.596 193.777 172.755 1466.63 684.142 126.675 110.467 46.0799 96.7708 573.675 234.433 135.32 56.3937 42.0182 80.8483 87.1204 55.5253 40.3279 54.0738 65.1619 49.2684 29.1815 339.242 27.3688 153.446 782.492 324.245 48.1999 28.1475 99.1123 42.8193 155.089 119.051 46.2392 32.6498 37.7185 141.399 33.1745 169.156 85.6132 57.8191 31.184 21.997 22.1058 26.6352 72.8119 21.9584 20.1199 52.692 27.0787 26.0942 38.743 768.185 23.7377 27.7941 108.224 78.9762 30.7787 36.0384 150.409 78.403 55.3222 28.0971 48.1976 744.447 729.593 64.1215 54.2078 665.472 245.252 92.254 80.7503 70.6835 27.2252 21.258 152.998 32.3922 72.0061 31.2663 420.22 21.3393 120.605 23.654
internal_count=162155 29381 15668 12580 11373 132774 60277 7596 8895 3777 6027 51382 20555 11737 4345 3143 4881 7458 3286 2261 4550 5505 4211 2482 30827 2063 13713 72497 29555 4279 2368 8818 3088 14019 10730 4112 2873 3216 12659 2934 15536 7645 5121 2746 1921 1962 2375 6618 1953 1835 4783 1984 2317 3526 71193 2176 2524 9725 7037 2781 3289 13818 7173 5056 2563 4256 69017 67653 5931 5013 61722 22704 8549 7486 6557 2493 1949 14155 2986 6645 2810 39018 1906 11169 2169
is_linear=0
shrinkage=0.0522058


Tree=2
num_leaves=86
num_cat=0
split_feature=107 16 33 107 12 18 18 149 0 10 33 107 8 147 113 18 33 18 112 28 18 135 28 151 71 8 7 135 96 18 16 55 107 141 10 8 147 0 85 135 33 107 18 28 10 112 147 140 103 125 28 140 81 28 0 140 18 31 57 16 8 8 31 128 81 149 112 28 113 113 71 107 8 0 112 17 0 81 128 151 135 128 78 147 149
split_gain=3035.92 409.886 406.96 289.098 159.554 90.6813 83.2529 65.9934 60.0258 52.0755 60.7268 51.9877 46.9758 54.9657 42.7903 32.6311 25.8094 25.4662 21.1976 23.2561 21.7231 19.7632 18.5654 17.4291 17.407 17.048 14.3065 11.3978 10.6724 8.3642 13.9575 14.2666 8.28784 8.12588 6.61074 5.55153 4.87738 4.75153 3.5684 5.83731 3.4027 3.30781 3.18155 2.68982 2.55832 2.39341 4.62444 2.32843 2.31485 2.00037 1.96211 1.95913 1.95516 3.03689 2.35512 4.09347 2.24917 4.1319 5.03209 4.58594 1.92399 1.49156 1.47731 1.39403 1.32945 1.38067 2.18419 1.22477 1.07792 1.09199 0.997248 1.72488 0.996846 0.910618 0.810705 0.804729 0.699974 0.648469 1.05854 0.538942 0.503667 0.320436 0.366862 0.287508 0.287026
threshold=22.500000000000004 -112.58499999999999 7448.3350000000009 47.500000000000007 5.5000000000000009 9741.1650000000027 1895.5150000000001 631.50000000000011 837991083.00000012 -169.58999999999997 11010.535000000002 81.500000000000014 17008.150000000005 -10056.034999999998 -1263.4999999999998 19449.565000000002 7448.3350000000009 11809.965000000002 95013.000000000015 7234.7500000000009 1895.5150000000001 -1781.4999999999998 1285.2850000000001 2.5000000000000004 1.0000000180025095e-35 6271.4000000000005 513.79500000000007 -1597.4999999999998 1.0000000180025095e-35 7839.0700000000006 -238.95499999999996 1.0000000180025095e-35 111.50000000000001 1.0100000000000002 -169.58999999999997 2511.8950000000009 -1187.0349999999996 619997872.50000012 11788.650000000001 -1140.9999999999998 1.0000000180025095e-35 61.500000000000007 237.57000000000002 16331.645000000002 -977.75999999999988 555974.72000000009 -22198.674999999996 11267.455000000002 1.5000000000000002 -79768.289999999994 23956.515000000003 6364.0850000000009 11730.230000000001 10085.770000000002 698037119.00000012 2065.6300000000006 34018.580000000009 797.58000000000004 3.5000000000000004 -24.124999999999996 13585.560000000001 18908.740000000002 32237.225000000002 39203.070000000007 15388.655000000001 4000.5000000000005 190026.00000000003 5798.2300000000005 -470.99999999999994 -1475.4999999999998 1.0000000180025095e-35 137.50000000000003 1.0000000180025095e-35 939273466.50000012 190026.00000000003 2.5000000000000004 324833201.50000006 57716.975000000006 595.56000000000006 32.500000000000007 -1354.9999999999998 15426.240000000002 1.0000000180025095e-35 -10056.034999999998 962.50000000000011
decision_type=2 2 2 2 2 2 2 8 2 2 2 2 2 10 8 2 2 2 8 2 2 8 2 10 2 2 2 10 2 2 2 2 2 8 2 2 10 2 2 8 2 2 2 2 2 8 8 10 2 8 2 8 2 2 2 10 2 2 2 2 2 2 2 10 2 8 10 2 8 10 2 2 2 2 8 2 2 2 10 10 8 10 2 10 10
left_child=1 2 4 5 -1 9 21 -6 -9 23 12 15 13 -11 -8 16 18 -16 37 26 -21 -3 24 -2 35 -25 -20 -23 61 30 40 32 -32 34 51 -13 45 -5 39 -37 42 -39 -24 -44 -22 64 -47 -46 49 -31 -33 -30 76 54 74 -56 57 58 68 -60 -18 -7 77 -64 83 66 67 -66 69 -55 75 -72 -45 -59 -54 79 -51 78 -58 -50 -40 82 -78 -17 -79
right_child=3 6 -4 11 7 28 14 8 -10 10 -12 22 -14 -15 17 36 60 -19 19 20 44 27 29 25 -26 -27 -28 -29 33 48 31 50 -34 -35 -36 38 -38 41 80 -41 -42 -43 43 72 47 46 -48 -49 70 52 -52 -53 53 56 55 -57 62 73 59 -61 -62 -63 63 -65 65 -67 -68 -69 -70 -71 71 -73 -74 -75 -76 -77 81 84 -80 -81 -82 -83 -84 -85 -86
leaf_value=0.36105182116335766 -0.019422471349974272 0.095230406215342581 0.026585999038784825 0.0094299420015079832 0.1547234590757634 -0.02857828383758973 -0.00032173961356412505 0.20623868669352327 0.31486546171700158 0.087189933457918006 -0.0069632656209116153 0.0035167602227057469 0.044858815138630666 0.21043079394191108 0.12625759420118021 -0.051044944856379185 -0.025992093472777804 0.04403060473994317 0.031363409397899403 0.053492794924213015 -0.030837247351545582 0.19206299843324978 -0.013988983952953326 0.075599028245487698 0.026438905645910896 -0.006926498107488928 0.11139942147539789 0.13420756396091132 -0.048068400800828158 -0.022712778097228492 0.053951144366312223 -0.022010425862536518 -0.0070558010325525635 0.028187104153175501 0.011470126045504202 -0.044947298478498106 -0.0021404069108056601 -0.0090881286032976263 -0.040469701046883633 0.00572606185488286 -0.051071297524799858 -0.042117197497627157 -0.020930073211993763 -0.036336490180980105 -0.02112058596726564 -0.052772730293175203 -0.0077988602289470275 0.014535649844664456 -0.051870165582532116 -0.039072139238098658 -0.052775335975265562 -0.016122103078985435 -0.052780353626712136 -0.031226402594356759 -0.037447581856194005 0.0056755244844759328 -0.048781896827891053 -0.051637419722662267 -0.036663329177523837 0.010596174084523336 -0.05025982302198212 -0.052807084969531876 -0.01945889135869976 -0.047502571497378833 -0.025504015817408725 -0.047636760084443286 -0.013522164497497546 -0.047174175832627209 -0.02514197798026719 -0.052768011496942095 -0.027179817319918045 -0.049257894225267038 -0.05277206634143855 -0.0375627273918284 -0.031940808455969263 -0.03883813375705146 -0.052759877708195492 -0.042267955169969521 -0.029677343703881458 -0.041137661005124546 -0.052800877690366323 -0.041783459168073925 -0.042211900865969987 -0.042148513063829288 -0.051486606333463719
leaf_weight=34.807554972358048 21.818857586942613 16.191466595046222 22.869406010955572 12.579325094819067 24.011719944886863 17.229334892705086 23.812687286175787 28.928037196397781 26.625074834562838 22.706922587938603 15.915316692553459 11.123611412942408 21.336307638324797 17.437625115737323 21.826775019988418 30.171987759880722 15.587456161156295 19.379806961864233 13.013863389380278 18.659625286236405 16.63922876957804 19.362588528543711 16.14525032043457 17.065947527997199 18.422380745410919 11.366068286821244 11.435816820710896 17.823069967329502 11.015138780698178 12.160777131095529 10.268886342644693 10.173620050773026 14.839155607856808 19.326248934492469 16.239472975954413 13.311423769220708 11.337275106459854 14.322181697003542 16.972538790665567 11.590333538129928 61.816312462091446 19.536400306038558 14.745271371677516 15.880619852803646 9.8874192172661441 9.7080415338277799 17.399232602678243 10.080352917313574 235.96508655045182 15.252390689216552 12.706853009760378 9.9650344531983155 10.337634163908662 9.6953577017411572 13.626824795268478 10.718287669122217 26.251120519824326 46.317608196288347 9.7248481996357459 13.181169893592594 20.765937048010528 11.578722421079872 9.4065303290262836 9.9319025166332704 11.480817848816516 20.305073660798371 13.2985442886129 18.664473639801145 9.4488354083150607 18.947308524511758 14.274604313075541 29.732874379493296 27.42935287207365 17.173677569255233 10.018269261345266 14.995441333390771 97.016755073331296 9.9490854609757644 11.309923771768807 13.480461688712237 19.28532537445426 9.5114252008497697 9.9041572930291277 14.735753673128782 123.08082553371787
leaf_count=1050 1700 1018 1308 1106 946 1529 1794 1340 1163 1561 1316 1015 1530 1182 1373 2843 1443 1453 1075 1627 1507 1039 1481 1369 1468 950 866 973 988 1164 915 925 1362 1644 1422 1231 1039 1249 1606 1025 5951 1761 1354 1497 895 916 1577 923 22915 1461 1194 908 965 927 1289 1011 2531 4429 924 1239 1956 1041 907 958 1062 1899 1245 1775 899 1802 1329 2820 2590 1648 928 1435 9351 954 1094 1307 1761 915 963 1384 11870
internal_value=-0.000891915 0.166228 0.227627 -0.0274483 0.267826 0.0292029 0.0950551 0.227042 0.258301 0.0570573 0.0839257 -0.0360937 0.107454 0.140722 0.0553903 -0.0172225 -0.00109751 0.0875855 0.0100709 0.0264042 0.00764917 0.143371 -0.0414731 0.0156747 -0.0188623 0.0426084 0.0687985 0.164333 -0.0124533 -0.0435335 -0.0334843 -0.0092776 0.0178953 0.000722995 -0.0135377 -0.0304079 -0.0350363 -0.0179672 -0.0365781 -0.0213618 -0.0420247 -0.0281459 -0.034488 -0.0401888 -0.0157186 -0.0377833 -0.0239055 -0.00312021 -0.0458124 -0.0436288 -0.039096 -0.0328947 -0.044147 -0.0421517 -0.0294194 -0.018462 -0.0439619 -0.038508 -0.0288045 -0.00946805 -0.0398544 -0.0383165 -0.0475366 -0.0338617 -0.0412455 -0.0363988 -0.0311463 -0.0389211 -0.0404323 -0.0454763 -0.0493731 -0.0420965 -0.0467456 -0.0478304 -0.0425241 -0.0505841 -0.0495884 -0.0490868 -0.0430294 -0.0512902 -0.0470286 -0.050966 -0.0517828 -0.0481257 -0.0507972
internal_weight=1864.37 255.638 137.242 1608.73 114.372 213.001 118.396 79.5648 55.5531 127.647 77.3962 1395.73 61.4809 40.1445 65.0193 309.609 162.508 41.2066 126.154 79.7163 55.2666 53.3771 1086.12 50.2509 90.7056 28.432 24.4497 37.1857 85.354 995.419 184.005 47.9885 25.108 56.5459 37.2196 72.2832 147.101 46.4379 61.1596 24.9018 136.017 33.8586 74.2005 58.0552 36.607 135.764 27.1073 19.9678 811.413 502.965 22.8805 20.9802 490.804 359.119 44.701 24.3451 314.418 124.489 60.9975 22.906 36.3534 28.8081 189.929 19.3384 108.657 63.7489 43.4438 30.1453 38.0915 28.6427 308.448 44.0075 43.31 63.4913 20.3559 264.441 131.685 170.591 37.561 249.446 36.2579 116.432 106.921 44.9077 133.03
internal_count=162155 13457 5807 148698 4499 17140 7650 3449 2503 9608 5589 131558 4273 2743 4620 28148 14408 2826 11009 6893 4952 3030 103410 4019 8106 2319 1941 2012 7532 95304 17269 4396 2277 4962 3318 6638 13740 4116 5623 2256 12873 3010 6922 5441 3325 12701 2493 1818 78035 48229 2119 1896 47065 34375 4193 2300 30182 11868 5791 2163 3399 2570 18314 1865 10208 5981 4082 2837 3628 2729 29806 4149 4087 6077 1893 25657 12690 16449 3625 24222 3367 11229 10314 4227 12824
is_linear=0
shrinkage=0.0522058


Tree=3
num_leaves=86
num_cat=0
split_feature=11 51 33 28 51 28 21 10 16 97 8 8 11 22 134 109 134 22 16 28 134 16 16 28 28 29 151 33 26 52 118 118 94 83 147 83 10 10 25 7 97 16 64 151 118 22 71 71 25 132 151 152 112 22 131 57 151 8 9 23 24 23 116 116 10 10 25 52 11 103 134 28 28 83 97 82 97 27 101 151 97 106 147 151 51
split_gain=1702.1 730.117 401.662 397.701 205.136 140.17 118.867 82.7469 74.2428 102.617 70.6172 57.4901 46.0901 42.5292 49.9686 22.1653 20.4407 20.2654 25.1397 19.7271 18.7208 18.4472 17.3524 14.9918 14.186 12.7931 12.1748 11.6544 11.0125 10.7224 10.6327 10.3355 8.61449 9.35119 8.1557 7.43996 7.08713 6.21211 6.10769 5.87737 5.49016 4.89352 3.92673 3.35793 2.6493 3.26526 3.38054 2.63607 2.35828 2.05329 1.81116 1.68385 1.93233 2.07703 1.65826 2.24353 2.53745 1.22949 1.16318 1.16091 1.10171 1.19341 1.04137 0.721377 0.926347 0.870641 0.655644 0.568679 1.03892 0.460675 0.788637 0.433154 0.312691 0.964451 0.28101 0.579215 0.113324 0.746489 0.103194 0.305082 0.0768431 0.0751292 0.0752963 0.350502 0.0945739
threshold=114.23500000000001 1.0000000180025095e-35 11010.535000000002 1285.2850000000001 1.0000000180025095e-35 1285.2850000000001 1.0000000180025095e-35 -343.64999999999992 -12884.094999999999 8.5000000000000018 13585.560000000001 11952.860000000002 475.61000000000007 38058.505000000005 129323.25000000001 1.0000000180025095e-35 80233.200000000012 1307.7000000000003 -112.58499999999999 10085.770000000002 426548.98000000004 -24.124999999999996 -1076.4199999999998 4363.0950000000012 5798.2300000000005 1.0000000180025095e-35 5.5000000000000009 57171.600000000013 1.0000000180025095e-35 14207.955000000004 13160.995000000001 1.0000000180025095e-35 1.0000000180025095e-35 2346.5850000000005 -10056.034999999998 20140.995000000006 -1570.4349999999997 -1152.135 739.22000000000014 2125.6700000000005 35.500000000000007 -412.50499999999994 2613.5200000000004 13.500000000000002 51239.560000000005 300.46000000000004 1.0000000180025095e-35 1.0000000180025095e-35 5864.9150000000009 1.0000000180025095e-35 17.500000000000004 2.5000000000000004 139352.40000000002 68028.110000000015 920.80500000000018 4.5000000000000009 6.5000000000000009 8969.5600000000013 414.69000000000011 1.5000000000000002 1.0000000180025095e-35 1.5000000000000002 120682.47500000002 4044.5800000000004 1.0000000180025095e-35 221.04500000000004 16091.180000000002 25663.850000000002 422.16500000000008 8.5000000000000018 187210.80000000002 26165.750000000004 2834.8050000000003 22875.405000000002 44.500000000000007 2.5000000000000004 1.0000000180025095e-35 4.5000000000000009 1.0000000180025095e-35 13.500000000000002 66.500000000000014 44632.650000000009 -49855.239999999991 5.5000000000000009 2.5000000000000004
decision_type=2 2 2 2 2 2 2 2 2 2 2 2 2 2 10 2 10 2 2 2 10 2 2 2 2 2 10 2 2 2 8 10 2 2 10 2 2 2 2 2 2 2 2 10 8 2 2 2 2 8 10 8 8 2 10 2 10 2 2 2 2 2 8 8 2 2 2 2 2 2 10 2 2 2 2 2 2 2 2 10 2 2 10 10 2
left_child=1 2 3 6 5 13 -1 31 -8 15 12 21 16 14 25 22 -7 18 26 20 39 -9 -10 27 -13 -2 -18 -4 -6 -3 -19 37 33 36 40 38 43 -5 -15 -12 -32 -29 44 -14 54 -46 -47 51 -49 63 57 67 -53 -54 55 56 -21 71 -44 -41 -48 -62 74 64 66 -66 -31 68 -30 72 -71 -35 73 -69 75 -60 77 -74 81 -80 -56 82 83 -78 -85
right_child=4 29 23 7 28 10 8 11 9 -11 19 24 32 35 -16 -17 17 30 -20 42 -22 -23 -24 -25 -26 -27 -28 41 47 49 34 -33 -34 50 -36 -37 -38 -39 -40 59 -42 -43 58 -45 45 46 60 48 -50 -51 -52 52 53 -55 80 -57 -58 -59 62 -61 61 -63 -64 -65 65 -67 -68 69 -70 70 -72 -73 76 -75 -76 -77 78 -79 79 -81 -82 -83 -84 84 -86
leaf_value=0.2794750854386075 0.078577571133086221 0.0069541019982284355 0.049335442217854672 0.0014220366830426448 -0.0096693149960671437 -0.021832470757385591 0.25064453961099681 0.11209443862978251 0.14247237916857372 0.25048235709475974 -0.001670454103748605 0.088315264893498419 -0.035889285341117655 0.052060070632580356 0.1562180139897216 0.17612353664727565 0.078055534881865521 -0.014740250300022734 0.13072560170395622 -0.042073423989391151 0.048292658401129153 0.18429040482548287 0.095170561617379593 -0.04634698551287298 0.015603987302459521 0.012662679003121353 0.0036344517616345904 0.012794627713753701 -0.032653657329006019 -0.052806285085025897 -0.0031061317856270793 -0.031835099401636154 0.019115058632779888 -0.040483430739678999 0.069943443778527223 -0.018626432897010506 0.019150654926779909 0.048752893327237291 0.0035302729618534403 -0.030316345741838519 0.046268596508699175 -0.029929074956823745 -0.029443664127931053 0.00085482053632356158 -0.0069823718870522435 -0.013127700440689906 -0.050205116264686309 -0.014566616746924565 -0.048288972398170107 -0.024102596031488878 -0.022316268291214605 -0.050889315054172199 -0.016089602093403533 -0.045237617143368623 -0.052759469162350955 -0.052748560979491987 -0.004384937460742552 -0.027362384430126948 -0.052741641345920159 -0.052808197780634357 -0.044081088487160372 -0.019211835787636796 -0.033732126912291792 -0.052752629068788776 -0.022913054292191228 -0.043706377760840701 -0.0364273960502495 -0.052747406292480509 -0.05073359497894557 -0.052730031513379003 -0.037256091229121366 -0.052764844188152187 -0.036443286242213713 -0.034205228123838624 -0.052735857498153453 -0.039435985023814707 -0.041411130650368617 -0.052730361391432168 -0.052728945228334968 -0.041082647740936756 -0.047068965415015512 -0.048059011250652879 -0.052729131195398085 -0.052727604440451062 -0.047180443009941855
leaf_weight=32.774314340204 16.219410753808916 13.956419153138993 15.254585141316054 15.360339428298174 19.370853148400784 18.510103124193847 26.31460377946496 23.686077180318534 45.270464264787734 24.909803015179932 20.403702978044748 12.54832081217319 18.483098207041625 14.40210906788707 17.208827771246433 25.221729586832225 11.154496060684325 17.826566097326577 11.938547732308505 9.7609706716612035 12.90815811511129 16.272775343619287 39.649158184416592 16.178199148736894 17.5280422847718 15.884081056341527 12.942530842497943 15.85068640206009 12.981348163448272 21.737451978027824 14.698354040272536 12.432221663184462 14.514136644080279 12.716142097488044 11.897454306483267 13.702494969591497 18.122767263092101 14.878014746122064 13.879589143209158 16.25242119841278 10.538507331162689 13.555240305140616 8.9581979215145093 10.70412608142942 15.948443207889794 15.806943695060907 20.267832012847066 10.929214893840255 11.705108779482542 14.545638727955518 15.432317089289425 27.950584248639643 12.810374872758986 13.884323643520473 21.811924620531503 11.022352796047924 9.7141184667125327 10.267835281789301 20.635489039123058 10.16684401873499 12.037939599715175 9.3387973234057409 10.983244435861705 25.119183972477913 10.469895688816907 11.534299569204448 9.6038197176530939 23.790547044016421 26.033980841748416 19.182013832032681 16.872373037971556 20.355641527101398 9.6124612716957909 11.265643753111361 64.292160104960203 15.701328700408338 9.2252729684114438 37.946551251225173 19.381154562346641 8.9662709869444353 9.1936014257371408 11.179038549773393 367.34119381662458 76.450699551030993 9.4073276016861183
leaf_count=832 925 1169 862 1185 1788 1568 688 1437 1235 1264 1761 783 1618 947 1120 1146 844 1595 898 930 1141 1012 1733 1482 1417 1080 1118 1094 1258 1995 1272 1097 1268 1159 915 1072 1539 1087 1120 1475 943 924 871 980 1452 1525 1897 1027 1150 1320 1484 2716 1224 1346 2114 1085 948 957 2056 914 1172 911 1087 2485 934 1127 968 2349 2609 1950 1724 1952 966 1122 6468 1579 939 3855 1974 915 907 1138 37402 7804 956
internal_value=-0.00104954 0.0843286 0.119252 0.143548 -0.0301436 -0.00830676 0.188833 0.0655434 0.170423 0.154792 -0.0183302 0.10046 0.00365792 0.0515627 0.0844403 0.13315 0.0281772 0.03835 0.068776 -0.0343818 -0.00737172 0.141495 0.120387 -0.00328921 0.0459402 0.0459644 0.0380839 0.0123084 -0.0485248 -0.0357155 0.0184009 0.00823538 -0.0186067 -0.0237678 0.0343105 0.0129464 -0.00649191 0.02471 0.0282435 -0.0227173 0.017512 -0.0068997 -0.0406969 -0.0224137 -0.0345781 -0.0278812 -0.0336826 -0.0495462 -0.0320058 -0.0421182 -0.0376744 -0.050102 -0.0412953 -0.0312499 -0.0425704 -0.033927 -0.0232745 -0.0431432 -0.0475432 -0.0389718 -0.0414846 -0.0332165 -0.0489959 -0.0454579 -0.042023 -0.0338126 -0.0477873 -0.0508315 -0.044718 -0.0512159 -0.0454887 -0.0480426 -0.0515691 -0.0467887 -0.0506618 -0.0469922 -0.0518741 -0.0494385 -0.0521048 -0.0490452 -0.0510721 -0.052288 -0.0523902 -0.0510808 -0.0521198
internal_weight=1867.54 474.651 367.685 306.846 1392.89 636.604 194.14 112.706 161.366 135.051 545.307 70.0352 230.103 91.2965 49.3123 110.141 109.507 90.9965 36.0356 315.204 59.7311 39.9589 84.9196 60.8387 30.0764 32.1035 24.097 44.6605 756.286 106.967 54.9609 42.6706 120.596 106.082 37.1343 41.9842 47.31 30.2384 28.2817 46.823 25.2369 29.4059 255.473 29.1872 134.903 73.4 57.4515 736.915 22.6343 93.0103 58.7719 714.281 54.6453 26.6947 61.503 30.4974 19.4751 43.3396 120.57 26.4193 41.6446 21.3767 111.612 78.4647 53.3455 22.0042 31.3413 659.636 39.0153 620.621 36.0544 33.0718 584.566 35.0562 100.629 36.3368 549.51 47.559 501.951 28.3474 31.0055 473.604 462.424 95.0833 85.858
internal_count=162155 29276 19278 14916 132879 56667 6898 8018 6066 5378 50403 4649 20110 6264 3125 4114 9153 7585 2860 30293 5291 2449 2968 4362 2200 2005 1962 2880 76212 9998 4725 3369 10957 9689 3130 3139 4137 2272 2067 4150 2215 2018 25002 2598 12941 6957 5505 74424 2177 8829 5552 72247 5286 2570 5984 2963 1878 4068 12061 2389 3980 2083 11190 7509 5024 2061 2963 66961 3867 63094 3674 3111 59420 3471 10103 3635 55949 4821 51128 2889 3021 48239 47101 9699 8760
is_linear=0
shrinkage=0.0522058


Tree=4
num_leaves=86
num_cat=0
split_feature=107 51 28 18 4 12 8 8 149 107 7 107 113 11 135 11 131 7 28 135 94 7 81 107 133 5 56 149 11 85 81 31 72 73 8 112 56 115 113 135 151 11 151 57 73 149 82 74 98 112 5 107 74 113 25 149 134 151 151 25 84 20 11 112 5 149 149 28 107 112 8 28 151 151 57 7 81 105 18 106 56 135 107 107 63
split_gain=1962.95 286.417 184.652 167.115 73.1105 88.8052 72.8286 68.9654 46.7273 43.0697 41.1254 36.5162 32.7916 29.4616 27.9422 24.7986 25.084 21.8133 21.3427 18.2266 13.754 13.6498 13.5403 13.3665 12.9824 12.9559 11.8533 11.0931 9.96324 8.57068 7.78433 9.75552 7.02594 6.96327 6.78708 6.1307 5.74442 5.58962 6.17826 5.58161 7.00703 4.59059 3.34085 6.31107 5.78692 3.80808 3.01825 2.04835 1.65199 2.34903 1.64037 2.38492 1.53377 1.47568 2.44258 4.63434 1.09483 0.990532 0.818226 0.689932 0.616686 0.517062 0.508636 1.25275 0.497022 0.82778 0.464344 0.392566 0.466345 1.12443 0.278918 0.67725 0.235552 0.224078 0.269804 1.25112 0.363546 0.101956 0.0974535 0.0927068 0.0741325 0.0710904 1.14341e-05 4.44195e-06 2.17562e-06
threshold=22.500000000000004 1.0000000180025095e-35 7234.7500000000009 1895.5150000000001 1.0000000180025095e-35 5.5000000000000009 11952.860000000002 13585.560000000001 463.50000000000006 75.500000000000014 1164.0350000000001 39.500000000000007 -1263.4999999999998 1.0000000180025095e-35 -1536.4999999999998 192.76500000000001 240.46500000000003 -1781.6599999999996 1285.2850000000001 -1079.9999999999998 1.0000000180025095e-35 1164.0350000000001 1879.7300000000002 47.500000000000007 8.0000000000000018 42.500000000000007 170.03000000000003 2797.5000000000005 234.66000000000003 10578.870000000001 51534.305000000008 1176.5850000000003 1317.6950000000002 4.5000000000000009 42264.115000000005 507400.7950000001 1794.0400000000002 422.49000000000007 -654.49999999999989 -1354.9999999999998 6.5000000000000009 1174.9850000000004 3.5000000000000004 2.5000000000000004 11.500000000000002 3053.5000000000005 1.0000000180025095e-35 1356.6850000000002 1.0000000180025095e-35 507400.7950000001 59.500000000000007 68.500000000000014 476.89000000000004 -2054.4999999999995 28281.885000000002 1523.5000000000002 315654.30000000005 14.500000000000002 24.500000000000004 67497.065000000017 1.0000000180025095e-35 58.470000000000006 1174.9850000000004 190026.00000000003 55.500000000000007 4575.5000000000009 1887.5000000000002 2834.8050000000003 75.500000000000014 164689.20000000004 25892.340000000004 45925.400000000009 24.500000000000004 3.5000000000000004 1.0000000180025095e-35 -192.53999999999999 112023.25500000002 1.0000000180025095e-35 908.08500000000015 44632.650000000009 541.96000000000015 -1993.4999999999998 47.500000000000007 75.500000000000014 1.0000000180025095e-35
decision_type=2 2 2 2 2 2 2 2 8 2 2 2 8 2 8 2 8 2 2 10 2 2 2 2 8 2 2 8 2 2 2 2 2 2 2 8 2 10 10 10 10 2 10 2 2 10 2 2 2 8 2 2 2 8 2 10 10 10 8 2 2 2 2 10 2 10 10 2 2 8 2 2 10 10 2 2 2 2 2 2 2 10 2 2 2
left_child=3 2 7 4 5 -1 9 10 -7 17 11 -2 28 -10 -15 16 -9 -4 27 22 33 -16 -19 -21 32 -24 -13 -14 -5 -26 31 34 50 -11 36 37 39 38 -17 47 -41 42 -35 61 45 -45 -31 -8 52 -50 53 -52 -32 54 58 -56 -36 64 -3 70 -43 -44 63 -53 83 -66 67 68 69 -55 71 -54 73 74 76 -76 -69 84 -68 81 -70 -80 -83 -33 -72
right_child=1 24 6 12 -6 8 30 15 13 20 -12 26 18 14 21 35 -18 19 -20 23 -22 -23 25 -25 29 -27 -28 -29 -30 46 48 57 -34 41 56 -37 -38 -39 -40 40 -42 60 43 44 -46 -47 -48 -49 49 -51 51 62 59 66 55 -57 -58 -59 -60 -61 -62 -63 -64 -65 65 -67 78 72 80 -71 77 -73 -74 -75 75 -77 -78 -79 79 -81 -82 82 -84 -85 -86
leaf_value=0.20809853299245629 0.10082848036485857 -0.052714679226748225 -0.022377861307263245 0.030973944031168377 0.082978451546406845 0.07772494137820235 -0.0038733733169484382 0.078018985325171777 0.1887256710241986 0.016323213766776229 0.13010721214986076 0.040527023574822241 0.12415521559924199 0.17074028281102699 0.076164749748901459 -0.023686525084251332 0.0038942017644197266 -0.0061159961713243309 0.020382470719250301 0.11424955007652279 0.027108561265321338 0.13193771296220838 0.088726700834210109 0.040562635819972173 0.024821516348340299 0.015640744765768849 -0.021032809222996267 0.068234182773794838 -0.032148099811702871 -0.052787244243548533 -0.028059272559611298 -0.052770696104232795 -0.0128623602436324 0.0036515351590707614 -0.052744410340201615 0.015155181510379871 -0.035388366790354134 -0.045480689695055927 0.024505699395744852 0.03746519215849025 -0.01010875329180972 -0.052744176865480927 -0.052789137815976064 0.027720262992373984 -0.040737749920845397 -0.013687972917261289 -0.013769158990390594 -0.035970337922994741 -0.014115842538203058 -0.048119725316495499 -0.024929007222830393 -0.052710378358988938 -0.05273132828982461 -0.049268693766320149 0.00032844513032131382 -0.052702616391230368 -0.030363417616097073 -0.032935679385203809 -0.035025432439929657 -0.034835013446954055 -0.035676926994056453 -0.037345852036909169 -0.052707594483466819 -0.029182192221342967 -0.030820705642214036 -0.052735421868150584 -0.046945123199738578 -0.05271105555335788 -0.05271805110099477 -0.026654615922834742 -0.052734166413386276 -0.037169404284676369 -0.042934242295092608 -0.052705140792368183 -0.028142220027753212 -0.052709163141952474 -0.04143535257361159 -0.046646460876469988 -0.048844380589474108 -0.047457917718471659 -0.046613240115177895 -0.052761078899196907 -0.052701829990749599 -0.052726723202075394 -0.052713276298660246
leaf_weight=51.930787410587072 24.721409513615072 36.771760985255241 17.135045034810901 14.9085535928607 58.258245483972132 36.835953544825315 9.6071661291643995 25.086791497655213 31.06561610288918 11.323427462950347 25.626772129908204 24.541607685387135 17.059097200632095 26.967560636810958 23.716783616691828 19.698280663229525 24.686294628307223 22.309701131656766 15.64413965679705 13.424165939912202 17.634569543413818 24.124930051155388 12.165672370232643 13.412875933572648 10.087860153988006 14.477063548751174 13.061916054226456 22.314496036618948 12.553943691775201 10.905815500766041 10.574842672795056 10.257466903887691 14.392077121883629 12.949491570703684 12.176140430383386 22.230239589698613 18.040070245973766 14.18395458627492 11.472927603870632 15.615052497945724 18.357878355309367 15.529714342206718 14.128511880524458 9.7273160656914133 13.033920967020093 16.02449120208621 10.709262370131908 12.430138040333985 10.817739645950498 11.342354247346519 16.884122662246227 13.889372515492143 17.636304909363393 14.971008306369187 8.857536233961584 9.11093188729137 11.662783134728668 15.827805548906325 8.8400500025600177 8.7592232972383481 9.1811899654567224 10.156430465169249 25.856306553818285 11.094192809425293 9.5244611976668256 9.2695836247876269 9.0294408397749049 49.077248618006706 14.792424195446076 9.992174771614371 20.635309507139027 13.422670008614658 10.684082630090414 91.451932650990784 8.5009720958769339 16.845218782313168 9.2641542460769397 8.6046495744958502 13.497600404545663 9.9477675976231676 8.5575225371867401 9.107075631618498 351.8037667227909 16.069413581863046 39.78264631703496
leaf_count=1367 1328 3858 1457 989 1704 1462 904 1664 830 979 1500 1636 924 1105 983 1696 1597 1731 1085 968 1533 882 981 1130 915 1184 934 1160 966 1023 1051 980 1388 1199 1214 1704 1776 1226 972 1413 1767 1545 1310 907 1276 1495 1024 1191 1114 1171 1660 1467 1795 1468 922 976 1162 1625 886 916 926 974 2744 1170 949 938 935 5180 1539 950 2089 1375 1135 9752 903 1785 986 903 1422 1059 897 893 37747 1649 4180
internal_value=-0.00116666 -0.0261915 -0.00247121 0.11324 0.134285 0.149642 -0.0189404 0.039484 0.12837 0.00368995 0.0744354 0.0515442 0.0487104 0.14599 0.128244 0.0132905 0.0412548 0.0308178 0.0719669 0.0428446 -0.0157476 0.104289 0.0238886 0.0774216 -0.047655 0.0490134 0.0191437 0.0924627 0.00211894 -0.0149119 -0.03571 -0.0277761 -0.0489975 -0.0224921 -0.0175672 -0.00730371 -0.00976757 -0.0183116 -0.00594881 -0.00151549 0.0117578 -0.0268554 -0.0205014 -0.0254604 -0.012393 0.0019533 -0.0334556 -0.0219777 -0.0446113 -0.0315203 -0.0496828 -0.0419289 -0.0470406 -0.0504426 -0.0428639 -0.026561 -0.0417949 -0.0441726 -0.0492863 -0.0488848 -0.0464029 -0.0463305 -0.0475747 -0.0422625 -0.0481144 -0.0416295 -0.0512105 -0.0493697 -0.0451774 -0.0402168 -0.0501145 -0.046006 -0.0504597 -0.0509188 -0.0489668 -0.0444695 -0.0509206 -0.0519632 -0.0523061 -0.052432 -0.0504807 -0.0525642 -0.0527033 -0.0527439 -0.0527204
internal_weight=1868.64 1533.26 728.337 335.38 252.9 194.642 523.027 205.31 142.711 222.614 87.9517 62.3249 82.4802 105.875 74.8093 117.358 49.7731 92.9245 55.0177 75.7895 129.689 47.8417 48.9524 26.837 804.922 26.6427 37.6035 39.3736 27.4625 31.7029 300.414 158.838 773.219 112.054 97.8892 67.5854 74.0503 45.3552 31.1712 56.0102 33.9729 100.731 76.0202 63.0707 38.7857 25.7518 21.6151 22.0373 141.576 22.1601 758.827 67.724 119.416 691.103 63.5803 17.9685 23.8389 60.9487 45.6118 108.841 24.7109 24.2849 50.8399 24.9836 45.1209 18.794 627.522 234.137 48.3131 24.9632 100.082 31.059 185.824 175.14 83.6876 25.3462 58.3414 69.0226 393.386 384.356 23.3499 374.408 360.911 26.3269 60.418
internal_count=162155 148698 64014 13457 8333 6629 49757 14257 5262 19595 5398 3898 5124 3800 2970 8859 3261 7451 3169 5994 12144 1865 3896 2098 84684 2165 2570 2084 1955 2962 30162 15568 81722 10611 9427 5598 7051 3894 2668 5275 3180 9632 7161 5962 3678 2402 2047 2095 14594 2285 80334 7041 12309 73293 6642 1898 2376 6141 4744 11258 2471 2284 5381 2637 4516 1887 66651 24595 4854 2418 10342 3170 19741 18606 8854 2688 6166 7172 42056 41121 2436 40062 38640 2629 6269
is_linear=0
shrinkage=0.0522058


Tree=5
num_leaves=86
num_cat=0
split_feature=107 11 33 51 137 137 149 20 113 52 11 33 135 9 11 11 73 137 18 107 142 116 9 73 64 101 135 131 94 131 135 32 112 107 97 97 18 33 142 5 73 55 81 151 28 11 9 58 149 151 28 5 127 52 85 116 127 113 139 94 112 127 107 9 73 141 135 116 149 104 52 107 113 135 151 104 81 9 11 127 137 98 106 116 127
split_gain=1640.69 259.056 198.581 146.809 106.13 81.4154 59.6873 43.4959 49.9267 38.2089 36.9937 31.2443 22.9796 22.2483 20.6 20.5018 19.6485 16.9897 16.9177 15.7195 14.4536 12.6266 21.7597 12.4091 11.8229 11.7516 11.3963 11.1268 9.70878 15.1148 9.43212 14.4641 9.13939 9.03805 8.96734 7.46268 8.5558 7.26791 5.58798 4.90961 4.78089 4.3932 4.34828 3.56356 3.52736 4.23235 3.02497 2.87717 3.03409 2.58583 2.4413 2.35654 2.16965 2.07761 1.3167 1.27164 1.17965 1.93086 1.33319 1.16035 1.11379 0.978532 0.830726 1.47014 0.785004 0.655897 1.36144 2.84491 0.486829 0.359528 0.332923 0.690064 0.318869 0.266273 0.25468 0.23273 0.149077 0.639398 0.157553 0.282606 0.111025 0.0953205 0.0927972 0.0908646 0.0695548
threshold=39.500000000000007 152.17500000000004 14994.200000000003 1.0000000180025095e-35 5661.9650000000011 11685.630000000003 631.50000000000011 110.105 -897.49999999999989 14207.955000000004 535.7650000000001 7448.3350000000009 -440.49999999999994 694.23500000000013 475.61000000000007 1.0000000180025095e-35 4.5000000000000009 1147.4300000000001 4521.2100000000009 12.500000000000002 143692.50000000003 4044.5800000000004 360.58500000000004 4.5000000000000009 5748.4300000000012 1.0000000180025095e-35 -1140.9999999999998 76.245000000000019 1.0000000180025095e-35 392.95500000000004 inf 1.0000000180025095e-35 228031.20000000004 12.500000000000002 6.5000000000000009 1.0000000180025095e-35 34018.580000000009 86866.595000000016 566297.72500000009 42.500000000000007 4.5000000000000009 1.0000000180025095e-35 15388.655000000001 13.500000000000002 4363.0950000000012 1330.9700000000003 1173.2600000000002 2580.4700000000007 2797.5000000000005 18.500000000000004 1.0000000180025095e-35 67.500000000000014 1739.5000000000002 127205.98000000001 8269.6500000000015 2010.9450000000004 1572.5000000000002 -2146.4999999999995 749.31000000000006 1.0000000180025095e-35 139352.40000000002 2293.5000000000005 61.500000000000007 175.61000000000004 6.5000000000000009 1.0000000180025095e-35 -958.49999999999989 718.37000000000012 5606.5000000000009 10605.385000000002 25663.850000000002 105.50000000000001 -1536.4999999999998 -1840.4999999999998 24.500000000000004 17419.050000000007 123245.22500000002 311.05500000000006 114.23500000000001 405.50000000000006 61873.500000000007 1.0000000180025095e-35 44632.650000000009 21699.490000000005 4121.5000000000009
decision_type=2 2 2 2 10 10 8 2 10 2 2 2 8 2 2 2 2 8 2 2 10 10 2 2 2 2 8 8 2 8 8 2 8 2 2 2 2 2 10 2 2 2 2 10 2 2 2 2 10 10 2 2 10 2 2 8 8 10 10 2 10 10 2 2 2 10 10 10 10 2 2 2 8 10 10 2 2 2 2 10 10 2 2 10 10
left_child=1 2 4 5 6 10 20 8 15 12 11 16 19 14 21 -8 -2 -18 -19 -3 -1 22 39 -12 25 28 -17 34 41 -30 50 -32 -20 -10 -6 -21 40 -4 44 -7 -37 42 47 55 45 -25 -43 -15 -49 52 53 56 -44 60 -46 61 57 -52 62 65 72 -16 63 -59 -48 66 69 -68 83 -26 71 -58 -5 -11 76 -33 78 -78 79 -64 -80 -67 -72 -66 -54
right_child=3 9 37 30 27 13 7 -9 33 73 23 -13 -14 24 43 26 17 18 32 35 -22 -23 -24 38 59 -27 -28 -29 29 -31 31 75 -34 -35 -36 36 -38 -39 -40 -41 -42 46 49 -45 54 -47 64 48 -50 -51 51 -53 84 -55 -56 -57 70 58 -60 -61 -62 -63 74 -65 68 81 67 -69 -70 -71 82 -73 -74 -75 -76 -77 77 -79 80 -81 -82 -83 -84 -85 -86
leaf_value=0.10600323775044965 0.089703945558804954 0.059434331522228059 0.021406102887428381 -0.040813009078344439 0.033762008022636687 0.030484381403205828 0.19488757284602348 0.080950057960502142 0.12397998773511847 -0.041236052299654692 0.033041378190226622 -0.025678300594882755 0.07801862523382895 0.0077952844882804729 -0.042227234152551828 0.17408007317295493 0.080934459897279501 0.056851863115153313 -0.026261661454403364 -0.019753788339764235 0.055713306038449484 -0.020732183806994691 0.091503259886586433 0.0092924183831965702 -0.052713659468078031 0.033123358827239532 0.13692870715943964 0.0052274514537188335 0.052909069537565821 -0.034858210606826881 0.029265086426912602 -0.040894888740962053 0.029883032598287812 0.084115785926178521 0.084545108003641317 0.011811376639320099 -0.017632953209507595 -0.018481483141754979 0.012486145783028724 -0.019349738732858879 0.049928182661701119 -0.014267736190653729 -0.02559173396174718 -0.0071947953081909488 -0.049961106818548387 -0.035566325671035563 -0.032972343731696073 0.0021151150872664296 -0.034612648167207487 -0.014692117896479066 -0.027264088451461697 -0.030158721773646709 -0.052750786700884969 -0.017179856074801592 -0.026387923720255776 -0.052736533983001391 -0.033958992176468347 -0.052701551275470118 -0.032013073439410955 -0.029797453305311767 -0.031568696154466787 -0.018561964781135504 -0.039824657552546168 -0.023783769202484865 -0.052727109570250022 -0.05270219001615957 -0.014444643078188019 -0.052697951661217414 -0.039221985059970627 -0.040378186447577701 -0.052536465757030748 -0.052689135705806772 -0.052703885150997345 -0.05274554614901792 -0.04250862178193187 -0.05271190815476004 -0.036557600476528417 -0.052680892843719997 -0.052680895596916744 -0.052688470536187804 -0.046490146432956125 -0.046689877430995355 -0.047420564205307533 -0.046663193923032795 -0.046991224666624164
leaf_weight=27.983684074133635 22.652244945988059 17.576976580545306 23.032020300626755 8.7796390941366536 19.777439110912383 10.649551924318077 37.760621723718941 34.359488078393042 34.091677071526647 9.0592424469068664 13.364746250212191 19.230075773783028 19.056368134915829 13.786470361053942 9.9148005312308722 34.317431624047458 15.962922350503502 20.419437937438488 19.627580280415714 23.551033761352301 35.128652422688901 14.658362806774674 12.659378251060842 10.912171264179053 26.836421801708639 9.1199419777840358 65.369450060650706 15.189451200887559 9.8786401227116603 11.659889374859629 10.810061832889916 8.8116581905633229 13.227229483425615 28.424140478484333 18.195695342496037 19.313909494318068 14.797595979645846 27.097982488572598 10.391985565423964 10.905632400885223 16.742832727730274 9.4985052356496436 15.368871945887802 13.750856742262838 18.573136185295883 12.075687929056583 10.558828123845158 9.5094206379726547 17.251188188791275 13.721743088215588 12.31811531819403 16.209288046695292 15.4116966733709 10.287317109294234 9.9000442950054985 11.674323976971207 8.3560212571173924 10.211818101815881 12.625048027373849 11.377508441917596 14.810210651718078 9.1628302400931698 8.1153391813859361 9.0268889451399428 30.610935616306961 41.693500299006701 10.911746155470611 10.300542792305349 11.605774437077342 8.4726543091237527 370.10309407208115 14.956856100820003 20.493200548924509 13.859789023175834 10.261053510010241 9.3748744539916498 9.7118801856413501 21.640662404708564 123.29504331294447 10.914727666415272 8.4355333596467954 8.6837258245795947 9.9224254228174669 8.6345183262601477 9.0822473084554058
leaf_count=1030 1353 910 1249 937 1121 900 650 1195 835 890 1083 1698 1050 1281 968 1226 967 1363 1656 1732 1355 1373 1105 873 2837 915 1468 950 926 1125 921 874 979 1179 1119 1324 1175 1675 927 917 1254 954 1488 1354 1784 1028 1048 894 1660 1386 1346 1737 1531 1102 974 1183 899 1099 1391 1152 1542 910 891 973 3154 4491 1140 1118 1217 913 41727 1648 2195 1392 1141 987 1080 2423 13806 1204 948 934 1108 917 921
internal_value=-0.0012356 0.076024 0.097034 -0.0322219 0.110931 -0.0128873 0.123074 0.135211 0.144535 0.0131738 0.015697 0.034835 0.0258409 -0.0259628 -0.00359038 0.162127 0.0474989 0.0336907 0.0195348 0.0150311 0.0780116 0.0198085 0.0371771 -0.0125757 -0.0326163 -0.0247407 0.149718 0.0429905 -0.027569 0.00539623 -0.0477447 -0.0185595 -0.00365801 0.105855 0.0580959 0.00454155 0.0157929 -0.000155298 -0.0224323 0.0052713 0.0295108 -0.0318712 -0.0244786 -0.029287 -0.0294837 -0.0142722 -0.0416849 -0.0115798 -0.0215614 -0.034239 -0.0489359 -0.0498168 -0.0409675 -0.0383052 -0.0417648 -0.0391656 -0.0503148 -0.0473879 -0.0484933 -0.0456474 -0.0432351 -0.030861 -0.0494766 -0.0391332 -0.0459256 -0.0473343 -0.0434737 -0.0330202 -0.0486152 -0.0497537 -0.0520314 -0.0459757 -0.0491375 -0.0481962 -0.050511 -0.0469864 -0.0509619 -0.0476865 -0.051643 -0.0472027 -0.0522845 -0.0516658 -0.0524029 -0.051393 -0.0506152
internal_weight=1867.84 534.685 400.728 1333.16 350.598 593.688 297.435 234.323 199.963 133.958 186.337 111.119 111.039 407.351 93.3757 137.448 91.8894 69.2372 53.2742 91.9823 63.1123 48.8729 34.2146 75.2178 313.975 195.699 99.6869 53.1626 186.579 21.5385 739.471 28.9966 32.8548 62.5158 37.9731 74.4054 50.8543 50.13 61.853 21.5552 36.0567 165.04 94.1316 44.5028 51.461 22.9879 70.9086 40.5471 26.7606 53.5846 710.474 656.104 39.8628 54.3704 28.4732 30.752 639.895 236.556 224.238 118.276 44.0831 19.0776 211.613 19.2387 61.4101 106.899 56.5214 21.2123 50.8512 35.3091 403.338 23.3129 29.2728 22.919 192.374 18.1865 182.113 31.3525 150.761 19.0301 131.731 50.3772 380.026 39.2455 24.4939
internal_count=162155 24779 15052 137376 12128 55397 8938 6553 5358 9727 14685 8016 7445 40712 8710 3344 6318 4965 3998 6395 2385 4295 2922 6669 32002 19417 2694 3190 18502 2051 81979 2782 2635 2014 2240 5485 3753 2924 5586 1817 2578 16451 9161 4415 4659 1901 7290 3835 2554 5326 79197 73421 3940 5776 2758 3061 71684 26302 24956 12585 4674 1878 23565 2072 6336 11433 6008 2258 5288 3750 45382 2547 3132 2282 21493 1861 20352 3503 16849 2095 14754 5425 42835 4071 2452
is_linear=0
shrinkage=0.0522058


Tree=6
num_leaves=86
num_cat=0
split_feature=18 137 51 153 22 84 4 22 10 24 142 116 10 153 137 9 120 10 63 138 18 151 134 26 94 113 120 56 10 22 120 72 9 18 38 127 127 127 141 104 150 28 150 153 22 116 153 9 128 113 94 135 150 22 151 127 22 138 31 148 28 10 134 113 138 52 141 58 56 72 10 125 10 147 134 84 22 127 151 120 151 116 24 56 24
split_gain=1043.09 315.65 242.529 186.524 101.045 76.2511 42.3379 60.4659 65.9215 35.7074 30.8643 26.4255 25.2543 20.1336 20.103 18.3197 15.0983 15.0074 13.5267 12.955 14.7253 16.0513 11.0358 10.8513 10.5819 9.95764 9.77643 9.75747 9.31735 8.4519 12.9076 8.19013 8.05932 8.07072 7.52968 10.3489 10.6872 7.04998 6.11934 5.84065 5.83141 8.69832 4.93738 4.78351 4.75159 3.97803 3.42941 3.12224 2.57797 2.40837 2.31266 1.90235 1.89121 1.62349 2.09711 1.26882 1.09555 1.05243 1.04035 0.949887 1.04499 0.821232 1.08023 1.69418 0.78204 0.728613 0.693457 0.789525 1.43623 2.28607 0.672338 0.628775 0.353605 0.297886 0.833471 0.331095 0.169227 0.348876 0.763558 0.12094 0.115939 0.106788 0.084194 0.0840525 1.82043e-05
threshold=1895.5150000000001 7131.3150000000014 1.0000000180025095e-35 639.28500000000008 23368.205000000005 1.0000000180025095e-35 1.0000000180025095e-35 -7370.8249999999998 -169.58999999999997 1.0000000180025095e-35 473943.31500000006 1173.0500000000002 -1.0000000180025095e-35 463.33500000000009 1147.4300000000001 414.69000000000011 182988.00000000003 410.17000000000002 1.0000000180025095e-35 55487.330000000009 1.0000000180025095e-35 4.5000000000000009 187210.80000000002 1.0000000180025095e-35 1.0000000180025095e-35 -501.49999999999994 105570.00000000001 1.0000000180025095e-35 -819.69499999999982 23368.205000000005 182988.00000000003 1317.6950000000002 264.27500000000003 6115.6900000000014 1.0000000180025095e-35 405.50000000000006 2755.5000000000005 1572.5000000000002 1.0000000180025095e-35 5923.6500000000005 31780.410000000003 31335.880000000001 877.34000000000003 2328.4050000000002 3046.5150000000008 718.37000000000012 4498.4550000000008 1352.9500000000003 21532.940000000006 -805.49999999999989 1.0000000180025095e-35 -2115.4999999999995 877.34000000000003 12802.555000000002 4.5000000000000009 143.50000000000003 3046.5150000000008 4904.0150000000012 6141.3500000000013 3.5450000000000004 57479.145000000011 -97.709999999999994 106977.60000000002 -470.99999999999994 1.0000000180025095e-35 62811.80000000001 1.0000000180025095e-35 5427.8700000000008 3582.4700000000007 1366.0800000000002 -1570.4349999999997 -7037.8999999999987 -1.0000000180025095e-35 -5700.4749999999995 187210.80000000002 14.500000000000002 8836.2700000000023 764.50000000000011 3.5000000000000004 154836.00000000003 22.500000000000004 -1.0000000180025095e-35 5.5000000000000009 5515.9100000000008 2.5000000000000004
decision_type=2 10 2 10 2 2 2 2 2 2 10 10 2 8 8 2 8 2 2 10 2 10 10 2 2 8 8 2 2 2 10 2 2 2 2 10 10 8 10 2 10 2 10 10 2 8 10 2 8 10 2 10 10 2 8 8 2 10 2 10 2 2 10 8 10 2 10 2 2 2 2 10 2 10 10 2 2 8 10 10 10 8 2 2 2
left_child=1 5 3 4 10 6 7 -1 -9 11 14 19 -10 37 16 29 -2 -8 24 20 -3 -22 58 39 27 -7 52 38 -28 30 -5 51 -16 -34 35 -30 -37 79 40 -4 41 44 -20 -31 -17 46 -11 -29 -40 -46 56 53 -6 -25 -55 -53 -44 61 -13 66 -61 -57 72 64 65 -64 67 83 69 -69 -47 82 -63 75 -75 76 77 78 -59 -14 -79 -78 -49 -58 -74
right_child=2 9 23 15 26 25 17 8 12 45 -12 22 13 -15 32 18 -18 -19 42 -21 21 -23 -24 31 -26 -27 28 47 34 43 -32 -33 33 -35 -36 36 -38 -39 48 -41 -42 -43 50 -45 49 70 -48 71 -50 -51 -52 55 -54 54 -56 57 59 73 -60 60 -62 62 63 -65 -66 -67 -68 68 -70 -71 -72 -73 84 74 -76 -77 81 80 -80 -81 -82 -83 -84 -85 -86
leaf_value=0.14781151024701758 0.05495620879732814 0.074107968676201147 0.015332675888806173 -0.008918953228542149 -0.016163992588720373 0.033437914215700498 0.081451600190731069 0.016120014101463409 0.14019022490254879 -0.0012735463779583957 0.13463453238800052 -0.027161297429709279 0.067987730940798421 0.12033148833558373 0.065017733775304745 0.030883226546264835 0.11475806617607034 0.032861917338386254 -0.0058795339366041659 -0.0051527212518961835 -0.014532764369925771 0.058717502344185622 0.015011036238474659 -0.052717139648196389 0.021991657498842909 -0.026306615069373904 -0.032285962366827695 -0.020167421402847791 -0.0058834785499929619 0.0017953265541652292 0.058665656901352892 -0.0067911917322200262 0.049375678201483343 -0.001113432923181993 -0.019734709067493309 0.070362612090695609 0.011691555396034552 0.092571656353345799 -0.052745465964841365 -0.035210255134469993 0.028173021477093583 -0.052775540395433883 -0.031621918031066419 -0.03557959354285839 -0.029002406728576499 -0.035812006987637472 -0.042081937240029496 -0.052736959468540553 -0.018955012252651723 0.0058386504123726663 -0.022837857194000895 -0.034842939019294292 -0.04365519687204035 -0.046346281529197716 -0.010749353451888981 -0.052675552959234297 -0.052715116573367457 -0.035107951578278375 -0.049095701080959321 -0.020665987647646582 -0.046678045340825404 -0.040577873133254401 -0.047487783078726017 -0.017059179103735438 -0.052688403896291196 -0.028671112537357515 -0.052686628110819526 -0.0431963759344519 -0.052677863584874883 -0.0099194698265806392 -0.052716472290193231 -0.035357414717632055 -0.052769332960543779 -0.052664880495240228 -0.035949243615410166 -0.042506595290948773 -0.046933606163083889 -0.052657329628726615 -0.05265861961684485 0.063044845095018037 -0.045904750977775549 -0.052654393211349175 -0.04665613529102032 -0.046462842393899174 -0.052681081322071617
leaf_weight=61.473929891362786 24.098010208457708 27.458051899448037 10.724080456420781 17.808407437056307 16.99892188701779 17.481835244223475 33.780038860626519 29.160008035600185 35.446829521097243 13.171974916011097 16.946149764582515 10.127342891879382 26.845157423056662 45.198863990604877 17.638540526852012 10.587432738393543 22.020708572119474 35.562734791077673 11.129113645292817 17.457419611513615 16.249041344039142 16.364197751507163 16.931748949922621 10.418786098249258 16.055061773397028 13.455124021507801 12.722001921385525 16.008459170348942 18.774641894735396 19.12564804404974 13.570687364786862 12.497344467788933 15.745758686214684 19.090927466750145 12.582113498821853 17.770374612882733 16.153294183313847 51.016720493324101 10.236180099658666 14.873742749914525 13.547862711362539 10.355044040828941 17.301215201616287 18.228066700510681 10.9513115491718 9.2621311219409126 9.7794997328892332 22.108674838207666 15.428591724485161 10.681096912361687 15.711165849119423 14.627476432360707 11.389731052331625 8.2465769629925507 9.9564103027805668 34.1224962817505 19.499495181255046 11.892547686584296 14.09666245896369 8.1496562045067567 8.7055523572489601 8.6221762234345061 9.8461150750517863 8.7811529412865621 13.300786379724739 13.031473380513487 41.900666950270534 16.47564492747188 14.075430765748022 8.5445621488615853 20.841674510389566 9.0251813028007728 10.219962609931828 23.280869342386723 12.492187733761964 10.288359659723936 9.1249298052862269 66.723725854419172 15.642224870622156 27.120439776219428 7.7330416422337285 349.86457246541977 8.6273797750473005 8.3780504614114744 16.912170679308474
leaf_count=1248 1263 1693 967 1460 1220 1248 798 1383 1239 1262 995 845 880 1279 1002 845 1034 1069 1060 1395 1114 1275 1561 1112 1489 906 1190 1542 1229 1779 1119 1264 904 1386 1008 1291 1271 1498 1033 1473 1352 999 1763 1779 979 976 983 2273 1464 983 1588 1627 1036 934 1087 3897 2072 1375 1330 896 989 968 949 932 1490 1399 4671 1784 1591 948 2228 964 1023 2708 1448 1216 1080 7869 1837 920 913 41448 925 921 1912
internal_value=-0.00128524 0.0592233 -0.0264685 -0.00249915 0.0357484 0.0859748 0.0930037 0.102158 0.0890918 0.000570188 0.0695511 0.016486 0.100555 0.0911998 0.0583647 -0.0241411 0.0835103 0.0565322 -0.0293419 0.0344341 0.0459384 0.0222217 -0.0173243 -0.0474017 -0.0181157 0.00745378 -0.000961273 -0.0227968 0.00858589 0.000335946 0.0203097 -0.0486621 0.0362651 0.021707 0.0165511 0.0252146 0.0424255 0.0786575 -0.0113153 -0.0140355 -0.00165861 -0.0111514 -0.0394937 -0.0164431 0.00222605 -0.0350335 -0.0186618 -0.0396348 -0.0324321 -0.0117995 -0.0418504 -0.0494489 -0.0271937 -0.0362826 -0.026876 -0.0500409 -0.0439388 -0.0503984 -0.0399256 -0.0456337 -0.034101 -0.0458856 -0.0430151 -0.0376293 -0.042622 -0.0367695 -0.0474191 -0.0441236 -0.0393371 -0.0318321 -0.0475154 -0.0474727 -0.0497876 -0.0514205 -0.0468277 -0.0517691 -0.0519758 -0.0500992 -0.0450783 0.0655037 -0.051956 -0.052509 -0.0510301 -0.0508361 -0.0527143
internal_weight=1865.65 548.281 1317.37 614.147 221.931 376.542 345.605 276.262 214.788 171.74 115.54 118.684 185.628 150.181 98.5939 392.216 46.1187 69.3428 323.483 77.5287 60.0713 32.6132 41.1558 703.223 153.612 30.937 106.391 137.557 78.0024 68.7328 31.3791 677.625 52.4752 34.8367 65.2804 52.6983 33.9237 104.982 81.7875 25.5978 56.1227 42.5749 169.871 37.3537 32.2198 53.0553 22.9515 55.7697 25.6648 21.6324 158.741 665.128 28.3887 28.6218 18.203 636.506 143.03 621.879 24.224 125.729 16.8552 114.836 80.7138 44.9595 36.1784 22.8776 108.874 66.9732 39.0956 25.0202 30.1038 39.7612 35.7543 507.042 35.7731 471.269 460.981 101.992 27.5348 53.9656 74.4568 358.99 30.7361 27.8775 27.1321
internal_count=162155 27130 135025 54097 14829 12468 10314 8447 7199 14662 6584 9213 5816 4577 5589 39268 2297 1867 33131 5477 4082 2389 3736 80928 14848 2154 8245 13359 5989 6137 2579 78488 3292 2290 4799 3791 2562 3298 7655 2440 5158 3806 18283 3558 2807 5449 2245 5704 2497 1962 17223 77224 2256 3133 2021 74091 15635 72464 2175 13872 1885 12570 8673 4770 3838 2348 11987 7316 4323 2732 3204 4162 3903 59894 4156 55738 54522 11994 3212 1800 8782 42528 3198 2993 2935
is_linear=0
shrinkage=0.0522058


Tree=7
num_leaves=86
num_cat=0
split_feature=107 22 107 107 16 22 6 22 97 97 10 137 120 5 72 138 72 7 10 97 138 127 107 83 27 5 80 12 25 7 6 0 116 55 116 71 22 10 72 97 138 137 97 64 6 107 151 112 112 84 116 83 97 151 80 140 0 7 112 5 127 94 31 107 85 22 97 85 112 55 12 151 12 22 7 24 137 39 80 22 140 7 107 80 12
split_gain=1245.71 151.317 76.8465 68.9145 48.0191 35.7079 31.7416 29.7856 29.0197 25.0864 27.68 21.9062 21.0153 17.8604 16.5007 15.539 16.3552 16.7036 11.715 11.6863 10.8568 10.8111 11.3721 10.7764 9.75495 9.72847 9.6331 9.5934 8.69928 8.61271 7.96839 7.65403 8.14603 7.08441 8.35416 8.37238 8.44103 6.4469 16.042 6.35722 5.40508 5.09208 4.87268 6.60242 4.81606 4.50419 7.13967 4.34732 3.89761 3.38028 5.51221 2.79188 2.70145 2.1363 2.1283 3.99397 1.98657 2.66939 1.78142 1.70611 1.65746 1.44385 2.12869 1.78098 1.43114 1.70097 1.96781 1.35133 1.34917 1.24593 1.12219 1.73699 3.08756 0.988553 1.45082 1.52845 0.82783 0.826707 0.744116 1.27732 0.701099 0.673657 1.1935 0.701731 0.562366
threshold=39.500000000000007 1307.7000000000003 81.500000000000014 22.500000000000004 -12884.094999999999 23368.205000000005 19.500000000000004 23368.205000000005 1.0000000180025095e-35 8.5000000000000018 -97.709999999999994 2678.9450000000002 105570.00000000001 59.500000000000007 1317.6950000000002 6587.6850000000004 1.0000000180025095e-35 2125.6700000000005 -2546.5049999999997 1.0000000180025095e-35 17380.475000000002 592.50000000000011 12.500000000000002 6219.5350000000008 1.5000000000000002 49.500000000000007 5.5000000000000009 5.5000000000000009 9205.4950000000008 1164.0350000000001 134.50000000000003 619997872.50000012 2010.9450000000004 1.0000000180025095e-35 1173.0500000000002 1.0000000180025095e-35 8836.2700000000023 -169.58999999999997 1317.6950000000002 1.0000000180025095e-35 9995.9450000000015 1.0000000180025095e-35 60.500000000000007 4335.505000000001 154.50000000000003 31.500000000000004 2.5000000000000004 164689.20000000004 278704.80000000005 1.5000000000000002 4836.6050000000005 86614.255000000019 73.500000000000014 1.5000000000000002 1.5000000000000002 2065.6300000000006 324833201.50000006 814.65000000000009 509594.03500000009 45.500000000000007 405.50000000000006 1.0000000180025095e-35 20821.545000000002 137.50000000000003 4164.1500000000005 12802.555000000002 35.500000000000007 2404.6500000000005 57007.80000000001 1.0000000180025095e-35 8.5000000000000018 9.5000000000000018 9.5000000000000018 111431.82500000001 1.0000000180025095e-35 2.5000000000000004 5661.9650000000011 58692.535000000011 4.5000000000000009 23368.205000000005 2065.6300000000006 814.65000000000009 105.50000000000001 4.5000000000000009 6.5000000000000009
decision_type=2 2 2 2 2 2 2 2 2 2 2 8 10 2 2 10 2 2 2 2 10 8 2 2 2 2 2 2 2 2 2 2 8 2 10 2 2 2 2 2 8 8 2 2 2 2 8 8 8 2 8 2 2 10 2 10 2 2 10 2 8 2 2 2 2 2 2 2 10 2 2 10 2 2 2 2 8 2 2 2 8 2 2 2 2
left_child=1 3 7 4 -1 9 -6 12 25 24 -11 -5 27 18 -10 16 26 -18 -14 -20 -15 -7 -23 29 41 40 49 -2 33 -21 39 32 -29 34 35 42 -37 52 47 -13 -8 -3 44 -44 -17 46 -24 80 -49 50 69 64 58 -35 59 -56 57 -55 73 68 -51 67 63 -63 65 66 -36 70 -33 -4 81 -72 -73 74 -9 -76 -62 78 -58 -80 -39 82 -30 -84 -69
right_child=2 5 15 11 6 21 8 37 14 10 -12 30 13 20 -16 28 17 -19 19 23 -22 22 45 -25 -26 -27 -28 31 61 -31 -32 54 -34 53 51 36 -38 38 -40 -41 -42 -43 43 -45 -46 -47 -48 48 -50 60 -52 -53 -54 56 55 -57 77 -59 -60 -61 76 62 -64 -65 -66 -67 -68 84 -70 -71 71 72 -74 -75 75 -77 -78 -79 79 -81 -82 -83 83 -85 -86
leaf_value=0.12854356222999014 0.028463845907694223 0.020127149803328966 -0.026475861348779332 0.072706485014209482 0.038153468198422351 -0.037195764255772236 0.04990232814411065 -0.05270939256844144 0.088333829279917994 0.022655824349910935 0.11263658498066467 -0.02411233493811896 -0.03968007413835594 0.098935029059326843 0.14124611127359757 -0.052699549502852383 0.054620476117927821 -0.02225050191374257 -0.024314936023940022 0.070053918390409545 0.02708864439003094 0.046515259343209367 -0.020783175168189963 -0.0055074239556207214 -0.0081624671138239013 0.08912361812963239 0.0066364574808043418 0.034238695393537459 -0.025713889724775386 0.016032899531210891 0.044141623302194767 -0.042574718162809548 -0.026211933226265267 -0.019114206337675847 -0.043035522569821939 0.05147514134772898 -0.014890009690061748 -0.034140570285597027 0.027297093896318944 0.020294594268989059 0.076193140169944634 0.054562208833653737 0.02617484300596163 -0.035965711354014218 -0.0075476140582337124 -0.02636357215086944 0.028439393647459739 0.0053699544791578034 -0.033392197072982431 -0.028079036494789378 0.0035209923737173575 -0.014343317652476241 -0.014747972472098924 -0.0058796884502059455 -0.036366456752316534 0.0073013527262973743 -0.051383986186220754 -0.044560935504134647 -0.023068824804488169 -0.049622729937199073 -0.052676648481391912 -0.026439574367928983 -0.013645626042000073 -0.050709125431916025 -0.052662200906402647 -0.047700234766232495 -0.012023082051385473 -0.044002543265916162 -0.017913752088204206 -0.049181397535231229 -0.047118779511470726 -0.0042795577472803494 -0.046802675478547162 -0.052691631207102255 -0.018683679101425033 -0.046943006583966704 -0.03808200315702024 -0.033934251470181413 -0.026529284442960103 -0.049787014142953251 -0.052724134756315245 -0.050655177370267174 -0.050768439308597341 -0.035815543523199607 -0.051013811314571861
leaf_weight=66.048257533460855 12.799084938131271 26.16215149499476 11.908672806806864 29.740094997920096 43.754233968444169 19.880426659248769 43.504772729240358 13.220690364949403 30.408391418866813 15.845767144113777 22.616498037241399 14.328333277255295 11.935990657657383 10.649464028887452 34.049281056970358 21.176125113852326 13.087580448016526 18.72910238057375 14.612861392088233 18.254201128147542 12.414922798983751 15.089207272045313 14.557192075066267 16.511213506571949 19.728797572664917 69.228665526024997 14.929777516052125 12.585138977505267 9.6805597823113185 14.380156732164322 19.803355407901108 10.152549684047701 11.745794429443777 9.3264648066833598 10.785017141140999 9.0131014743819851 12.422836503013967 8.4246625686064345 17.583882244303823 22.715626990422606 41.779443003237247 21.178143023513258 9.2661250103265065 9.3746787672862393 9.2510497635230404 17.697259478271008 17.915350061841309 12.573571122251453 16.152291405946016 12.71899824682623 12.045829452574251 10.897383335046468 12.375989053398369 7.8079541875049499 12.615589142777027 10.426279122941194 81.369844158180058 12.888822854496537 12.323726669885216 16.19358754530549 41.61342086084187 11.934183592908083 8.0252991179004294 26.628735543228686 25.272730109281838 20.98888539802283 11.546289115212856 36.213923031464219 14.948757184669374 14.738602244295178 18.868440137244761 9.7138194460421818 8.9337893323972803 25.358219159767032 12.26617332454771 9.0759447542950493 14.209115910343824 11.152602563612161 9.9774421369656938 18.130721322260797 16.119738412089649 52.190504714846611 27.641886855475605 12.38686431199312 224.25959142297506
leaf_count=1242 967 1191 1227 1338 1409 1633 983 1439 1063 1067 1130 896 1124 790 967 2367 908 1530 1283 1542 1147 630 1073 1426 1299 1681 1471 1112 1111 1201 1120 950 1054 1035 1147 852 1326 911 1553 1415 974 907 1029 1091 1043 1521 1240 1294 1602 1415 1156 1265 1340 881 1121 1022 9492 1511 1312 1492 4857 1354 922 3103 2980 2408 1231 4349 1410 1607 2259 1167 1080 2840 1281 1011 1405 1322 1114 2112 1742 6210 3289 1428 27356
internal_value=-0.00131483 0.0601641 -0.0309599 0.0778385 0.0887514 0.021662 0.0787478 -0.0104132 0.0868593 0.0419544 0.0755661 0.0364021 0.00289897 0.0200425 0.116284 -0.0390705 -0.0239695 0.00936986 0.00778747 0.0166737 0.0602621 -0.00349069 0.00677719 0.0288612 0.022679 0.0745841 -0.0326525 -0.0137871 -0.0421828 0.0462498 0.0174092 -0.0198859 0.00505606 -0.0353179 -0.0272864 -0.0142042 0.0130143 -0.0275571 -0.0159394 0.00311832 0.0627818 0.035532 -0.0260949 -0.00507637 -0.0389716 -0.00517455 0.00637329 -0.0302113 -0.0164257 -0.0381225 -0.0257861 -0.0388897 -0.0372848 -0.0433142 -0.0293185 -0.0166071 -0.0449112 -0.0299683 -0.0411455 -0.0364113 -0.0450866 -0.0468054 -0.0381076 -0.0431984 -0.0427894 -0.0370297 -0.0270007 -0.0478188 -0.0278882 -0.0390343 -0.0436706 -0.0359514 -0.0246517 -0.0448632 -0.0391196 -0.0307012 -0.0489617 -0.0474749 -0.0488543 -0.0415313 -0.0463455 -0.0465126 -0.0421632 -0.0461413 -0.050039
internal_weight=1862.84 606.031 1256.81 415.36 328.773 190.671 262.725 355.7 218.971 105.531 38.4623 86.5874 200.226 98.7588 64.4577 901.107 153.981 31.8167 75.6944 63.7584 23.0644 85.1394 65.259 49.1456 67.0691 154.513 122.164 101.467 747.126 32.6344 56.8473 88.6677 24.3309 300.648 149.994 70.5039 21.4359 155.475 70.8541 37.044 85.2842 47.3403 49.068 18.6408 30.4272 50.1698 32.4725 53.2703 28.7259 107.235 38.6931 79.4903 84.6207 150.654 64.3368 23.0419 141.327 20.6968 72.2448 41.2949 68.5415 446.478 46.5882 38.5629 68.5929 43.3202 22.3313 399.889 25.1013 26.6473 139.416 37.516 18.6476 59.921 34.5628 21.3421 55.8225 120.631 109.478 28.1082 24.5444 101.9 49.7093 40.0288 260.474
internal_count=162155 24779 137376 13088 8319 11691 7077 33966 5668 5594 2197 4769 17641 8513 2030 103410 15576 2438 6576 5452 1937 6097 4464 4169 3397 3638 13138 9128 87834 2743 3431 8161 2166 34206 16739 7708 2178 16325 7102 2311 1957 2098 5530 2120 3410 3834 2313 5549 2896 11667 3990 9031 9223 17467 5995 2143 16432 2392 7883 3852 7677 53628 5379 4457 7766 4786 2378 48249 2360 2834 16544 4506 2247 6571 3731 2292 6262 14040 12718 3226 2653 12038 5828 4717 31705
is_linear=0
shrinkage=0.0522058


Tree=8
num_leaves=86
num_cat=0
split_feature=107 51 52 33 133 10 138 96 5 9 28 10 7 16 33 72 10 7 0 5 151 9 134 133 32 64 32 96 24 58 7 135 16 107 107 9 16 138 33 72 82 98 27 113 135 135 134 64 27 5 58 33 51 138 138 5 0 107 135 16 5 72 16 0 5 104 64 6 0 141 107 135 5 6 24 104 52 113 85 0 106 82 106 33 5
split_gain=1090.97 142.681 137.774 133.544 97.6847 81.1389 65.1339 36.7327 38.9165 31.1456 25.8585 23.4508 24.2926 23.1539 21.4744 19.4603 18.7557 17.5052 16.6904 15.0057 14.6236 14.0691 16.9177 13.4253 19.3918 12.6564 13.1609 12.3918 10.412 11.5908 10.3089 11.7155 9.61008 9.55705 9.21897 8.55811 7.5026 5.75128 5.49424 4.36521 4.24129 5.60923 5.40348 9.57518 4.17747 4.0667 8.41072 3.70598 3.4695 3.46516 2.06189 1.99222 1.90087 1.86709 1.70749 1.58583 1.56599 2.3972 1.49027 1.50238 1.47202 2.38024 1.42282 1.26136 1.24447 1.6512 0.972255 0.946776 0.919462 0.905963 1.44181 0.563371 0.374703 1.18537 0.362638 0.357495 0.256381 0.118131 0.457809 0.492299 0.11352 0.113352 0.112905 0.109939 0.076607
threshold=39.500000000000007 1.0000000180025095e-35 14207.955000000004 23465.470000000005 8.0000000000000018 -251.02499999999998 17380.475000000002 1.0000000180025095e-35 43.500000000000007 414.69000000000011 2834.8050000000003 -343.64999999999992 2722.6000000000008 -9063.2399999999998 4162.005000000001 1.0000000180025095e-35 1.0000000180025095e-35 1685.5150000000001 1103131649.0000002 47.500000000000007 2.5000000000000004 1173.2600000000002 106977.60000000002 8.0000000000000018 1.0000000180025095e-35 2125.5200000000004 1.0000000180025095e-35 1.0000000180025095e-35 2.5000000000000004 4374.1250000000009 373.89500000000004 -1263.4999999999998 -1.0000000180025095e-35 12.500000000000002 68.500000000000014 694.23500000000013 -172.19499999999996 3095.2050000000004 86866.595000000016 1317.6950000000002 1.5000000000000002 1.0000000180025095e-35 22.500000000000004 -685.49999999999989 -1201.9999999999998 -1140.9999999999998 507400.7950000001 2125.5200000000004 5.5000000000000009 45.500000000000007 3903.7450000000003 203673.81500000003 1.5000000000000002 1.0000000180025095e-35 8294.9250000000011 43.500000000000007 729922843.00000012 75.500000000000014 -2115.4999999999995 -1.0000000180025095e-35 49.500000000000007 2582.7100000000005 -527.57999999999981 1216336582.5000002 38.500000000000007 33723.750000000007 15779.225000000002 134.50000000000003 575398559.50000012 1.0000000180025095e-35 130.50000000000003 -1993.4999999999998 59.500000000000007 121.50000000000001 3.5000000000000004 5337.1500000000005 87627.200000000012 -1536.4999999999998 2404.6500000000005 837991083.00000012 4750.6500000000005 12.500000000000002 44632.650000000009 7448.3350000000009 34.500000000000007
decision_type=2 2 2 2 8 2 10 2 2 2 2 2 2 2 2 2 2 2 2 2 8 2 10 8 2 2 2 2 2 2 2 8 2 2 2 2 2 8 2 2 2 2 2 8 8 10 10 2 2 2 2 2 2 10 8 2 2 2 10 2 2 2 2 2 2 2 2 2 2 10 2 10 2 2 2 2 2 8 2 2 2 2 2 2 2
left_child=2 6 3 4 5 20 11 13 9 -9 16 35 14 -7 21 17 -10 25 33 -6 49 30 -23 39 -25 26 27 -8 29 -29 -13 -32 -22 -15 -14 44 -35 -36 -5 53 41 42 48 -44 -2 66 -47 54 -17 -1 -19 -40 -4 56 -37 62 57 -3 59 -55 61 69 -50 72 65 -65 -27 -49 -45 70 -42 -58 77 -74 -57 -52 -26 78 79 -60 -75 82 -79 -62 -73
right_child=1 23 52 38 19 7 15 8 10 -11 -12 12 34 18 -16 40 -18 50 -20 -21 32 22 -24 24 76 45 -28 28 -30 -31 31 -33 -34 36 37 47 -38 -39 51 -41 60 -43 43 68 -46 46 -48 67 55 -51 75 -53 -54 58 -56 74 71 -59 63 -61 83 -63 -64 64 -66 -67 -68 -69 -70 -71 -72 84 73 80 -76 -77 -78 81 -80 -81 -82 -83 -84 -85 -86
leaf_value=0.0051976844683963054 -0.0062414476275620794 -0.005445543567010107 -0.05089821909353906 0.0058210731529600608 0.091947745142086187 0.090214798841249055 -0.020807653932347965 0.083895565521031251 0.058650350939195517 0.16726009835114694 0.028420140016379783 0.057756557704203529 0.023225442399038974 0.046194576466358842 -0.025365881101709845 -0.0095101233414100223 0.11739870851319345 -0.023006640867608612 0.071717991729166639 0.12800738880534276 0.059767074209606544 0.036740488551681043 0.10771951696396766 0.042624565116903407 -0.039835718428641732 -0.029435047374155116 -0.041988653779500916 0.014811240191038579 0.0011426081929803084 0.082229595113532214 -0.016636772028387228 0.045521451403967295 0.0075139275699619085 0.03784298852871857 0.0047785546136146773 -0.028867215314512373 -0.0037796901032116272 -0.044387151232994859 -0.037360977903442491 -0.017005284509508563 -0.052705627802823347 0.0073429869347728573 0.016772184054468519 -0.028820215199456406 0.035589804294491566 0.019695972295593663 -0.046680412746738724 -0.030552317238221934 -0.046754900774931878 -0.025556710771807333 -0.052679849954155873 -0.012873405930456995 -0.025327373669884905 -0.052639679241668784 -0.0013577095373703565 -0.052722766979903087 -0.035356147953513425 -0.043273368900266389 -0.037746094128275946 -0.022300753603768392 -0.052658333787984443 -0.014947412525700459 -0.01696965478487716 -0.052625652928372686 -0.029235212442364857 -0.026006420415888753 -0.052693556218375445 -0.052773215625108852 -0.052718989459578661 -0.052662924546342915 -0.023645697022165443 -0.046567805707071565 -0.030405281200658038 -0.052630399758835579 -0.040951877127652733 -0.039481014092348048 -0.052686267221161251 -0.052615257542150719 -0.052618645888222626 -0.05262721379476154 -0.045280228476970504 -0.04625932623241015 -0.046566656035146189 -0.045690799615171931 -0.052654846527873826
leaf_weight=16.920355878770351 16.794408346526325 7.737095053773376 26.162905255332589 24.634444358758628 69.483918899670243 36.372551226057112 13.046076203230767 24.614422358572483 30.155455409549177 24.245902330614626 30.61847904138267 20.684841383248568 15.083077622577546 68.41566595248878 13.290963228326289 8.4523817133158428 29.106464494951069 12.309218456037341 43.249992570839822 57.462726762518287 17.89513202290982 19.1581936404109 17.522874527610838 10.937281537801029 8.1182460719719547 11.208354874514045 9.7040750947780889 11.575124046299608 14.533217933494596 17.394498672802001 18.665970975533128 14.830182150937615 20.676005270332098 22.182247188873589 9.9593905750662106 10.838547943159936 25.224602437578142 18.585270300507545 19.681936292909086 11.697635095566509 8.1788149266503769 10.430516370572148 14.273075309582053 8.7478058515116626 10.621510531287642 12.978084052912893 8.6844331421889347 9.3845674982294458 8.7230266854167002 24.360359107144177 19.012780703138564 16.770169824361801 11.364931823220102 7.8163048829883346 14.21350843831897 35.768021266441792 9.0466156206093711 11.139372991397975 14.037807662039997 10.324638296850026 34.846996423788369 9.6899308580905181 8.7612542696297151 33.346912094857544 13.389654778409747 7.8452165364287785 8.7009844803251308 11.792918915394692 8.8024707585573179 17.412522215861827 10.794798153452573 8.5884730163961667 9.3929903162643296 29.414426215924323 8.9103488149121386 7.9237800957635036 8.8376843966543657 337.44320290209725 59.767360256519169 10.659838741179554 7.1113431742414823 8.2138543901965004 8.6258376007899624 7.50056252721697 16.386033633723855
leaf_count=945 1444 878 2349 1240 1066 588 1183 947 1241 866 1685 1156 1244 1737 1151 862 839 1365 1281 956 965 1261 1142 929 886 1182 978 1015 1481 1557 1397 1078 1436 836 836 843 1378 1784 1124 1246 895 1113 1514 976 911 1398 972 901 895 1399 2172 888 1013 959 1392 3786 1044 1347 1793 1266 4138 1147 935 4224 1684 996 969 1192 938 2051 1268 1040 1162 3693 1035 939 985 43774 7694 1346 909 1065 1108 901 1951
internal_value=-0.00132762 -0.0302868 0.0538955 0.0599447 0.0682068 0.055923 -0.0112173 0.06722 0.0877629 0.125263 0.067377 0.0109221 0.0229156 0.0526372 0.0366147 -0.0252896 0.0875046 -0.0108542 0.0440449 0.10827 0.00864443 0.045681 0.0706478 -0.0470063 -0.0115736 1.1962e-05 0.0141801 0.0238189 0.0372019 0.0552919 0.0287783 0.0108833 0.0317568 0.0337114 -0.00978837 -0.0131447 0.0156961 -0.027233 -0.0132243 -0.0485953 -0.0358365 -0.0291292 -0.0328428 -0.0149821 0.00996487 -0.0225677 -0.00691411 -0.0268497 -0.040892 -0.0129509 -0.0407082 -0.0260952 -0.0431543 -0.0492008 -0.0132595 -0.045159 -0.0398274 -0.0277685 -0.0500903 -0.0353727 -0.0443981 -0.0379406 -0.0318297 -0.0505854 -0.0430616 -0.0475559 -0.0395997 -0.0429263 -0.0408068 -0.0440639 -0.0361723 -0.0465183 -0.0514328 -0.0469458 -0.0503753 -0.0487972 -0.0465336 -0.0519024 -0.050148 -0.044169 -0.0511994 -0.0523206 -0.0524645 -0.0514243 -0.0505616
internal_weight=1859.27 1219.67 639.599 602.071 540.984 414.038 569.789 334.186 138.741 48.8603 89.8804 221.426 147.781 195.445 104.153 348.363 59.2619 147.071 159.073 126.947 79.8519 90.8621 36.6811 649.878 27.8932 107.825 66.253 56.5489 43.5028 28.9696 54.181 33.4962 38.5711 115.823 43.6277 73.6455 47.4068 28.5447 61.0866 621.985 201.293 112.869 102.438 31.8234 27.4159 41.5719 21.6625 46.2295 70.615 41.2807 39.2458 36.4521 37.5278 610.287 25.0521 62.1627 52.8976 18.8765 557.389 18.1409 88.4236 46.0761 17.4843 539.248 54.5818 41.1921 19.9093 21.1775 17.5503 36.3861 18.9736 34.0211 484.667 45.9188 44.6784 26.9366 16.9559 438.748 84.465 24.6976 36.5258 354.283 346.069 42.3476 24.9745
internal_count=162155 137376 24779 21417 18165 16143 55397 11398 5578 1813 3765 17732 11049 5820 7185 37665 2080 15211 5232 2022 4745 6034 2403 81979 2800 10735 6214 5236 4053 2572 3631 2475 2401 3951 3864 6683 2214 2620 3252 79179 22454 12054 10941 3428 2355 4521 2370 4328 7513 2344 4476 2012 3362 77933 2235 6651 6260 2225 71673 2225 10400 5361 1830 69448 6904 5220 2151 2093 1914 4214 2163 4035 62544 5764 4821 3111 1871 56780 10833 3139 4602 45947 44882 5039 2991
is_linear=0
shrinkage=0.0522058


Tree=9
num_leaves=86
num_cat=0
split_feature=107 51 11 33 153 111 8 11 133 153 8 153 142 116 51 8 5 55 12 113 81 8 7 113 127 113 113 147 27 142 127 153 8 116 107 107 80 127 5 81 55 116 27 11 27 27 12 8 138 5 127 127 125 5 81 64 120 127 60 127 113 139 7 7 11 120 107 107 27 127 25 79 153 5 113 12 27 7 147 7 124 116 11 116 11
split_gain=960.775 139.952 110.118 103.966 70.7207 42.3169 39.6276 38.9582 37.0392 25.2607 30.2391 21.8897 18.7925 18.4056 16.3049 19.1972 17.1217 15.4846 15.2106 14.6067 17.1534 13.9675 21.305 11.1207 10.4912 10.4218 12.6601 9.84204 8.95125 7.24524 6.71752 6.70228 6.67069 6.06691 7.08436 5.71917 5.5773 5.50974 5.47354 4.78967 5.98527 6.1022 4.44867 4.3145 3.97343 6.00953 3.71512 3.46365 2.68626 2.65461 2.53731 2.45641 2.14778 1.88289 2.10153 2.2602 1.59928 2.2161 1.45962 1.39235 2.19622 1.56663 1.15801 2.38435 1.0805 1.07337 2.17083 0.942017 1.41235 0.789916 0.720204 0.425109 0.462274 0.244243 0.76599 0.160168 0.479808 0.158525 0.146148 0.377517 0.119416 0.0917236 0.0898676 0.0634817 1.09293e-05
threshold=39.500000000000007 1.0000000180025095e-35 152.17500000000004 14994.200000000003 639.28500000000008 8.0000000000000018 6271.4000000000005 832.48500000000013 8.0000000000000018 1.0000000180025095e-35 2511.8950000000009 5788.755000000001 91494.000000000015 2625.4400000000001 1.0000000180025095e-35 13585.560000000001 55.500000000000007 1.0000000180025095e-35 4.5000000000000009 -1475.4999999999998 23460.005000000001 13585.560000000001 513.79500000000007 -1416.4999999999998 764.50000000000011 -1263.4999999999998 -532.49999999999989 -8557.2549999999992 4.5000000000000009 182988.00000000003 2096.5000000000005 639.28500000000008 15235.195000000002 718.37000000000012 87.500000000000014 68.500000000000014 1.5000000000000002 489.50000000000006 51.500000000000007 39181.885000000002 1.5000000000000002 1173.0500000000002 1.0000000180025095e-35 371.17500000000007 8.5000000000000018 18.500000000000004 7.5000000000000009 1239.3250000000003 26667.465000000004 67.500000000000014 1404.5000000000002 1572.5000000000002 -15161.484999999999 44.500000000000007 83829.72500000002 8407.6250000000018 154836.00000000003 1026.5000000000002 3456.7200000000007 1572.5000000000002 -2146.4999999999995 749.31000000000006 1891.4100000000003 1326.8750000000002 422.16500000000008 31671.000000000004 93.500000000000014 61.500000000000007 4.5000000000000009 2532.5000000000005 3108.4850000000001 229.94500000000002 17788.545000000002 59.500000000000007 -501.49999999999994 6.5000000000000009 5.5000000000000009 1326.8750000000002 -4246.0999999999995 513.79500000000007 9859.0850000000009 4836.6050000000005 77.90000000000002 1173.0500000000002 670.34500000000014
decision_type=2 2 2 2 8 8 2 2 8 8 2 10 10 8 2 2 2 2 2 10 2 2 2 10 10 8 8 8 2 10 8 10 2 10 2 2 2 10 2 2 2 8 2 2 2 2 2 2 10 2 8 8 8 2 2 2 10 10 2 8 10 10 2 2 2 10 2 2 2 8 2 2 10 2 10 2 2 2 10 2 8 10 2 8 2
left_child=2 4 3 5 7 9 11 12 14 10 37 17 -2 19 15 16 23 25 -3 -14 -21 22 31 -4 -12 -6 -27 -17 33 -29 36 -11 -7 34 -8 -9 -13 -1 77 40 41 44 47 -19 -30 48 -37 -20 -46 59 -16 -43 -32 54 -41 -56 65 -58 70 60 -44 67 63 69 -54 66 -49 68 -62 -55 -53 72 75 78 -75 76 -69 -5 -61 -80 -64 84 -77 -66 -42
right_child=1 18 8 38 6 32 28 35 -10 21 24 30 13 -15 50 27 -18 43 42 20 -22 -23 -24 -25 -26 26 -28 29 39 -31 52 -33 -34 -35 -36 46 -38 -39 -40 53 81 51 49 -45 45 -47 -48 56 -50 -51 -52 58 64 62 55 -57 57 -59 -60 73 61 -63 80 -65 83 -67 -68 71 -70 -71 -72 -73 -74 74 -76 82 -78 -79 79 -81 -82 -83 -84 -85 -86
leaf_value=0.024735051063393954 -0.0037018669435970038 0.030280575786601149 0.021600882263179751 -0.015542561972674972 0.0092981646576816707 0.098383880136646853 0.022829142705570214 0.012835355160045142 0.086343902470687531 0.047115033413124174 0.066218847654008109 -0.028397911420886456 0.026448943542562522 0.010661913919207421 -0.052721376175674135 -0.049504349555217181 -0.0083611491223822294 0.00980531588776252 -0.0039697942395602887 0.1203196910544358 0.048671598690159565 0.016747352569928511 0.081519483315464755 0.081893990203424041 0.098556467824767097 0.093003395841862707 0.021960104718902369 -0.026680050024172026 0.019285146569511205 0.019996116877248553 -0.012326137903231192 0.01061992603724128 0.075873727767098026 -0.038649351191847099 -0.026530783031669256 -0.010616522980466744 0.021035552113826912 0.056485253335147846 0.014569970975563727 -0.049257564792855299 -0.052731696075713479 -0.010261603045942473 -0.02323359414357019 -0.03177590688136462 -0.014908859595961827 0.0090379248449332372 -0.046505717642979984 -0.016845045307483909 -0.052724025626740278 -0.026858107045456991 -0.017560889457265128 -0.052719018041572842 -0.028627241062291531 -0.033205854501758676 -0.011468691932466097 -0.040905134362262272 -0.0094866837296809052 -0.046328755239012295 -0.022543130597305065 -0.052593288943664621 -0.022196916760586403 -0.028185106810412312 -0.052635670838678365 -0.015068031854602669 -0.052721811445597802 -0.052644081506172363 -0.052713658561603746 -0.039716411100828117 -0.052632922067652493 -0.05266993561492217 -0.034577742640824242 -0.037205651110511044 -0.037262284266026513 -0.052610798160104687 -0.033924287649316195 -0.04743111416618543 -0.052601104243877587 -0.022435701424578566 -0.038566465279938775 -0.052605478993108863 -0.045427030351583929 -0.045826848032756058 -0.052600329074310115 -0.046380582578413335 -0.052648575135362773
leaf_weight=31.102967523038387 19.035727927461267 6.9136242200620464 16.029044842347503 17.880306705832481 17.631411477457732 97.874567972496152 18.561577748507261 11.917656512930987 14.831607836298643 31.296322301030159 45.204963804222643 10.697612375952305 14.420449099037794 18.842451768461615 15.040295167826118 15.344234208576379 19.74292615801096 14.97985179256648 8.5733055118471366 20.454574821982533 16.415941956918687 46.086073669604957 38.771825682371855 17.374985817819834 69.199334493838251 15.030697141773997 12.539900893345477 15.736075156368313 10.863824112340806 21.375052429735661 9.0526417479850334 24.413385389372706 56.645611890591681 14.736687837168573 13.829101951327173 14.851094907615336 14.862755392212419 28.587774706073105 20.715310937725008 15.207667551469056 8.2150952653028124 8.612147437874226 10.65657260455191 12.456267217174171 9.6502444320358354 14.366985733620821 16.701832419261336 8.7336644302122313 10.905659917276351 14.171902598813174 8.905978294555096 19.189143029507253 10.803322100080551 8.0425492590293306 15.203937509562822 13.352429785765706 9.671495941467585 8.2417123429477197 8.6630184710957092 279.093206692487 8.575142895337196 10.685344061348585 46.273211057297885 8.3321379604749364 8.9819542868062836 22.954035913571715 9.713097552303223 12.148009203840045 8.0619741817936283 19.366372867487371 8.654077460523693 6.7818653276190153 6.8072085138410321 20.862413721624765 8.380219910759477 10.070384207181631 22.403887914959341 18.501663962379098 7.4349492457695332 17.52609404316172 7.2435709624551228 7.6645533260889342 102.09294964885339 8.2590535655617732 9.0726502495817822
leaf_count=1181 1337 665 920 889 1489 1565 1370 1010 540 1032 982 1010 889 1365 1633 1281 1145 1254 969 1230 1132 1669 1294 981 1490 1288 1008 995 1039 1278 1008 1254 900 1414 1171 1403 1568 761 1077 1711 870 955 1346 1308 945 1490 1681 955 1155 1737 954 2059 1031 922 1760 1671 1118 971 1003 38223 1063 1391 5774 988 957 2826 1054 1602 1009 2263 1004 910 915 2749 1098 1310 3010 958 980 2332 904 951 13746 911 1099
internal_value=-0.00134544 -0.0296153 0.0485838 0.0596638 -0.0107912 0.0677583 -0.0210435 0.0225459 0.00819589 0.0567715 0.0700628 0.00236294 0.0423006 0.0547867 -0.000751028 0.00806845 0.0301819 0.0218659 -0.0467221 0.0709966 0.0884197 0.04031 0.0518033 0.0529621 0.0857788 0.0406447 0.0606909 -0.0143365 -0.0317419 0.000204218 -0.0202467 0.031122 0.0901319 -0.0108794 0.00175507 -0.0179761 0.00034649 0.0399412 -0.00685115 -0.0356924 -0.0279321 -0.0217154 -0.0475897 -0.00907297 -0.00828857 -0.0168662 -0.0296137 -0.0349865 -0.0349712 -0.0491574 -0.0396447 -0.0353412 -0.0344356 -0.0424513 -0.0335811 -0.0252326 -0.0394697 -0.0264374 -0.0412577 -0.0497519 -0.0462879 -0.0475973 -0.0468005 -0.0395241 -0.0415725 -0.0451085 -0.0357316 -0.0487696 -0.0369455 -0.0469586 -0.0470804 -0.0499967 -0.0505618 -0.0518127 -0.0472557 -0.0511789 -0.048071 -0.019048 -0.052251 -0.0484238 -0.05166 -0.0505805 -0.0521362 -0.0496841 -0.0526881
